tree
version=v3
num_class=1
num_tree_per_iteration=1
label_index=0
max_feature_idx=404
objective=binary sigmoid:1
feature_names=Column_0 Column_1 Column_2 Column_3 Column_4 Column_5 Column_6 Column_7 Column_8 Column_9 Column_10 Column_11 Column_12 Column_13 Column_14 Column_15 Column_16 Column_17 Column_18 Column_19 Column_20 Column_21 Column_22 Column_23 Column_24 Column_25 Column_26 Column_27 Column_28 Column_29 Column_30 Column_31 Column_32 Column_33 Column_34 Column_35 Column_36 Column_37 Column_38 Column_39 Column_40 Column_41 Column_42 Column_43 Column_44 Column_45 Column_46 Column_47 Column_48 Column_49 Column_50 Column_51 Column_52 Column_53 Column_54 Column_55 Column_56 Column_57 Column_58 Column_59 Column_60 Column_61 Column_62 Column_63 Column_64 Column_65 Column_66 Column_67 Column_68 Column_69 Column_70 Column_71 Column_72 Column_73 Column_74 Column_75 Column_76 Column_77 Column_78 Column_79 Column_80 Column_81 Column_82 Column_83 Column_84 Column_85 Column_86 Column_87 Column_88 Column_89 Column_90 Column_91 Column_92 Column_93 Column_94 Column_95 Column_96 Column_97 Column_98 Column_99 Column_100 Column_101 Column_102 Column_103 Column_104 Column_105 Column_106 Column_107 Column_108 Column_109 Column_110 Column_111 Column_112 Column_113 Column_114 Column_115 Column_116 Column_117 Column_118 Column_119 Column_120 Column_121 Column_122 Column_123 Column_124 Column_125 Column_126 Column_127 Column_128 Column_129 Column_130 Column_131 Column_132 Column_133 Column_134 Column_135 Column_136 Column_137 Column_138 Column_139 Column_140 Column_141 Column_142 Column_143 Column_144 Column_145 Column_146 Column_147 Column_148 Column_149 Column_150 Column_151 Column_152 Column_153 Column_154 Column_155 Column_156 Column_157 Column_158 Column_159 Column_160 Column_161 Column_162 Column_163 Column_164 Column_165 Column_166 Column_167 Column_168 Column_169 Column_170 Column_171 Column_172 Column_173 Column_174 Column_175 Column_176 Column_177 Column_178 Column_179 Column_180 Column_181 Column_182 Column_183 Column_184 Column_185 Column_186 Column_187 Column_188 Column_189 Column_190 Column_191 Column_192 Column_193 Column_194 Column_195 Column_196 Column_197 Column_198 Column_199 Column_200 Column_201 Column_202 Column_203 Column_204 Column_205 Column_206 Column_207 Column_208 Column_209 Column_210 Column_211 Column_212 Column_213 Column_214 Column_215 Column_216 Column_217 Column_218 Column_219 Column_220 Column_221 Column_222 Column_223 Column_224 Column_225 Column_226 Column_227 Column_228 Column_229 Column_230 Column_231 Column_232 Column_233 Column_234 Column_235 Column_236 Column_237 Column_238 Column_239 Column_240 Column_241 Column_242 Column_243 Column_244 Column_245 Column_246 Column_247 Column_248 Column_249 Column_250 Column_251 Column_252 Column_253 Column_254 Column_255 Column_256 Column_257 Column_258 Column_259 Column_260 Column_261 Column_262 Column_263 Column_264 Column_265 Column_266 Column_267 Column_268 Column_269 Column_270 Column_271 Column_272 Column_273 Column_274 Column_275 Column_276 Column_277 Column_278 Column_279 Column_280 Column_281 Column_282 Column_283 Column_284 Column_285 Column_286 Column_287 Column_288 Column_289 Column_290 Column_291 Column_292 Column_293 Column_294 Column_295 Column_296 Column_297 Column_298 Column_299 Column_300 Column_301 Column_302 Column_303 Column_304 Column_305 Column_306 Column_307 Column_308 Column_309 Column_310 Column_311 Column_312 Column_313 Column_314 Column_315 Column_316 Column_317 Column_318 Column_319 Column_320 Column_321 Column_322 Column_323 Column_324 Column_325 Column_326 Column_327 Column_328 Column_329 Column_330 Column_331 Column_332 Column_333 Column_334 Column_335 Column_336 Column_337 Column_338 Column_339 Column_340 Column_341 Column_342 Column_343 Column_344 Column_345 Column_346 Column_347 Column_348 Column_349 Column_350 Column_351 Column_352 Column_353 Column_354 Column_355 Column_356 Column_357 Column_358 Column_359 Column_360 Column_361 Column_362 Column_363 Column_364 Column_365 Column_366 Column_367 Column_368 Column_369 Column_370 Column_371 Column_372 Column_373 Column_374 Column_375 Column_376 Column_377 Column_378 Column_379 Column_380 Column_381 Column_382 Column_383 Column_384 Column_385 Column_386 Column_387 Column_388 Column_389 Column_390 Column_391 Column_392 Column_393 Column_394 Column_395 Column_396 Column_397 Column_398 Column_399 Column_400 Column_401 Column_402 Column_403 Column_404
feature_infos=[-0.016779899597167969:0.85599994659423828] [0.00066160003188997507:0.0021083999890834093] [-0.24499998986721039:30.594999313354492] [1.1995434761047363e-05:0.10416999459266663] [19.19970703125:11227.400390625] [-0.055624961853027344:1.0233880415472951] [0.00066090002655982971:0.0021079001016914845] [0.014999999664723873:30.545000076293945] [9.1620085195094232e-07:0.11457599699497223] [19.7998046875:10409.7998046875] [-0.044744968414306641:1.1913869592361916] [0.00065950001589953899:0.0020846000406891108] [-0.59713054559880063:30.5] [2.9896026199026606e-06:0.12280400097370148] [19.7998046875:9725] [-0.077554941177368164:1.2809873445089848] [0.00065709999762475491:0.0021102000027894974] [-0.93000000715255737:30.5] [-5.4138610107653013e-05:0.11340799927711487] [20:8076] [-0.045307389168350171:1.2297548210421614] [0.00065569998696446419:0.0020620999857783318] [-0.17000000178813934:30.524999618530273] [-0.00014992086610282615:0.10821199417114258] [20.19970703125:5954.60009765625] [-0.046020030975341797:1.0472500324249268] [0.0006538000307045877:0.0020622001029551029] [-0.17499999701976771:30.539999008178711] [-0.00015724409965010947:0.11242799460887909] [20.39990234375:6681.2001953125] [-0.13756489753723145:1.056939959526062] [0.00065210001775994897:0.0020512000191956758] [-0.125:30.439998626708984] [1.1730340286429847e-05:0.12055999785661697] [19.7998046875:12953.400390625] [-0.16663503646850586:0.90640497207641602] [0.00065130001166835427:0.0020487001165747643] [-0.81999999284744263:30.44999885559082] [1.1995434761047363e-05:0.12846800684928894] [20.60009765625:4491.60009765625] [-0.17666506767272949:0.78919005393981934] [0.00064980000024661422:0.0020492000039666891] [-1.0399999618530273:30.444999694824219] [1.1995434761047363e-05:0.12948599457740784] [20:3020.800048828125] [-0.053159952163696289:0.9440574620892257] [0.00066650001099333167:0.0021087999921292058] [-1.2099999189376831:30.654998779296875] [-1.0076666349938796e-05:0.088895998895168304] [19.19970703125:8816.2001953125] [-0.055200099945068359:1.1267249584197998] [0.00066050002351403236:0.0020822000224143267] [0.019999999552965164:30.539999008178711] [1.1995434761047363e-05:0.091756001114845276] [19.7998046875:8735.400390625] [-0.044149875640869141:1.1201800107955933] [0.00064367363027995094:0.0021077001001685858] [-0.039999999105930328:30.73499870300293] [-1.3452114046068344e-05:0.099050000309944153] [20.19970703125:8009.2001953125] [-0.081295013427734375:1.2443501446211813] [0.00065499998163431883:0.0020580999553203583] [-0.070000000298023224:30.619998931884766] [-6.5876665040155653e-05:0.1085599958896637] [16.182181866125916:12953.400390625] [-0.039909139444506615:1.2397750616073608] [0.00065290002385154366:0.0020562999416142702] [-0.3449999988079071:30.619998931884766] [-3.5956324680500387e-05:0.11186199635267258] [19.19970703125:12953.400390625] [-0.037179946899414062:0.89765000343322754] [0.00065080000786110759:0.0020858999341726303] [-0.26999998092651367:30.539999008178711] [-1.7663756103138403e-05:0.12160399556159973] [19:5345.39990234375] [-0.1032249927520752:0.81622004508972168] [0.00064859999110922217:0.0020552999339997768] [-0.82499998807907104:30.554998397827148] [1.1038422438988719e-05:0.11990399658679962] [19:10886.2001953125] [-0.16910004615783691:0.79267501831054688] [0.00064699997892603278:0.0020520000252872705] [-0.82499998807907104:30.469999313354492] [-4.86779094667789e-06:0.12470600008964539] [19.7998046875:8584.400390625] [-0.17581510543823242:0.77882003784179688] [0.00064520002342760563:0.0020330999977886677] [-0.69499999284744263:30.5] [-2.333084722309813e-05:0.10834600031375885] [20.39990234375:5432.2001953125] [-0.049249887466430664:1.2211600542068481] [0.0006454000249505043:0.0020850999280810356] [-0.60313008048351868:30.57499885559082] [-0.00011523663312376048:0.070542000234127045] [19:12953.400390625] [-0.094384908676147461:1.0946799516677856] [0.00065400003222748637:0.0020838999189436436] [-0.10745355706457496:30.534999847412109] [1.1321051400157351e-05:0.049811996519565582] [19.39990234375:5844.39990234375] [-0.030124902725219727:1.1571550369262695] [0.00062409997917711735:0.0020830999128520489] [-0.42999997735023499:30.729999542236328] [5.9769567081462493e-06:0.037745997309684753] [19.60009765625:3992.599853515625] [-0.054643634889876516:1.1842700242996216] [0.00062409997917711735:0.0020417999476194382] [-0.45499998331069946:30.649999618530273] [-0.00033638802960777594:0.060597997158765793] [19.7998046875:7391.7126568772965] [-0.047039985656738281:1.1524800062179565] [0.00062409997917711735:0.0020518999081104994] [-0.36499997973442078:30.629999160766602] [-0.00078281017196115798:0.085493996739387512] [19:7790.60009765625] [-0.027915000915527344:0.84801006317138672] [0.00065902223136292989:0.002099399920552969] [-0.82999998331069946:30.539999008178711] [1.0581507918046961e-05:0.10126199573278427] [-18.734951728017784:5179.6913531863802] [-0.060554981231689453:0.79097497463226318] [0.00064869999187067151:0.0020510000176727772] [-0.74000000953674316:30.529998779296875] [3.316194100370354e-06:0.17822148444998631] [19.39990234375:6966.8258376747017] [-0.09931492805480957:0.79666996002197266] [0.00065766357383763719:0.0020532999187707901] [-0.55000001192092896:30.434999465942383] [1.1086700914839534e-05:0.10881799459457397] [-298.51309590382897:8599.1396715293995] [-0.14963507652282715:0.90530002117156982] [0.00065604554621975591:0.0020509001333266497] [-0.44499999284744263:30.479999542236328] [6.9876539830234252e-06:0.11618084130661745] [20.19970703125:9884.2001953125] [-0.20556497573852539:1.1648900508880615] [0.00065000000176951289:0.0020962001290172338] [-0.72999995946884155:30.584999084472656] [-0.00010597736861087332:0.018867999315261841] [19.19970703125:6712.7998046875] [-0.02714991569519043:1.2130000591278076] [0.00064809998730197549:0.0020821001380681992] [-0.57999998331069946:30.519998550415039] [-0.00017810180891769957:0.013589996844530106] [17.19970703125:7080.2001953125] [-0.041939973831176758:1.1707550287246704] [0.00064660003408789635:0.002079100115224719] [-0.57999998331069946:30.639999389648438] [-1.0457935461714703e-05:0.0093659982085227966] [-114.77366960742309:5922.7998046875] [-0.066164970397949219:0.84256994724273682] [0.00063160003628581762:0.0020517001394182444] [-0.89499998092651367:30.579999923706055] [-0.00048739317463674471:0.026397999376058578] [20.19970703125:7742.39990234375] [-0.099654912948608398:1.1585149765014648] [0.00064370001200586557:0.0020534000359475613] [-1.1050000190734863:30.469999313354492] [-0.0010617639099649665:0.045255996286869049] [19.60009765625:5282.7998046875] [-0.060129880905151367:0.74431002140045166] [0.00064139999449253082:0.0021103001199662685] [-1.0427238191578596:30.494998931884766] [1.0304746872237055e-05:0.079315997660160065] [19.39990234375:5417.2001953125] [-0.045594930648803711:0.78434503078460693] [0.00065559998620301485:0.0020908999722450972] [-0.79499995708465576:30.639999389648438] [1.00937147017729e-05:0.11864599585533142] [-384.96144118096868:4910.60009765625] [-0.057324886322021484:0.7912299633026123] [0.00065549998544156551:0.0020469001028686762] [-0.62000000476837158:30.559999465942383] [1.1396574969981905e-05:0.19368028346873112] [-965.3509824583582:2780.39990234375] [-0.09701991081237793:0.77618503570556641] [0.00065298193478230101:0.0020612000953406096] [-0.48999997973442078:30.539999008178711] [9.3563354875849662e-06:0.12742097356835233] [19.7998046875:1642.39990234375] [-0.074665069580078125:1.0080649852752686] [0.00063640001462772489:0.0021012838167150947] [-0.25999999046325684:30.539999008178711] [-0.00032511100542701577:0.009265996515750885] [19.7998046875:5812.7998046875] [-0.048059940338134766:1.0836299657821655] [0.00062960002105683088:0.0020413000602275133] [-1.5799999237060547:30.549999237060547] [-1.0122466424800604e-06:0.0080519989132881165] [19.60009765625:7753.7998046875] [-0.047039985656738281:0.76250004768371582] [0.00063110003247857094:0.0020518000237643719] [-1.6749999523162842:30.764999389648438] [1.1134256897773655e-05:0.010707996785640717] [19.39990234375:6259] [-0.050184965133666992:1.94569993019104] [0.00063850003061816096:0.0020578000694513321] [-1.7999999523162842:30.554998397827148] [1.1932484004228335e-05:0.021007996052503586] [19.39990234375:7704] [-0.11062002182006836:0.97882497310638428] [0.00063750002300366759:0.0020572999492287636] [-0.93987522170925231:30.529998779296875] [1.1532118055673138e-05:0.035835996270179749] [19.60009765625:6260.2001953125] [-0.041685104370117188:0.94923841344073989] [0.00063530000625178218:0.0020924999844282866] [-1.3184526442928928:30.510000228881836] [9.782664951283108e-06:0.052109997719526291] [19.19970703125:5772.60009765625] [-0.030634880065917969:0.7755049467086792] [0.00063560000853613019:0.0020912999752908945] [-0.95999997854232788:30.629999160766602] [1.084211683869131e-05:0.095165997743606567] [19.19970703125:3465.599853515625] [-0.08316493034362793:0.76037502288818359] [0.00062000000616535544:0.0020586999598890543] [-0.95499998331069946:30.684999465942383] [1.1867661051468959e-05:0.12955799698829651] [-1244.572373949446:3419.4286459461173] [-0.12005431231634257:0.79038000106811523] [0.00065032554461888785:0.0020483999978750944] [-0.28999999165534973:30.639999389648438] [-5.7526280290455225e-05:0.13053399324417114] [-425.7144512565261:2659.199951171875] [-0.058259963989257812:0.84758496284484863] [0.00062080001225695014:0.0020983000285923481] [-0.11999999731779099:30.465000152587891] [-0.0003118247132935774:0.0097339972853660583] [20.19970703125:4655] [-0.026045083999633789:0.8351750373840332] [0.00060407339721108748:0.0020908000878989697] [-0.26999998092651367:30.529998779296875] [1.1915234237667789e-05:0.0083119980990886688] [20:12261] [-0.038029909133911133:0.90530002117156982] [0.00062900001648813486:0.0020908999722450972] [-1.3450000286102295:30.674999237060547] [7.4657546553441699e-06:0.01080399751663208] [19.19970703125:8255] [-0.03607487678527832:1.5700850486755371] [0.00063000002410262823:0.0020729240283059694] [-0.29999998211860657:30.559999465942383] [1.1972003985874785e-05:0.034485995769500732] [20:7247.39990234375] [-0.22715497016906738:1.0106149911880493] [0.00062920001801103354:0.0020743394573871305] [0.32999998331069946:30.590000152587891] [3.3727194184578296e-06:0.052135996520519257] [19.7998046875:7202.39990234375] [-0.054774999618530273:0.80117499828338623] [0.00062710000202059746:0.0020824000239372253] [-0.63499999046325684:30.614999771118164] [9.9587563550587015e-06:0.055323995649814606] [19.7998046875:5029] [-0.039390087127685547:1.095020055770874] [0.00062800000887364149:0.002073999959975481] [-0.70999997854232788:30.625] [-0.00020146646601091025:0.071821995079517365] [19.7998046875:5417.60009765625] [-0.05027008056640625:0.78264498710632324] [0.00063120003324002028:0.0020562000572681427] [-1.3809104947545805:30.654998779296875] [-0.00012987220261336679:0.099646002054214478] [19.60009765625:2982.800048828125] [-0.13207921064676625:0.75612497329711914] [0.00064829998882487416:0.002091800095513463] [0.094999998807907104:30.670000076293945] [-5.442409297384651e-05:0.010327998548746109] [19.7998046875:3196.599853515625] [-0.036159992218017578:0.80610501766204834] [0.00062539998907595873:0.0020801001228392124] [-0.079999998211860657:30.479999542236328] [1.1417900243990405e-05:0.0096899978816509247] [18.60009765625:5968.60009765625] [-0.059449911117553711:0.80100500583648682] [0.00063358956221248538:0.0020870999433100224] [-0.024999998509883881:30.379999160766602] [-4.3555307127407693e-05:0.0090599991381168365] [19.39990234375:5498.60009765625] [-0.13059496879577637:1.1502699851989746] [0.00064809998730197549:0.0020870999433100224] [0.099999994039535522:30.629999160766602] [1.1730564850167371e-05:0.015491995960474014] [-0.97328731290089365:6730.2001953125] [-0.027489900588989258:1.1507799625396729] [0.00064949999796226621:0.002086099935695529] [0.25:30.614999771118164] [1.1532290668201069e-05:0.049079999327659607] [20:5608.60009765625] [-0.11070636003759116:0.78570497035980225] [0.00062740000430494547:0.002095900010317564] [-0.65499997138977051:30.639999389648438] [-1.9611758188777863e-05:0.03567199781537056] [-100.323440875891:6554] [-0.063615083694458008:0.73971998691558838] [0.00063988708589388891:0.0020930999889969826] [-1.2999999523162842:30.649999618530273] [2.5226855434266719e-06:0.016929998993873596] [19.39990234375:7084.39990234375] [-0.061660809214977588:1.0526050329208374] [0.00065000000176951289:0.0020949000027030706] [-0.62043659242981464:30.60999870300293] [-0.00012603358721937082:0.0095732063015935547] [19:5970.7998046875] [-0.058685064315795898:0.81962001323699951] [0.00064869999187067151:0.0020977999083697796] [-0.67020390771257654:30.590000152587891] [-9.8564708770097097e-05:0.030798214594897417] [20.19970703125:4172] [-0.10479511698973953:0.85183501243591309] [0.00064749998273327947:0.0020969000179320574] [-0.32356415297961783:30.60999870300293] [-0.012561487389225749:0.0094999969005584717] [20:2742] [-0.026129961013793945:0.80933499336242676] [0.00064209999982267618:0.0020298000890761614] [-0.079999998211860657:30.354999542236328] [1.1948222997333525e-05:0.0082199983298778534] [19:6428.7998046875] [-0.029360055923461914:0.8146899938583374] [0.00063840002985671163:0.0020216000266373158] [-0.079999998211860657:30.354999542236328] [1.1995434761047363e-05:0.010987997055053711] [19.60009765625:5853.39990234375] [-0.035140037536621094:0.81894004344940186] [0.00063810002757236362:0.0020540000405162573] [0.049999997019767761:30.469999313354492] [1.095978038808669e-05:0.0096159987151622772] [18.7998046875:4720.2001953125] [-0.015845060348510742:0.81426501274108887] [0.00064889999339357018:0.0020536000374704599] [-0.17000000178813934:30.584999084472656] [1.1995434761047363e-05:0.010945998132228851] [19.39990234375:5149] [-0.032335042953491211:0.81205499172210693] [0.00064879999263212085:0.0021003999281674623] [-0.60499995946884155:30.670000076293945] [-0.00031691108830339863:0.0099600389208628175] [-11.745101352815304:3901.0037256045362] [-0.072710037231445312:0.80772006511688232] [0.0006475999834947288:0.0020999000407755375] [-0.90999996662139893:30.564998626708984] [1.0269358099052694e-05:0.0085139982402324677] [19:4212.39990234375] [-0.059959888458251953:0.81316006183624268] [0.00064640003256499767:0.0020934001076966524] [-1.0950000286102295:30.584999084472656] [9.4839091400946183e-06:0.0064459964632987976] [19:3011.5208789228391] [-0.031059980392456055:0.82761001586914062] [0.00064610003028064966:0.0020940001122653484] [-0.875:30.629999160766602] [1.0968123162894023e-05:0.0081329032544743846] [19.60009765625:8267] [-0.037945032119750977:0.80874001979827881] [0.00064630003180354834:0.0020942001137882471] [-0.26499998569488525:30.649999618530273] [1.1995434761047363e-05:0.010147996246814728] [19.39990234375:4746] [-0.025705099105834961:1.4001700878143311] [0.00064909999491646886:0.0020123000722378492] [-0.45999997854232788:30.594999313354492] [1.1995434761047363e-05:0.007465999573469162] [19:7074.7998046875] [-0.024090051651000977:0.89187002182006836] [0.00062479998450726271:0.0020218999125063419] [-0.63499999046325684:30.594999313354492] [-3.1836453527478022e-05:0.0085259974002838135] [19.19970703125:4516.60009765625] [-0.025705099105834961:0.83687496185302734] [0.00064660003408789635:0.0020367999095469713] [-1.4699999094009399:30.629999160766602] [-1.4807713460328425e-05:0.0084959976375102997] [19.19970703125:4879.2001953125] [-0.048569917678833008:0.83075499534606934] [0.00064640003256499767:0.0020250000525265932] [-1.4699999094009399:30.69999885559082] [-7.6371581112710555e-05:0.0099499970674514771] [18.60009765625:6512] [-0.062052093990593332:0.79955995082855225] [0.00064600002951920033:0.0020902000833302736] [-0.74000000953674316:30.649999618530273] [-0.00049373289255380277:0.0081479959189891815] [19.39990234375:5350.60009765625] [-0.086905002593994141:0.79012501239776611] [0.00064510002266615629:0.0020976001396775246] [-0.31499999761581421:30.625] [-0.00033711430283722086:0.0090499967336654663] [19:12953.400390625] [-0.055114984512329102:0.77627003192901611] [0.00064490002114325762:0.0020967000164091587] [-0.17000000178813934:30.590000152587891] [-1.2185075749961978e-05:0.0080559961497783661] [19.7998046875:7018.7998046875] [-0.045424938201904297:1.0360300540924072] [0.00065529998391866684:0.0020964001305401325] [-0.035000000149011612:30.664999008178711] [1.0598546881947438e-05:0.0077859982848167419] [19.7998046875:4218] [-0.050440073013305664:0.93844997882843018] [0.00065940001513808966:0.002041500061750412] [-0.26499998569488525:30.659999847412109] [1.1995434761047363e-05:0.0082959979772567749] [19.19970703125:2716.800048828125]
tree_sizes=935 956 855 858 961 855 962 962 956 965 965 963 961 963 963 961 1072 960 965 858 970 963 958 963 961 967 959 964 855 942 961 857 965 962 962 854 965 851 1057 964 856 962 958 964 962 859 957 955 964 962 955 964 955 960 961 858 963 958 856 969 961 961 856 958 959 862 862 853 962 958 959 962 967 851 969 855 964 959 960 858 966 970 857 963 967 967 855 960 860 962 854 964 860 964 967 968 963 951

Tree=0
num_leaves=8
num_cat=0
split_feature=44 369 0 0 404 48 174
split_gain=675.98 90.3719 33.8646 27.126 15.7882 2.41097 0.252863
threshold=120.89990234375001 86.399902343750014 0.022235035896301273 0.15980744361877444 103.19995117187501 0.00032600015401840215 146.69995117187503
decision_type=10 10 10 10 10 10 10
left_child=3 -2 -3 5 -4 -1 -6
right_child=1 2 4 -5 6 -7 -8
leaf_value=0.68047617030054153 0.68022728169989433 0.67073147368201458 0.6669631370302036 0.67058318991896904 0.66086249903626859 0.67619251449082385 0.65816316785589324
leaf_weight=77.625089898705482 5.5925857275724402 6.8721694797277442 6.4068663865327826 7.7580350786447516 7.9101535677909842 4.903579205274581 80.237949550151825
leaf_count=347 25 24 20 27 20 20 183
internal_value=0 -2.42458 -2.64154 1.2898 -2.79819 1.45907 -2.91122
internal_weight=0 107.02 101.427 90.2867 94.555 82.5287 88.1481
internal_count=666 272 247 394 223 367 203
shrinkage=1


Tree=1
num_leaves=8
num_cat=0
split_feature=39 404 4 94 74 360 234
split_gain=638.46 92.5075 41.6591 21.565 21.4004 19.0641 1.29091
threshold=107.89990234375001 73.899902343750014 117.89990234375001 125.89990234375001 196.39990234375003 0.026527523994445804 140.59985351562503
decision_type=10 10 10 10 8 10 10
left_child=3 -2 -3 -1 -5 -4 -7
right_child=1 2 5 4 -6 6 -8
leaf_value=0.0075127349434596803 0.0072951808767980344 -0.0025386595466956514 -0.0048373405876395784 -0.0059862838892585351 0.0072859425293789349 -0.011264277960710055 -0.014584095604048084
leaf_weight=74.988269567489624 6.0343101322650901 9.5489373654127103 6.2013492286205283 6.4053486585617039 5.8110872209072122 7.7218310534954062 80.822174340486526
leaf_count=336 27 33 20 20 26 20 184
internal_value=0 -2.31838 -2.53981 1.30122 0.0408468 -2.74145 -2.8623
internal_weight=0 110.329 104.294 87.2047 12.2164 94.7454 88.544
internal_count=666 284 257 382 46 224 204
shrinkage=0.005


Tree=2
num_leaves=7
num_cat=0
split_feature=44 369 4 135 359 364
split_gain=658.894 87.9339 29.7259 25.6985 10.1208 4.03818
threshold=120.89990234375001 86.399902343750014 117.89990234375001 0.211359977722168 124.60009765625001 142.69995117187503
decision_type=10 10 10 10 10 10
left_child=3 -2 -3 5 -4 -1
right_child=1 2 4 -5 -6 -7
leaf_value=0.0074951988340553758 0.0072606664538631405 -0.0040976862392327817 -0.0077925137421467243 -0.0032610091743328611 -0.014337595007639517 0.0030522257802620355
leaf_weight=76.816061854362488 5.5771526843309394 9.1042177379131299 7.5431036949157706 6.2038345485925666 85.611472204327583 6.8933642059564582
leaf_count=345 25 30 22 21 195 28
internal_value=0 -2.38242 -2.59449 1.28248 -2.76474 1.42945
internal_weight=0 107.836 102.259 89.9133 93.1546 83.7094
internal_count=666 272 247 394 217 373
shrinkage=0.005


Tree=3
num_leaves=7
num_cat=0
split_feature=44 369 0 0 399 303
split_gain=650.516 86.5906 32.3773 26.7559 8.51142 2.40803
threshold=120.89990234375001 86.399902343750014 0.022235035896301273 0.15980744361877444 124.09985351562501 0.00048699602484703069
decision_type=10 10 10 10 10 10
left_child=3 -2 -3 5 -4 -1
right_child=1 2 4 -5 -6 -7
leaf_value=0.0074775030677740259 0.0072417216657823429 -0.0021242345725822646 -0.0091863205061698539 -0.0023496846372482996 -0.014204836385555527 0.0031890771928314156
leaf_weight=77.079347237944603 5.5638172924518576 6.9064427614212027 11.565567702054976 7.762900471687316 84.196731403470039 4.8795194625854483
leaf_count=347 25 24 32 27 191 20
internal_value=0 -2.36181 -2.57121 1.2788 -2.72288 1.4481
internal_weight=0 108.233 102.669 89.7218 95.7623 81.9589
internal_count=666 272 247 394 223 367
shrinkage=0.005


Tree=4
num_leaves=8
num_cat=0
split_feature=44 369 0 0 404 88 224
split_gain=642.31 85.2809 31.7625 26.5918 14.804 2.40652 0.229162
threshold=120.89990234375001 86.399902343750014 0.022235035896301273 0.15980744361877444 103.19995117187501 0.00023899599909782412 145.89990234375003
decision_type=10 10 10 10 10 10 10
left_child=3 -2 -3 5 -4 -1 -6
right_child=1 2 4 -5 6 -7 -8
leaf_value=0.0074591371336494329 0.0072229508313439361 -0.0021121878699757678 -0.0057601100122179937 -0.0023361586005979968 -0.011628552787215963 0.0031694221463909613 -0.014250053061795455
leaf_weight=76.889145061373711 5.5504187643527976 6.9110926687717429 6.47260558605194 7.7687920033931723 8.0399211347103101 4.8714176863431922 81.644985020160675
leaf_count=347 25 24 20 27 20 20 183
internal_value=0 -2.34163 -2.54844 1.27515 -2.69812 1.44438 -2.80635
internal_weight=0 108.619 103.069 89.5294 96.1575 81.7606 89.6849
internal_count=666 272 247 394 223 367 203
shrinkage=0.005


Tree=5
num_leaves=7
num_cat=0
split_feature=39 369 4 369 349 404
split_gain=607.282 94.118 39.8352 21.7529 20.706 18.3319
threshold=107.89990234375001 86.399902343750014 117.89990234375001 129.69970703125003 205.69995117187503 101.39990234375001
decision_type=10 10 10 10 8 10
left_child=3 -2 -3 -1 -5 -4
right_child=1 2 5 4 -6 -7
leaf_value=0.0074410142991711559 0.0072408418549256516 -0.0024307502483849153 -0.0046560057646423073 -0.0059803693548184994 0.0072355569483300262 -0.013909695323027082
leaf_weight=74.493744939565659 6.4221315532922736 9.6045286208391172 6.2559705823659888 6.4065660834312412 5.5590557157993326 89.588583961129189
leaf_count=337 29 33 20 20 25 202
internal_value=0 -2.24119 -2.46873 1.28666 0.00684014 -2.66427
internal_weight=0 111.871 105.449 86.4594 11.9656 95.8446
internal_count=666 284 255 382 45 222
shrinkage=0.005


Tree=6
num_leaves=8
num_cat=0
split_feature=44 369 0 0 404 355 339
split_gain=626.619 82.7759 30.8147 26.2991 14.2015 2.40459 0.224937
threshold=120.89990234375001 86.399902343750014 0.022235035896301273 0.15980744361877444 103.19995117187501 0.14463496208190921 137.39990234375003
decision_type=10 10 10 10 10 10 10
left_child=3 -2 -3 5 -4 -1 -6
right_child=1 2 4 -5 6 -7 -8
leaf_value=0.0074240613243660323 0.0071858259386586758 -0.0020625980161953091 -0.0056864841997957636 -0.0023155498768957926 -0.011410098255982867 0.0031309873389523571 -0.01399939403902666
leaf_weight=76.517595991492271 5.5233699828386298 6.9299189299345008 6.4942830055952063 7.7774079591035834 8.1018056422471982 4.8553028404712668 82.303282529115677
leaf_count=347 25 24 20 27 20 20 183
internal_value=0 -2.30296 -2.50481 1.26812 -2.65134 1.43727 -2.75679
internal_weight=0 109.353 103.829 89.1503 96.8994 81.3729 90.4051
internal_count=666 272 247 394 223 367 203
shrinkage=0.005


Tree=7
num_leaves=8
num_cat=0
split_feature=44 364 0 0 404 388 224
split_gain=618.9 74.6643 32.6744 26.1397 17.6977 2.40742 0.204969
threshold=120.89990234375001 69.699951171875014 0.022235035896301273 0.15980744361877444 101.39990234375001 0.00028299912810325628 145.89990234375003
decision_type=10 10 10 10 10 10 10
left_child=3 -2 -3 5 -4 -1 -6
right_child=1 2 4 -5 6 -7 -8
leaf_value=0.0074063358737124583 0.0071452414286916387 -0.0017596709106063987 -0.0045841126416758492 -0.0023022606211864634 -0.01131401096633455 0.0031086442792248249 -0.013875758359392127
leaf_weight=76.326014474034309 5.0699372589588156 7.1543056815862647 6.2774716019630423 7.7831761091947547 8.1288015246391279 4.8459760397672644 83.077911138534546
leaf_count=347 23 25 20 27 20 20 184
internal_value=0 -2.28401 -2.46679 1.26455 -2.61892 1.43365 -2.73278
internal_weight=0 109.708 104.638 88.9552 97.4842 81.172 91.2067
internal_count=666 272 249 394 224 367 204
shrinkage=0.005


Tree=8
num_leaves=8
num_cat=0
split_feature=29 369 359 345 355 4 41
split_gain=586.286 99.1312 36.0759 29.9332 9.74132 7.716 3.3839
threshold=106.10009765625001 86.399902343750014 127.19995117187501 0.11667001247406007 0.16010499000549319 119.00000000000001 0.00092675001360476028
decision_type=10 10 10 8 10 10 10
left_child=4 -2 3 -3 -1 -4 -7
right_child=1 2 5 -5 -6 6 -8
leaf_value=0.0073906483940018742 0.0072205334773587431 -0.0098491160899400153 -0.0074825169043249151 0.0053981755690025602 0.00020511943083222965 -0.0094027358149270848 -0.013598576998724316
leaf_weight=75.276229113340378 7.2597236931323996 8.288002669811247 7.6393163800239554 5.1564182192087165 5.5471734404563895 7.89898957312107 81.747743099927902
leaf_count=343 33 22 22 22 21 21 182
internal_value=0 -2.11197 -2.34783 -0.777932 1.38321 -2.5617 -2.64912
internal_weight=0 117.99 110.73 13.4444 80.8234 97.286 89.6467
internal_count=666 302 269 44 364 225 203
shrinkage=0.005


Tree=9
num_leaves=8
num_cat=0
split_feature=44 369 0 0 404 108 239
split_gain=604.274 79.2841 29.3682 25.8028 13.4254 2.40046 0.195443
threshold=120.89990234375001 86.399902343750014 0.022235035896301273 0.15980744361877444 103.19995117187501 0.00045099854469299322 142.99975585937503
decision_type=10 10 10 10 10 10 10
left_child=3 -2 -3 5 -4 -1 -6
right_child=1 2 4 -5 6 -7 -8
leaf_value=0.0073722003885834525 0.0071334457849727851 -0.0020075510279480148 -0.0055679242234368889 -0.0022690071092381888 -0.011113429710218845 0.0030749040124648246 -0.013642345162008813
leaf_weight=75.94896174967289 5.4839449077844611 6.9505973309278479 6.5287964642047873 7.7971418350934973 8.1847919523715955 4.8314440846443167 83.230634599924088
leaf_count=347 25 24 20 27 20 20 183
internal_value=0 -2.24791 -2.44288 1.25783 -2.58468 1.42675 -2.68647
internal_weight=0 110.379 104.895 88.5775 97.9442 80.7804 91.4154
internal_count=666 272 247 394 223 367 203
shrinkage=0.005


Tree=10
num_leaves=8
num_cat=0
split_feature=44 369 0 0 404 53 339
split_gain=596.992 78.1524 28.8555 25.6482 13.1683 2.39478 0.187204
threshold=120.89990234375001 86.399902343750014 0.022235035896301273 0.15980744361877444 103.19995117187501 0.00025399774312973028 137.39990234375003
decision_type=10 10 10 10 10 10 10
left_child=3 -2 -3 5 -4 -1 -6
right_child=1 2 4 -5 6 -7 -8
leaf_value=0.007354717880774359 0.0071156498992910114 -0.0019962776411105547 -0.0055309536250315343 -0.0022560373112767039 -0.011015889241949847 0.0030593489104858936 -0.013526007713969439
leaf_weight=75.752186879515648 5.4702059626579276 6.9548887610435477 6.5395474880933753 7.8027430325746527 8.2117671221494657 4.8249047994613639 83.529386878013611
leaf_count=347 25 24 20 27 20 20 183
internal_value=0 -2.23007 -2.42282 1.25434 -2.56296 1.42323 -2.66354
internal_weight=0 110.706 105.236 88.3798 98.2807 80.5771 91.7412
internal_count=666 272 247 394 223 367 203
shrinkage=0.005


Tree=11
num_leaves=8
num_cat=0
split_feature=44 369 0 0 404 403 224
split_gain=589.849 77.0469 28.3586 25.4951 12.9203 2.39676 0.174804
threshold=120.89990234375001 86.399902343750014 0.022235035896301273 0.15980744361877444 103.19995117187501 0.00025399774312973028 145.89990234375003
decision_type=10 10 10 10 10 10 10
left_child=3 -2 -3 5 -4 -1 -6
right_child=1 2 4 -5 6 -7 -8
leaf_value=0.0073376196927591461 0.0070980121025545117 -0.0019850776238264233 -0.0054943663549289036 -0.0022431561407795252 -0.010922979081133185 0.0030381714529376974 -0.013411917687179933
leaf_weight=75.557206466794014 5.456414356827735 6.9591461718082419 6.5501527190208426 7.8082983195781699 8.2372290045022947 4.8157892227172843 83.820380598306656
leaf_count=347 25 24 20 27 20 20 183
internal_value=0 -2.21258 -2.40316 1.25089 -2.5417 1.41973 -2.6411
internal_weight=0 111.023 105.567 88.1813 98.6078 80.373 92.0576
internal_count=666 272 247 394 223 367 203
shrinkage=0.005


Tree=12
num_leaves=8
num_cat=0
split_feature=29 369 359 345 355 4 41
split_gain=560.165 93.917 33.8651 29.171 9.56069 7.27266 3.11698
threshold=106.10009765625001 86.399902343750014 127.19995117187501 0.11667001247406007 0.16010499000549319 119.00000000000001 0.00092675001360476028
decision_type=10 10 10 8 10 10 10
left_child=4 -2 3 -3 -1 -4 -7
right_child=1 2 5 -5 -6 6 -8
leaf_value=0.0073234699704534181 0.0071538284209224333 -0.0096256273361307251 -0.007240203217714283 0.0054043927918540433 0.00019614881666625965 -0.0091194667067645251 -0.013160704829876038
leaf_weight=74.521599844098091 7.1906011998653403 8.3551584333181363 7.7120865881443015 5.1560297906398764 5.5419210642576209 7.9792240113019934 82.856821715831757
leaf_count=343 33 22 22 22 21 21 182
internal_value=0 -2.04893 -2.2749 -0.755795 1.36977 -2.48012 -2.56445
internal_weight=0 119.25 112.059 13.5112 80.0635 98.5481 90.836
internal_count=666 302 269 44 364 225 203
shrinkage=0.005


Tree=13
num_leaves=8
num_cat=0
split_feature=44 369 0 0 401 98 239
split_gain=576.297 74.9321 27.5848 25.1722 9.74726 2.38724 1.07499
threshold=120.89990234375001 86.399902343750014 0.022235035896301273 0.15980744361877444 0.00089835000107996177 0.00030699744820594793 142.99975585937503
decision_type=10 10 10 10 10 10 10
left_child=3 -2 -3 5 -4 -1 -6
right_child=1 2 4 -5 6 -7 -8
leaf_value=0.00730466329131646 0.0070630057142405094 -0.0019418196922802958 -0.0065160515649120053 -0.0022112053551608833 -0.010169264725129254 0.0030075694296314787 -0.013221767254738727
leaf_weight=75.172768518328667 5.4285221844911566 6.9750178903341284 7.3525925427675238 7.8214259892702094 8.0277702361345273 4.8022423237562171 83.83614706993103
leaf_count=347 25 24 21 27 20 20 182
internal_value=0 -2.1792 -2.36564 1.24438 -2.50162 1.41308 -2.59427
internal_weight=0 111.62 106.192 87.7964 99.2165 79.975 91.8639
internal_count=666 272 247 394 223 367 202
shrinkage=0.005


Tree=14
num_leaves=8
num_cat=0
split_feature=44 369 0 0 401 355 239
split_gain=569.538 73.8986 27.1273 25.0237 9.56285 2.39125 1.03945
threshold=120.89990234375001 86.399902343750014 0.022235035896301273 0.15980744361877444 0.00089835000107996177 0.14463496208190921 142.99975585937503
decision_type=10 10 10 10 10 10 10
left_child=3 -2 -3 5 -4 -1 -6
right_child=1 2 4 -5 6 -7 -8
leaf_value=0.0072880942800787798 0.0070458299263728872 -0.0019309746287360591 -0.0064725485329412561 -0.0021986290009825818 -0.010092161647383203 0.0029853316168651552 -0.013113617290919007
leaf_weight=74.976150915026665 5.4145815074443808 6.9791106879711142 7.364969164133071 7.8268215060234061 8.0486035495996457 4.7926055490970603 84.104243040084839
leaf_count=347 25 24 21 27 20 20 182
internal_value=0 -2.16266 -2.34708 1.241 -2.48158 1.40968 -2.5732
internal_weight=0 111.912 106.497 87.5956 99.5178 79.7688 92.1528
internal_count=666 272 247 394 223 367 202
shrinkage=0.005


Tree=15
num_leaves=8
num_cat=0
split_feature=44 369 0 0 404 133 174
split_gain=562.902 72.8882 26.6833 24.8766 12.3705 2.39988 0.16464
threshold=120.89990234375001 86.399902343750014 0.022235035896301273 0.15980744361877444 103.19995117187501 0.0002659969031810761 146.69995117187503
decision_type=10 10 10 10 10 10 10
left_child=3 -2 -3 5 -4 -1 -6
right_child=1 2 4 -5 6 -7 -8
leaf_value=0.0072718167455982086 0.0070288039836335263 -0.0019201998283192702 -0.0052774899206456151 -0.0021861371698313672 -0.010559957684687839 0.0029597716451309894 -0.012994153182831897
leaf_weight=74.78028966486454 5.4005938172340384 6.983171045780181 6.6116976439952841 7.8321729302406302 8.3347849696874601 4.7815296053886405 84.863729387521744
leaf_count=347 25 24 20 27 20 20 183
internal_value=0 -2.14644 -2.32889 1.23766 -2.46195 1.4063 -2.55851
internal_weight=0 112.194 106.793 87.394 99.8102 79.5618 93.1985
internal_count=666 272 247 394 223 367 203
shrinkage=0.005


Tree=16
num_leaves=9
num_cat=0
split_feature=29 369 359 313 315 41 279 3
split_gain=535.864 89.132 32.1474 25.2875 8.29722 4.37242 1.11111 0.626575
threshold=106.10009765625001 86.399902343750014 127.19995117187501 6.0997903347015388e-05 0.17085754871368411 0.00092675001360476028 137.29980468750003 1.4998018741607668e-05
decision_type=10 10 10 8 10 10 10 10
left_child=4 -2 3 -3 -1 -4 -7 -8
right_child=1 2 5 -5 -6 6 7 -9
leaf_value=0.0072600652823628722 0.0070891865000037501 -0.0096482296122788712 -0.0080217245581686268 0.0040352027653952705 0.00089757098276632046 -0.0096441273109381317 -0.01033548437600517 -0.012917725382109129
leaf_weight=73.124564349651337 7.120159149169921 7.740159869194029 8.4896423220634443 5.8456362783908844 6.1676615774631491 8.257817864418028 9.494158208370207 73.418485879898071
leaf_count=340 33 20 23 24 24 21 23 158
internal_value=0 -1.9904 -2.20733 -0.730035 1.35682 -2.40571 -2.47704 -2.52803
internal_weight=0 120.366 113.246 13.5858 79.2922 99.6601 91.1705 82.9126
internal_count=666 302 269 44 364 225 202 181
shrinkage=0.005


Tree=17
num_leaves=8
num_cat=0
split_feature=44 369 0 0 404 153 174
split_gain=550.308 70.953 26.0263 24.5754 11.9629 2.38807 0.133541
threshold=120.89990234375001 86.399902343750014 0.022235035896301273 0.15980744361877444 103.19995117187501 0.00047699734568595892 146.69995117187503
decision_type=10 10 10 10 10 10 10
left_child=3 -2 -3 5 -4 -1 -6
right_child=1 2 4 -5 6 -7 -8
leaf_value=0.0072400411367988015 0.0069949920444336124 -0.0018745090477621778 -0.0052109167892997665 -0.0021573703655596052 -0.01040483800115267 0.0029321222831793932 -0.01279604695663116
leaf_weight=74.390269875526428 5.3723149895668021 6.9997047185897818 6.6300977766513816 7.8438055068254462 8.37535612285137 4.7689894735813132 85.34408512711525
leaf_count=347 25 24 20 27 20 20 183
internal_value=0 -2.11548 -2.29416 1.23134 -2.42504 1.39989 -2.51967
internal_weight=0 112.722 107.349 87.0031 100.35 79.1593 93.7194
internal_count=666 272 247 394 223 367 203
shrinkage=0.005


Tree=18
num_leaves=8
num_cat=0
split_feature=44 364 0 0 404 403 174
split_gain=544.025 64.0605 27.6789 24.4326 15.0672 2.38757 0.120762
threshold=120.89990234375001 69.699951171875014 0.022235035896301273 0.15980744361877444 101.39990234375001 0.00025399774312973028 146.69995117187503
decision_type=10 10 10 10 10 10 10
left_child=3 -2 -3 5 -4 -1 -6
right_child=1 2 4 -5 6 -7 -8
leaf_value=0.0072239325503909973 0.0069533650454305556 -0.0015928893919174478 -0.0041785316194376402 -0.0021451562784065444 -0.010328384737061116 0.0029137778781710357 -0.012699677195410238
leaf_weight=74.189634189009666 4.9289900362491599 7.2180852741003028 6.3935297280549994 7.8490111529827109 8.395116060972212 4.7607756704092017 86.041451185941696
leaf_count=347 23 25 20 27 20 20 184
internal_value=0 -2.10015 -2.26218 1.22806 -2.39834 1.39661 -2.50095
internal_weight=0 112.977 108.048 86.7994 100.83 78.9504 94.4366
internal_count=666 272 249 394 224 367 204
shrinkage=0.005


Tree=19
num_leaves=7
num_cat=0
split_feature=29 404 329 318 315 39
split_gain=518.676 86.1239 37.6679 13.7776 8.1996 6.6883
threshold=106.10009765625001 59.099853515625007 114.59985351562501 0.0021359957754611973 0.17085754871368411 138.59985351562503
decision_type=10 10 10 8 10 10
left_child=4 -2 -3 5 -1 -4
right_child=1 2 3 -5 -6 -7
leaf_value=0.0072131258111625468 0.0071823554039705051 0.0019048684563905377 -0.0082284486793949112 -0.0043214593979189952 0.00087939725809259729 -0.012451096028999402
leaf_weight=72.548372566699982 6.9823959022760382 5.3764296621084204 13.246998324990271 7.0696902871131888 6.1569601446390143 88.43882454931736
leaf_count=340 32 21 36 22 24 191
internal_value=0 -1.9491 -2.15886 -2.28717 1.34734 -2.38315
internal_weight=0 121.114 114.132 108.756 78.7053 101.686
internal_count=666 302 270 249 364 227
shrinkage=0.005


Tree=20
num_leaves=8
num_cat=0
split_feature=29 404 329 89 355 368 223
split_gain=512.968 85.0157 37.1338 11.2905 9.24845 5.62153 0.672603
threshold=106.10009765625001 59.099853515625007 114.59985351562501 119.99975585937501 0.16010499000549319 0.002020996063947678 1.4338582443917931e-05
decision_type=10 10 10 10 10 8 10
left_child=4 -2 -3 -4 -1 6 -5
right_child=1 2 3 5 -6 -7 -8
leaf_value=0.0071962030911891404 0.0071647189254912171 0.0018964640412125408 -0.0044376424652518946 -0.0095956552688917368 0.00016694952667020214 -0.0069158975119736829 -0.012323237851559525
leaf_weight=72.976311013102531 6.9646301567554465 5.3732624799013129 6.3093176782131186 8.1733698695898038 5.5265188813209525 7.1122412234544745 87.427321493625641
leaf_count=343 32 21 20 20 21 20 189
internal_value=0 -1.93542 -2.14311 -2.27018 1.34409 -2.35219 -2.42115
internal_weight=0 121.36 114.396 109.022 78.5028 102.713 95.6007
internal_count=666 302 270 249 364 229 209
shrinkage=0.005


Tree=21
num_leaves=8
num_cat=0
split_feature=44 369 0 0 404 88 339
split_gain=526.249 67.7642 24.7749 24.0185 11.1014 2.38812 0.142887
threshold=120.89990234375001 86.399902343750014 0.022235035896301273 0.15980744361877444 103.19995117187501 0.00023899599909782412 137.39990234375003
decision_type=10 10 10 10 10 10 10
left_child=3 -2 -3 5 -4 -1 -6
right_child=1 2 4 -5 6 -7 -8
leaf_value=0.007178689062432032 0.0069533514337102023 -0.0017933278451417781 -0.0051109240402518845 -0.0021084536498800974 -0.01007071280948155 0.0028603857453713345 -0.012426202869929277
leaf_weight=73.607390478253365 5.3360468596220008 7.0281357169151297 6.6568357050418845 7.8631673008203498 8.4597478806972486 4.7364744544029227 86.208710461854935
leaf_count=347 25 24 20 27 20 20 183
internal_value=0 -2.05642 -2.22894 1.21886 -2.35571 1.38735 -2.44631
internal_weight=0 113.689 108.353 86.207 101.325 78.3439 94.6685
internal_count=666 272 247 394 223 367 203
shrinkage=0.005


Tree=22
num_leaves=8
num_cat=0
split_feature=44 369 0 135 404 364 339
split_gain=520.386 66.8895 24.404 23.897 10.9261 3.72986 0.127059
threshold=120.89990234375001 86.399902343750014 0.022235035896301273 0.211359977722168 103.19995117187501 142.69995117187503 137.39990234375003
decision_type=10 10 10 10 10 10 10
left_child=3 -2 -3 5 -4 -1 -6
right_child=1 2 4 -5 6 -7 -8
leaf_value=0.0071691237294940506 0.0069371189474653908 -0.0017834320625858199 -0.0050785252754403107 -0.0032309516511315056 -0.009999694449403039 0.0028338501034878218 -0.012334332031762513
leaf_weight=73.043596088886261 5.3218260407447806 7.031787395477294 6.6657843589782706 6.2042157649993888 8.4771860092878324 6.753151446580886 86.416048467159271
leaf_count=345 25 24 20 21 20 28 183
internal_value=0 -2.04214 -2.21298 1.21569 -2.33855 1.36421 -2.42832
internal_weight=0 113.913 108.591 86.001 101.559 79.7967 94.8932
internal_count=666 272 247 394 223 373 203
shrinkage=0.005


Tree=23
num_leaves=8
num_cat=0
split_feature=44 369 0 0 404 98 339
split_gain=514.623 66.0328 24.0432 23.8166 10.7563 2.39098 0.112033
threshold=120.89990234375001 86.399902343750014 0.022235035896301273 0.15980744361877444 103.19995117187501 0.00030699744820594793 137.39990234375003
decision_type=10 10 10 10 10 10 10
left_child=3 -2 -3 5 -4 -1 -6
right_child=1 2 4 -5 6 -7 -8
leaf_value=0.0071485789765861046 0.0069210232812768266 -0.0017735989471934813 -0.0050464359603988838 -0.0021019945921319362 -0.0099298007025716093 0.0028227938887075803 -0.012244261996624664
leaf_weight=73.210585877299309 5.3075671643018714 7.0354106128215781 6.6746079027652732 7.8654094189405432 8.4941281229257566 4.7193901091814032 86.615972608327866
leaf_count=347 25 24 20 27 20 20 183
internal_value=0 -2.02812 -2.1973 1.21251 -2.32172 1.38117 -2.41067
internal_weight=0 114.128 108.82 85.7954 101.785 77.93 95.1101
internal_count=666 272 247 394 223 367 203
shrinkage=0.005


Tree=24
num_leaves=8
num_cat=0
split_feature=44 369 0 135 404 315 224
split_gain=508.958 65.1935 23.6921 23.6874 10.5919 3.13905 0.11432
threshold=120.89990234375001 86.399902343750014 0.022235035896301273 0.211359977722168 103.19995117187501 0.15827751159667972 145.89990234375003
decision_type=10 10 10 10 10 10 10
left_child=3 -2 -3 5 -4 -1 -6
right_child=1 2 4 -5 6 -7 -8
leaf_value=0.007134142198973078 0.0069050627866459472 -0.0017638272618176931 -0.0050146509682713397 -0.0032159124481776959 -0.0098507428805990806 0.003253077269036606 -0.012157006009789762
leaf_weight=71.959767490625381 5.2932717949151984 7.0390054732561103 6.6833078265190116 6.208421289920806 8.5128350853919965 7.4200726002454749 86.806332051753998
leaf_count=342 25 24 20 21 20 31 183
internal_value=0 -2.01434 -2.18191 1.20938 -2.30519 1.35805 -2.39335
internal_weight=0 114.335 109.041 85.5883 102.002 79.3798 95.3192
internal_count=666 272 247 394 223 373 203
shrinkage=0.005


Tree=25
num_leaves=8
num_cat=0
split_feature=44 369 0 0 404 388 339
split_gain=503.388 64.3711 23.6022 23.3504 10.4326 2.39291 0.103656
threshold=120.89990234375001 86.399902343750014 0.15980744361877444 0.022235035896301273 103.19995117187501 0.00028299912810325628 137.39990234375003
decision_type=10 10 10 10 10 10 10
left_child=2 -2 5 -3 -5 -1 -6
right_child=1 3 -4 4 6 -7 -8
leaf_value=0.0071188198390642844 0.0068892355157595935 -0.0017541169554683401 -0.0020916604269814744 -0.0049831660288981441 -0.0097811730993410204 0.0027862344638815749 -0.012070574878653961
leaf_weight=72.809400737285614 5.2789411693811408 7.0425723493099204 7.8694359660148612 6.6918853968381873 8.529327839612959 4.7026791721582404 86.991226255893707
leaf_count=347 25 24 27 20 20 20 183
internal_value=0 -2.00079 1.20626 -2.16679 -2.28897 1.37506 -2.37637
internal_weight=0 114.534 85.3815 109.255 102.212 77.5121 95.5206
internal_count=666 272 394 247 223 367 203
shrinkage=0.005


Tree=26
num_leaves=8
num_cat=0
split_feature=44 364 4 135 404 364 339
split_gain=497.912 58.1693 25.0233 23.4906 13.8771 3.71117 0.959159
threshold=120.89990234375001 69.699951171875014 1121.3999023437502 0.211359977722168 103.19995117187501 142.69995117187503 137.39990234375003
decision_type=10 10 8 10 10 10 10
left_child=3 -2 4 5 -3 -1 -6
right_child=1 2 -4 -5 6 -7 -8
leaf_value=0.0071098388519916711 0.006848257341027412 -0.0042028874736739236 -0.00086503095551379182 -0.0032037316796679443 -0.0092524316437517934 0.0027733547614070321 -0.012037179118839253
leaf_weight=72.247300028800964 4.8429379612207404 7.1346615552902213 6.4537636637687674 6.2115080356597892 8.7757947593927366 6.7145768105983725 87.518227458000183
leaf_count=345 23 22 22 21 21 28 184
internal_value=0 -1.98748 -2.13817 1.20317 -2.2579 1.35202 -2.35979
internal_weight=0 114.725 109.882 85.1734 103.429 78.9619 96.294
internal_count=666 272 249 394 227 373 205
shrinkage=0.005


Tree=27
num_leaves=8
num_cat=0
split_feature=44 369 0 0 404 88 224
split_gain=492.514 62.806 23.4069 22.8365 10.1141 2.40315 0.114277
threshold=120.89990234375001 86.399902343750014 0.15980744361877444 0.022235035896301273 103.19995117187501 0.00023899599909782412 145.89990234375003
decision_type=10 10 10 10 10 10 10
left_child=2 -2 5 -3 -5 -1 -6
right_child=1 3 -4 4 6 -7 -8
leaf_value=0.0070900137162816504 0.0068597489252396051 -0.0017133713148276431 -0.0020851910431166046 -0.0049264781906436872 -0.009628003422922882 0.0027441385030719302 -0.011906460730423278
leaf_weight=72.410475596785545 5.2517991662025443 7.0568568408489218 7.8715655952692023 6.7072030901908866 8.5641945749521238 4.6837496012449256 87.332240104675293
leaf_count=347 25 24 27 20 20 20 183
internal_value=0 -1.97434 1.20008 -2.13734 -2.25785 1.36909 -2.34372
internal_weight=0 114.912 84.9658 109.66 102.604 77.0942 95.8964
internal_count=666 272 394 247 223 367 203
shrinkage=0.005


Tree=28
num_leaves=7
num_cat=0
split_feature=44 369 135 4 404 369
split_gain=487.216 62.0309 23.2935 22.6696 7.34501 3.11515
threshold=120.89990234375001 86.399902343750014 0.211359977722168 117.89990234375001 110.29980468750001 138.69995117187503
decision_type=10 10 10 10 10 10
left_child=2 -2 5 -3 -5 -1
right_child=1 3 -4 4 -6 -7
leaf_value=0.0070799382017106526 0.0068442975985649112 -0.0030170411242771296 -0.0031906579782797653 -0.006476200164832119 -0.011761860234238317 0.0032391808829874348
leaf_weight=71.002458840608597 5.2373732328414908 9.5418379604816419 6.2148818522691718 8.6173583120107633 91.692097797989845 7.5394198298454276
leaf_count=341 25 30 21 24 193 32
internal_value=0 -1.96148 1.19704 -2.12299 -2.26455 1.34607
internal_weight=0 115.089 84.7568 109.851 100.309 78.5419
internal_count=666 272 394 247 217 373
shrinkage=0.005


Tree=29
num_leaves=8
num_cat=0
split_feature=44 404 365 135 4 315 214
split_gain=481.986 55.0024 31.1298 23.1516 10.7596 3.11037 0.756276
threshold=120.89990234375001 73.899902343750014 0.024147510528564457 0.211359977722168 117.89990234375001 0.15827751159667972 147.29980468750003
decision_type=10 10 10 10 10 10 10
left_child=3 -2 -3 5 -4 -1 -6
right_child=1 2 4 -5 6 -7 -8
leaf_value=0.0070608713569225781 0.0070860507307200669 0 -0.0051490374363149247 -0.0031715012722402518 -0.0090872392977340566 0.0031834247654842652 -0.011809192887795614
leaf_weight=70.957484647631645 4.5646904855966559 6.4710014462470999 7.9535425156354895 6.2211433798074713 8.2936615943908674 7.3697516769170752 87.978583753108978
leaf_count=342 21 24 23 21 20 31 184
internal_value=0 -1.94875 -2.09026 1.194 -2.22263 1.34304 -2.31806
internal_weight=0 115.261 110.697 84.5484 104.226 78.3272 96.2722
internal_count=666 272 251 394 227 373 204
shrinkage=0.005


Tree=30
num_leaves=8
num_cat=0
split_feature=44 369 0 4 404 153 339
split_gain=476.829 60.66 23.1411 22.2642 11.5494 2.40802 0.944992
threshold=120.89990234375001 86.399902343750014 0.15980744361877444 1121.3999023437502 103.19995117187501 0.00047699734568595892 137.39990234375003
decision_type=10 10 10 8 10 10 10
left_child=2 -2 5 4 -3 -1 -6
right_child=1 3 -4 -5 6 -7 -8
leaf_value=0.0070476654711379982 0.0068215841537857822 -0.0044215325965405996 -0.0020806725397094095 -0.0010345607458648784 -0.0089778125190987691 0.0026900008049726642 -0.011723607430773962
leaf_weight=71.808180779218674 5.2156420946121207 6.9588731527328482 7.8723346740007392 6.266666665673255 8.8391131609678251 4.6587609797716132 88.149378031492233
leaf_count=347 25 21 27 21 21 20 184
internal_value=0 -1.93617 1.19098 -2.09508 -2.20603 1.36036 -2.29777
internal_weight=0 115.43 84.3393 110.214 103.947 76.4669 96.9885
internal_count=666 272 394 247 226 367 205
shrinkage=0.005


Tree=31
num_leaves=7
num_cat=0
split_feature=29 404 329 318 355 39
split_gain=458.235 76.2325 33.1366 11.9833 8.77835 5.12211
threshold=106.10009765625001 59.099853515625007 114.59985351562501 0.0021359957754611973 0.16010499000549319 138.59985351562503
decision_type=10 10 10 8 10 10
left_child=4 -2 -3 5 -1 -4
right_child=1 2 3 -5 -6 -7
leaf_value=0.0070378607570801823 0.007079773789652982 0.0019390293975425354 -0.0077381526846664155 -0.0039384774495973647 0.00016592754870942196 -0.01147665798417658
leaf_weight=70.81795708835125 6.8443949967622748 5.3677040040493003 13.438019394874571 7.1359385699033728 5.5147875845432273 90.59712690114975
leaf_count=343 32 21 36 22 21 191
internal_value=0 -1.8041 -1.99579 -2.11358 1.31221 -2.20164
internal_weight=0 123.383 116.539 111.171 76.3327 104.035
internal_count=666 302 270 249 364 227
shrinkage=0.005


Tree=32
num_leaves=8
num_cat=0
split_feature=44 369 0 0 404 403 174
split_gain=467.005 59.3822 22.8758 21.9014 9.46124 2.40592 0.10838
threshold=120.89990234375001 86.399902343750014 0.15980744361877444 0.022235035896301273 103.19995117187501 0.00025399774312973028 146.69995117187503
decision_type=10 10 10 10 10 10 10
left_child=2 -2 5 -3 -5 -1 -6
right_child=1 3 -4 4 6 -7 -8
leaf_value=0.0070200109792338782 0.0068006858852827845 -0.0015795138559808709 -0.0020544515830022811 -0.0047781711145637382 -0.0092945896718365402 0.0026583792865762824 -0.011527769027531703
leaf_weight=71.404099598526955 5.1951442062854758 7.1016089916229239 7.8823028504848471 6.7448840588331214 8.6349924653768522 4.6432216614484778 88.057993412017822
leaf_count=347 25 24 27 20 20 20 183
internal_value=0 -1.91211 1.1853 -2.06861 -2.18604 1.35469 -2.26877
internal_weight=0 115.735 83.9296 110.539 103.438 76.0473 96.693
internal_count=666 272 394 247 223 367 203
shrinkage=0.005


Tree=33
num_leaves=8
num_cat=0
split_feature=44 369 135 0 404 369 224
split_gain=462.114 58.6744 22.7958 21.6135 9.33603 3.07875 0.103088
threshold=120.89990234375001 86.399902343750014 0.211359977722168 0.022235035896301273 103.19995117187501 138.69995117187503 145.89990234375003
decision_type=10 10 10 10 10 10 10
left_child=2 -2 5 -3 -5 -1 -6
right_child=1 3 -4 4 6 -7 -8
leaf_value=0.0070102278249242079 0.0067857178731202715 -0.0015709413583085499 -0.0031523046370879422 -0.0047488700787129993 -0.0092316851974377535 0.0031766560142360029 -0.01145316738562956
leaf_weight=70.005819201469421 5.1806071549653998 7.1046529710292807 6.2243167906999579 6.7525491416454306 8.6475956588983518 7.4884120523929587 88.190279632806778
leaf_count=341 25 24 21 20 20 32 183
internal_value=0 -1.90025 1.18235 -2.05541 -2.17193 1.33183 -2.25406
internal_weight=0 115.876 83.7185 110.695 103.59 77.4942 96.8379
internal_count=666 272 394 247 223 373 203
shrinkage=0.005


Tree=34
num_leaves=8
num_cat=0
split_feature=44 369 0 4 404 88 239
split_gain=457.299 57.9798 22.6935 21.4896 10.9325 2.41554 0.657447
threshold=120.89990234375001 86.399902343750014 0.15980744361877444 1121.3999023437502 103.19995117187501 0.00023899599909782412 142.99975585937503
decision_type=10 10 10 8 10 10 10
left_child=2 -2 5 4 -3 -1 -6
right_child=1 3 -4 -5 6 -7 -8
leaf_value=0.006992947586740684 0.0067708700262755763 -0.0043248127694615066 -0.0020485996056273633 -0.00094591712274526112 -0.0089317306986039201 0.0026183554606298365 -0.011423131599054517
leaf_weight=70.999306112527847 5.1660441905260077 6.9845380932092658 7.8839488774538031 6.2843992859125128 9.3573594838380796 4.624921202659606 88.217447936534882
leaf_count=347 25 21 27 21 22 20 183
internal_value=0 -1.88858 1.17941 -2.04242 -2.15094 1.34905 -2.23992
internal_weight=0 116.01 83.5082 110.844 104.559 75.6242 97.5748
internal_count=666 272 394 247 226 367 205
shrinkage=0.005


Tree=35
num_leaves=7
num_cat=0
split_feature=44 369 135 4 401 364
split_gain=452.551 57.2965 22.6087 21.3735 6.73969 3.64715
threshold=120.89990234375001 86.399902343750014 0.211359977722168 117.89990234375001 0.00089835000107996177 142.69995117187503
decision_type=10 10 10 10 10 10
left_child=2 -2 5 -3 -5 -1
right_child=1 3 -4 4 -6 -7
leaf_value=0.006984143862023881 0.0067561417569045991 -0.0027931646702908813 -0.0031394930917656668 -0.00615153825457352 -0.011246184399926027 0.0026574793141671748
leaf_weight=70.432147309184074 5.1514561027288428 9.6136259287595731 6.2274365723133078 8.5620592236518842 92.812354803085327 6.6368385702371588
leaf_count=345 25 30 21 23 194 28
internal_value=0 -1.87706 1.17651 -2.0296 -2.16614 1.3262
internal_weight=0 116.139 83.2964 110.988 101.374 77.069
internal_count=666 272 394 247 217 373
shrinkage=0.005


Tree=36
num_leaves=8
num_cat=0
split_feature=44 369 0 0 404 388 339
split_gain=447.862 56.6231 22.5117 21.0574 9.09103 2.41987 0.107556
threshold=120.89990234375001 86.399902343750014 0.15980744361877444 0.022235035896301273 103.19995117187501 0.00028299912810325628 137.39990234375003
decision_type=10 10 10 10 10 10 10
left_child=2 -2 5 -3 -5 -1 -6
right_child=1 3 -4 4 6 -7 -8
leaf_value=0.006966150514757562 0.0067415310261597899 -0.0015023123627845606 -0.0020421762817913617 -0.0046371250958792418 -0.0090418551416521949 0.0025823960176161597 -0.01124409345638254
leaf_weight=70.591922253370285 5.1368441283702841 7.1272504031658164 7.8857678771018973 6.7810105830430976 8.6839970946311933 4.6075367629528037 88.536761909723282
leaf_count=347 25 24 27 20 20 20 183
internal_value=0 -1.86565 1.17361 -2.01691 -2.13166 1.3435 -2.21256
internal_weight=0 116.266 83.0852 111.129 104.002 75.1995 97.2208
internal_count=666 272 394 247 223 367 203
shrinkage=0.005


Tree=37
num_leaves=7
num_cat=0
split_feature=44 369 135 4 404 364
split_gain=443.266 55.9657 22.4275 20.982 6.58127 3.632
threshold=120.89990234375001 86.399902343750014 0.211359977722168 117.89990234375001 110.29980468750001 142.69995117187503
decision_type=10 10 10 10 10 10
left_child=2 -2 5 -3 -5 -1
right_child=1 3 -4 4 -6 -7
leaf_value=0.0069573062776554194 0.0067270370440189447 -0.0027399851910653483 -0.0031276614849955718 -0.0061137346356992736 -0.011112023102469556 0.0026336058293848592
leaf_weight=70.021837964653969 5.1222091913223258 9.6302235573530179 6.2301418930292121 8.717355400323866 92.910194084048271 6.6208668649196616
leaf_count=345 25 30 21 24 193 28
internal_value=0 -1.85452 1.17074 -2.00454 -2.13961 1.32067
internal_weight=0 116.38 82.8728 111.258 101.628 76.6427
internal_count=666 272 394 247 217 373
shrinkage=0.005


Tree=38
num_leaves=9
num_cat=0
split_feature=39 329 404 3 369 307 207 234
split_gain=425.245 70.9579 29.7167 18.8991 3.92874 3.09005 2.26106 1.0818
threshold=88.699951171875014 114.59985351562501 1500.5998535156252 0.0042129978537559518 122.19995117187501 7.967350168903871 30.344999313354496 144.69995117187503
decision_type=10 10 8 8 10 10 8 10
left_child=6 5 3 4 -3 -2 -1 -6
right_child=1 2 -4 -5 7 -7 -8 -9
leaf_value=0.0069544532213791487 0.0010415261560775056 -0.0070316485661275742 0.0019299948612014153 -0.0012065633829307682 -0.008271787463043731 0.007159445352649502 0.0026857559910961454 -0.011180805074814082
leaf_weight=67.713996261358261 4.8775929063558561 9.4658700674772245 5.1619657129049292 6.0325744152069083 8.0437751859426481 4.9977441132068634 4.6383130550384513 88.220849737524986
leaf_count=334 20 26 20 20 20 23 20 183
internal_value=0 -1.69705 -1.9154 -2.02438 -2.12328 0.857919 1.34031 -2.19066
internal_weight=0 126.8 116.925 111.763 105.73 9.87534 72.3523 96.2646
internal_count=666 312 269 249 229 43 354 203
shrinkage=0.005


Tree=39
num_leaves=8
num_cat=0
split_feature=44 369 0 4 404 108 339
split_gain=434.413 54.9336 22.2262 20.6633 10.4194 2.42382 0.917307
threshold=120.89990234375001 86.399902343750014 0.15980744361877444 1121.3999023437502 103.19995117187501 0.00045099854469299322 137.39990234375003
decision_type=10 10 10 8 10 10 10
left_child=2 -2 5 4 -3 -1 -6
right_child=1 3 -4 -5 6 -7 -8
leaf_value=0.006927461716917758 0.0067121986339742177 -0.0041682306460311029 -0.0020277933246527712 -0.0008312929318233062 -0.0084252910131295787 0.0025322526857909844 -0.011096019594620025
leaf_weight=69.986873522400856 5.1067126393318167 7.0253359675407401 7.8891389966011038 6.3073198050260535 8.9492041915655118 4.5832958817481986 89.210540145635605
leaf_count=347 25 21 27 21 21 20 184
internal_value=0 -1.83283 1.16528 -1.98096 -2.08692 1.33549 -2.17356
internal_weight=0 116.599 82.4593 111.492 105.185 74.5702 98.1597
internal_count=666 272 394 247 226 367 205
shrinkage=0.005


Tree=40
num_leaves=7
num_cat=0
split_feature=44 369 135 4 401 364
split_gain=430.011 54.3063 22.1428 20.4652 6.54195 3.60618
threshold=120.89990234375001 86.399902343750014 0.211359977722168 117.89990234375001 0.00089835000107996177 142.69995117187503
decision_type=10 10 10 10 10 10
left_child=2 -2 5 -3 -5 -1
right_child=1 3 -4 4 -6 -7
leaf_value=0.0069184879018380635 0.0066979368352756783 -0.0026592616719144919 -0.0031046373094015464 -0.0059135130541519013 -0.010919296116768536 0.0026007298034569758
leaf_weight=69.414168789982796 5.0920352786779395 9.65274630486965 6.2348310798406592 8.6115495562553388 93.340477377176285 6.5970831960439673
leaf_count=345 25 30 21 23 194 28
internal_value=0 -1.82216 1.16247 -1.9691 -2.10224 1.3127
internal_weight=0 116.697 82.2461 111.605 101.952 76.0113
internal_count=666 272 394 247 217 373
shrinkage=0.005


Tree=41
num_leaves=8
num_cat=0
split_feature=44 369 0 4 404 388 339
split_gain=425.661 53.6877 22.051 20.3067 10.2945 2.42666 0.908196
threshold=120.89990234375001 86.399902343750014 0.15980744361877444 1121.3999023437502 103.19995117187501 0.00028299912810325628 137.39990234375003
decision_type=10 10 10 8 10 10 10
left_child=2 -2 5 4 -3 -1 -6
right_child=1 3 -4 -5 6 -7 -8
leaf_value=0.0069017698830472008 0.0066837865232719272 -0.0040910335761414826 -0.0020213825034551243 -0.00079523659660207509 -0.0083143731566834612 0.0024988637666985445 -0.010968302905161884
leaf_weight=69.575161293148994 5.0773381590843192 7.0451732873916617 7.8907658606767646 6.3147518634796134 8.9682431817054731 4.567474663257598 89.386216908693314
leaf_count=347 25 21 27 21 21 20 184
internal_value=0 -1.81158 1.15966 -1.95736 -2.06225 1.33015 -2.14831
internal_weight=0 116.792 82.0334 111.714 105.4 74.1426 98.3545
internal_count=666 272 394 247 226 367 205
shrinkage=0.005


Tree=42
num_leaves=8
num_cat=0
split_feature=44 404 365 135 4 315 214
split_gain=421.389 49.1351 27.138 21.968 9.5768 3.01879 0.640868
threshold=120.89990234375001 73.899902343750014 0.024147510528564457 0.211359977722168 117.89990234375001 0.15827751159667972 147.29980468750003
decision_type=10 10 10 10 10 10 10
left_child=3 -2 -3 5 -4 -1 -6
right_child=1 2 4 -5 6 -7 -8
leaf_value=0.006887042657477048 0.0070343266618057886 9.0966929907333207e-05 -0.0046651957362026548 -0.0030929661975319361 -0.0083566560099578822 0.0030288980036708786 -0.010920004216238547
leaf_weight=68.33366422355175 4.4917965084314337 6.4450793117284766 8.0664308518171293 6.2373487353324881 8.4339586496353132 7.2486750781536093 89.439795672893524
leaf_count=342 21 24 23 21 20 31 184
internal_value=0 -1.80123 -1.93212 1.15689 -2.0536 1.30738 -2.14289
internal_weight=0 116.877 112.385 81.8197 105.94 75.5823 97.8738
internal_count=666 272 251 394 227 373 204
shrinkage=0.005


Tree=43
num_leaves=8
num_cat=0
split_feature=44 369 0 0 404 88 174
split_gain=417.158 52.6056 21.8635 20.0613 8.48871 2.44615 0.118538
threshold=120.89990234375001 86.399902343750014 0.15980744361877444 0.022235035896301273 103.19995117187501 0.00023899599909782412 146.69995117187503
decision_type=10 10 10 10 10 10 10
left_child=2 -2 5 -3 -5 -1 -6
right_child=1 3 -4 4 6 -7 -8
leaf_value=0.0068768314078248328 0.0066628871890673704 -0.0013255817844480553 -0.002011199175952133 -0.0044228355605233074 -0.0086358708137373626 0.0024523124850247299 -0.010799757537458233
leaf_weight=69.166716247797012 5.0549753755331031 7.1810501366853705 7.8942634165287009 6.8317858576774588 8.749112740159033 4.5454561263322821 89.144122272729874
leaf_count=347 25 24 27 20 20 20 183
internal_value=0 -1.79093 1.15412 -1.9347 -2.04632 1.32487 -2.12434
internal_weight=0 116.961 81.6064 111.906 104.725 73.7122 97.8932
internal_count=666 272 394 247 223 367 203
shrinkage=0.005


Tree=44
num_leaves=8
num_cat=0
split_feature=44 369 0 0 404 153 174
split_gain=413.016 52.0205 21.7461 19.8269 8.39363 2.43518 0.110403
threshold=120.89990234375001 86.399902343750014 0.15980744361877444 0.022235035896301273 103.19995117187501 0.00047699734568595892 146.69995117187503
decision_type=10 10 10 10 10 10 10
left_child=2 -2 5 -3 -5 -1 -6
right_child=1 3 -4 4 6 -7 -8
leaf_value=0.0068636530728158627 0.006649010540800737 -0.0013185181370778665 -0.0019999551735616424 -0.0043966356688796117 -0.008585581153199141 0.002445675520853713 -0.01073731590358026
leaf_weight=68.950906902551651 5.0402345806360236 7.1834178715944281 7.8989410102367392 6.8381182849407187 8.7563402652740461 4.5424457788467398 89.214040040969849
leaf_count=347 25 24 27 20 20 20 183
internal_value=0 -1.78091 1.15138 -1.92359 -2.0345 1.3222 -2.11206
internal_weight=0 117.032 81.3923 111.992 104.808 73.4934 97.9704
internal_count=666 272 394 247 223 367 203
shrinkage=0.005


Tree=45
num_leaves=7
num_cat=0
split_feature=44 369 135 4 401 364
split_gain=408.935 51.4452 21.7471 19.7309 6.31283 3.59488
threshold=120.89990234375001 86.399902343750014 0.211359977722168 117.89990234375001 0.00089835000107996177 142.69995117187503
decision_type=10 10 10 10 10 10
left_child=2 -2 5 -3 -5 -1
right_child=1 3 -4 4 -6 -7
leaf_value=0.0068561381763593034 0.0066352409861938754 -0.0025186754662071121 -0.0030862713370323649 -0.0057044305896561806 -0.010615527978320662 0.0025302191107129473
leaf_weight=68.392444863915443 5.0254775881767264 9.6908960193395597 6.2370338588953009 8.647169813513754 93.733746528625488 6.5484266281127921
leaf_count=345 25 30 21 23 194 28
internal_value=0 -1.77105 1.14866 -1.91265 -2.04308 1.29963
internal_weight=0 117.097 81.1779 112.072 102.381 74.9409
internal_count=666 272 394 247 217 373
shrinkage=0.005


Tree=46
num_leaves=8
num_cat=0
split_feature=44 369 135 4 404 364 339
split_gain=404.89 50.876 21.6195 19.614 9.8925 3.58578 0.918328
threshold=120.89990234375001 86.399902343750014 0.211359977722168 1121.3999023437502 103.19995117187501 142.69995117187503 137.39990234375003
decision_type=10 10 10 8 10 10 10
left_child=2 -2 5 4 -3 -1 -6
right_child=1 3 -4 -5 6 -7 -8
leaf_value=0.0068432520106324526 0.0066215773558842943 -0.0039366547163230898 -0.0030679357886238042 -0.00068255329105407496 -0.008036159597631938 0.0025200130995419777 -0.010669313077624348
leaf_weight=68.179160356521606 5.0107055604457846 7.0825281888246527 6.2429231554269782 6.3337413519620887 9.0096431374549848 6.5420887470245352 89.726045668125153
leaf_count=345 25 21 21 21 21 28 184
internal_value=0 -1.76122 1.14594 -1.90175 -2.00457 1.29696 -2.08885
internal_weight=0 117.163 80.9642 112.152 105.818 74.7212 98.7357
internal_count=666 272 394 247 226 373 205
shrinkage=0.005


Tree=47
num_leaves=8
num_cat=0
split_feature=39 329 404 4 369 307 207
split_gain=391.038 65.2756 27.6267 17.8539 3.38909 3.13831 2.24158
threshold=88.699951171875014 114.59985351562501 1500.5998535156252 117.89990234375001 116.09985351562501 7.967350168903871 30.344999313354496
decision_type=10 10 8 10 10 10 8
left_child=6 5 3 -3 -5 -2 -1
right_child=1 2 -4 4 -6 -7 -8
leaf_value=0.0068442964481285383 0.00095625954941348237 -0.002838799088416809 0.0019960900925655744 -0.0064651561634391968 -0.010539338340232058 0.0071439262357530673 0.0025668644195013628
leaf_weight=65.963122129440308 4.8168621361255628 9.4993352293968183 5.1440102458000174 7.6785521209239951 95.342859223484993 4.9495074301958084 4.5746926367282859
leaf_count=334 20 30 20 21 198 23 20
internal_value=0 -1.61613 -1.8233 -1.92757 -2.05005 0.84914 1.31763
internal_weight=0 127.431 117.665 112.521 103.021 9.76637 70.5378
internal_count=666 312 269 249 219 43 354
shrinkage=0.005


Tree=48
num_leaves=8
num_cat=0
split_feature=34 404 4 380 369 355 43
split_gain=386.614 63.1791 32.1725 18.3786 11.1037 5.06109 0.876488
threshold=101.69995117187501 59.099853515625007 117.89990234375001 0.15126502513885501 119.69995117187501 0.15037250518798831 1.4998018741607668e-05
decision_type=10 10 10 10 10 10 10
left_child=5 -2 3 -3 -4 -1 -6
right_child=1 2 4 -5 6 -7 -8
leaf_value=0.0068166344143215964 0.0069945162716650187 0.0071347233392146129 -0.0047534293943890336 -0.005837246490529832 -0.0081097813771213688 0.0011444341251534474 -0.010581570131944218
leaf_weight=66.560911104083061 6.475929617881774 4.3392905443906766 11.044704303145407 7.3487349599599838 10.124269202351568 4.9533560127019873 86.973052173852921
leaf_count=339 31 20 33 20 24 20 179
internal_value=0 -1.61997 -1.78562 -0.178589 -1.95653 1.28895 -2.06786
internal_weight=0 126.306 119.83 11.688 108.142 71.5143 97.0973
internal_count=666 307 276 40 236 359 203
shrinkage=0.005


Tree=49
num_leaves=8
num_cat=0
split_feature=44 369 0 0 401 88 239
split_gain=393.374 49.6399 21.2837 19.1224 7.73306 2.45709 0.578081
threshold=120.89990234375001 86.399902343750014 0.15980744361877444 0.022235035896301273 0.00089835000107996177 0.00023899599909782412 142.99975585937503
decision_type=10 10 10 10 10 10 10
left_child=2 -2 5 -3 -5 -1 -6
right_child=1 3 -4 4 6 -7 -8
leaf_value=0.0068043315898452771 0.0066048258285562149 -0.0012187520639194364 -0.0019729023441262573 -0.0046892132148640591 -0.0080151394141415172 0.0023534623391 -0.010500312250426381
leaf_weight=67.935407668352127 4.9909954965114585 7.2103606164455405 7.9037185013294211 7.7342803925275794 8.4827286303043348 4.4962471127510062 88.903427511453629
leaf_count=347 25 24 27 21 20 20 182
internal_value=0 -1.733 1.13834 -1.87136 -1.98015 1.30975 -2.05985
internal_weight=0 117.322 80.3354 112.331 105.12 72.4317 97.3862
internal_count=666 272 394 247 223 367 202
shrinkage=0.005


Tree=50
num_leaves=8
num_cat=0
split_feature=44 369 135 4 404 364 294
split_gain=389.561 49.1048 21.2297 19.0158 9.54868 3.54445 0.589389
threshold=120.89990234375001 86.399902343750014 0.211359977722168 1121.3999023437502 103.19995117187501 142.69995117187503 143.59985351562503
decision_type=10 10 10 8 10 10 10
left_child=2 -2 5 4 -3 -1 -6
right_child=1 3 -4 -5 6 -7 -8
leaf_value=0.0067953158415814535 0.0065913960645861492 -0.0038350056404049399 -0.0030287649401657167 -0.00061722774896794455 -0.0081907195955616546 0.0024837427582374842 -0.01044954236623505
leaf_weight=67.357716083526611 4.9761956185102454 7.1037374585866919 6.25026711821556 6.3416161090135565 10.499633118510245 6.5122005194425574 88.441052109003067
leaf_count=345 25 21 21 21 24 28 181
internal_value=0 -1.72377 1.1357 -1.86113 -1.96222 1.2871 -2.045
internal_weight=0 117.362 80.1202 112.386 106.044 73.8699 98.9407
internal_count=666 272 394 247 226 373 205
shrinkage=0.005


Tree=51
num_leaves=8
num_cat=0
split_feature=44 404 365 0 4 388 214
split_gain=385.802 45.6618 24.9641 21.1211 8.88726 2.46123 0.587324
threshold=120.89990234375001 73.899902343750014 0.024147510528564457 0.15980744361877444 117.89990234375001 0.00028299912810325628 147.29980468750003
decision_type=10 10 10 10 10 10 10
left_child=3 -2 -3 5 -4 -1 -6
right_child=1 2 4 -5 6 -7 -8
leaf_value=0.0067807355008950264 0.006991065477456997 0.0001689043196772861 -0.0043862670526195486 -0.0019666314555360589 -0.0079234224759003932 0.002320676163652008 -0.01040449561211015
leaf_weight=67.520611315965652 4.4346574395894995 6.4211699664592734 8.1188039481639844 7.9049370288848868 8.4945428371429426 4.4799944013357154 89.927617222070694
leaf_count=347 21 24 23 27 20 20 184
internal_value=0 -1.71467 -1.83953 1.13306 -1.95525 1.30481 -2.04112
internal_weight=0 117.397 112.962 79.9055 106.541 72.0006 98.4222
internal_count=666 272 251 394 227 367 204
shrinkage=0.005


Tree=52
num_leaves=8
num_cat=0
split_feature=44 369 135 0 404 364 339
split_gain=382.076 48.1688 21.067 18.7156 7.87635 3.5329 0.115612
threshold=120.89990234375001 86.399902343750014 0.211359977722168 0.022235035896301273 103.19995117187501 142.69995117187503 137.39990234375003
decision_type=10 10 10 10 10 10 10
left_child=2 -2 5 -3 -5 -1 -6
right_child=1 3 -4 4 6 -7 -8
leaf_value=0.006771712457451058 0.0065715469826642236 -0.001162179642687704 -0.0030175214371671189 -0.0041604192833554262 -0.0081823525544270741 0.0024613110790362874 -0.01029372263718966
leaf_weight=66.941256895661354 4.9535187780857077 7.2254958152770987 6.252375826239585 6.8876476883888236 8.802118703722952 6.4964928030967704 89.561845153570175
leaf_count=345 25 24 21 20 20 28 183
internal_value=0 -1.7056 1.13045 -1.84126 -1.94886 1.28217 -2.02401
internal_weight=0 117.431 79.6901 112.477 105.252 73.4377 98.364
internal_count=666 272 394 247 223 373 203
shrinkage=0.005


Tree=53
num_leaves=8
num_cat=0
split_feature=44 369 104 84 4 404 239
split_gain=378.425 47.6593 21.0018 25.3111 18.6095 9.29906 0.580625
threshold=120.89990234375001 86.399902343750014 132.39990234375003 182.59985351562503 1121.3999023437502 103.19995117187501 142.99975585937503
decision_type=10 10 10 8 8 10 10
left_child=2 -2 -1 -4 5 -3 -7
right_child=1 4 3 -5 -6 6 -8
leaf_value=0.0067694673264528842 0.006558369200132759 -0.0037620657071288904 -0.0071274105206893179 0.0069516148583539297 -0.00056510564120413503 -0.0079340528984841122 -0.010275737065858935
leaf_weight=66.660521313548088 4.9386918544769278 7.1192890107631674 6.5457347780466053 6.2689936310052881 6.348454236984252 9.5211379528045637 89.524658560752869
leaf_count=344 25 21 20 30 21 22 183
internal_value=0 -1.69678 1.12785 -0.0245734 -1.8315 -1.93144 -2.01316
internal_weight=0 117.452 79.4752 12.8147 112.514 106.165 99.0458
internal_count=666 272 394 50 247 226 205
shrinkage=0.005


Tree=54
num_leaves=8
num_cat=0
split_feature=44 404 365 104 84 4 214
split_gain=374.819 44.547 24.2165 20.9074 25.061 8.74499 0.575313
threshold=120.89990234375001 73.899902343750014 0.024147510528564457 132.39990234375003 182.59985351562503 117.89990234375001 147.29980468750003
decision_type=10 10 10 10 8 10 10
left_child=3 -2 -3 -1 -5 -4 -7
right_child=1 2 5 4 -6 6 -8
leaf_value=0.0067573295222277188 0.0069724341630016274 0.00017719044277803887 -0.0042824938476091296 -0.0070756793855811552 0.0069359636991150001 -0.0077879278378679175 -0.010246958080986151
leaf_weight=66.446895062923431 4.4122066199779502 6.408682018518447 8.1361117213964445 6.5605860054492924 6.2517672777175912 8.5091987550258619 90.004594177007675
leaf_count=344 21 24 23 20 30 20 184
internal_value=0 -1.68806 -1.81101 1.12528 -0.0243292 -1.92477 -2.00996
internal_weight=0 117.471 113.059 79.2592 12.8124 106.65 98.5138
internal_count=666 272 251 394 50 227 204
shrinkage=0.005


Tree=55
num_leaves=7
num_cat=0
split_feature=44 369 0 4 401 403
split_gain=371.244 46.767 20.8419 18.3454 5.8697 2.46053
threshold=120.89990234375001 86.399902343750014 0.15980744361877444 117.89990234375001 0.00089835000107996177 0.00025399774312973028
decision_type=10 10 10 10 10 10
left_child=2 -2 5 -3 -5 -1
right_child=1 3 -4 4 -6 -7
leaf_value=0.0067349134311942204 0.006538907839546069 -0.0022826364766283108 -0.0019654465762395839 -0.0053414423044285666 -0.010075504965600902 0.0022636016207035824
leaf_weight=66.6929612159729 4.9159458279609671 9.742457300424574 7.8994609266519538 8.6896969974040967 94.141029134392738 4.4504678547382346
leaf_count=347 25 30 27 23 194 20
internal_value=0 -1.67935 1.12273 -1.81246 -1.93801 1.29526
internal_weight=0 117.489 79.0429 112.573 102.831 71.1434
internal_count=666 272 394 247 217 367
shrinkage=0.005


Tree=56
num_leaves=8
num_cat=0
split_feature=44 369 104 84 0 404 339
split_gain=367.72 46.2767 20.7769 24.8167 18.2527 7.68054 0.132396
threshold=120.89990234375001 86.399902343750014 132.39990234375003 182.59985351562503 0.022235035896301273 103.19995117187501 137.39990234375003
decision_type=10 10 10 8 10 10 10
left_child=2 -2 -1 -4 -3 -6 -7
right_child=1 4 3 -5 5 6 -8
leaf_value=0.0067343094925896444 0.006525973824717173 -0.0010813491235492948 -0.0070361269661227176 0.0069164066068766253 -0.0040397960968091388 -0.0079867860547216188 -0.010090963318491431
leaf_weight=66.030317097902298 4.9010975062847129 7.2464843690395346 6.5703008770942661 6.2265562117099771 6.9115780442953101 8.8166952133178693 89.625888466835022
leaf_count=344 25 24 20 30 20 20 183
internal_value=0 -1.67079 1.12018 -0.0260076 -1.80298 -1.90927 -1.98355
internal_weight=0 117.502 78.8272 12.7969 112.601 105.354 98.4426
internal_count=666 272 394 50 247 223 203
shrinkage=0.005


Tree=57
num_leaves=8
num_cat=0
split_feature=44 369 135 4 404 364 339
split_gain=364.264 45.7972 20.6744 18.1599 9.08101 3.51925 0.903956
threshold=120.89990234375001 86.399902343750014 0.211359977722168 1121.3999023437502 103.19995117187501 142.69995117187503 137.39990234375003
decision_type=10 10 10 8 10 10 10
left_child=2 -2 5 4 -3 -1 -6
right_child=1 3 -4 -5 6 -7 -8
leaf_value=0.0067147301531611031 0.006513135678444186 -0.003645160450958646 -0.0029949351321519701 -0.0004860764487189846 -0.0075096426769691018 0.0023977785290174806 -0.010086794734784592
leaf_weight=65.908175930380821 4.8862416744232169 7.1435461342334738 6.2513340860605231 6.3584754914045325 9.0603254139423353 6.4509220421314231 90.054656803607941
leaf_count=345 25 21 21 21 21 28 184
internal_value=0 -1.66244 1.11767 -1.79375 -1.89244 1.27012 -1.97327
internal_weight=0 117.503 78.6104 112.617 106.259 72.3591 99.115
internal_count=666 272 394 247 226 373 205
shrinkage=0.005


Tree=58
num_leaves=7
num_cat=0
split_feature=44 369 104 29 4 401
split_gain=360.846 45.324 20.6467 24.4917 18.0357 5.79109
threshold=120.89990234375001 86.399902343750014 132.39990234375003 190.09985351562503 117.89990234375001 0.00089835000107996177
decision_type=10 10 10 8 10 10
left_child=2 -2 -1 -4 -3 -6
right_child=1 4 3 -5 5 -7
leaf_value=0.006711620001221206 0.0065003916534723963 -0.0022056877458556429 -0.0069785436573692166 0.0068919676345349946 -0.0052294570547900543 -0.009928476993492032
leaf_weight=65.61338122189045 4.8713790625333777 9.7576576471328718 6.5863171070814106 6.1954919844865808 8.7019286900758726 94.17114794254303
leaf_count=344 25 30 20 30 23 194
internal_value=0 -1.65416 1.11514 -0.0275981 -1.7846 -1.90911
internal_weight=0 117.502 78.3952 12.7818 112.631 102.873
internal_count=666 272 394 50 247 217
shrinkage=0.005


Tree=59
num_leaves=8
num_cat=0
split_feature=29 404 329 318 355 89 41
split_gain=352.575 60.2673 26.1686 9.36167 7.85765 2.52769 0.0198279
threshold=106.10009765625001 59.099853515625007 114.59985351562501 0.0021359957754611973 0.16010499000549319 129.30004882812503 0.0010440000332891943
decision_type=10 10 10 8 10 10 10
left_child=4 -2 -3 5 -1 -4 -7
right_child=1 2 3 -5 -6 6 -8
leaf_value=0.0066972778265073328 0.0069097535701571604 0.0020474314946961436 -0.0061435945272766725 -0.0031951199877565816 0.00012201194202782082 -0.0081378021945555119 -0.009922446762257368
leaf_weight=65.154092952609062 6.533076435327529 5.3216241449117652 7.9052824079990378 7.1349817514419547 5.452819049358367 11.428741961717604 86.747656047344208
leaf_count=343 32 21 22 22 21 26 179
internal_value=0 -1.55204 -1.71628 -1.81885 1.24215 -1.89537 -1.94599
internal_weight=0 125.071 118.538 113.217 70.6069 106.082 98.1764
internal_count=666 302 270 249 364 227 205
shrinkage=0.005


Tree=60
num_leaves=8
num_cat=0
split_feature=44 369 104 84 0 404 174
split_gain=354.261 44.5224 20.4666 24.2685 17.8348 7.4534 0.146111
threshold=120.89990234375001 86.399902343750014 132.39990234375003 182.59985351562503 0.022235035896301273 103.19995117187501 146.69995117187503
decision_type=10 10 10 8 10 10 10
left_child=2 -2 -1 -4 -3 -6 -7
right_child=1 4 3 -5 5 6 -8
leaf_value=0.0066893396578285485 0.0064827721780418967 -0.0010022870120510938 -0.0069330624404566957 0.0068795307268359543 -0.0039393828983449808 -0.0078033284580215278 -0.0099000983211559816
leaf_weight=65.196259126067162 4.8496978133916846 7.2649847418069831 6.5959440767765019 6.1780819594860086 6.9299848377704611 8.8226552307605726 89.625308454036713
leaf_count=344 25 24 20 30 20 20 183
internal_value=0 -1.63804 1.1104 -0.0270516 -1.76705 -1.8722 -1.94549
internal_weight=0 117.493 77.9703 12.774 112.643 105.378 98.448
internal_count=666 272 394 50 247 223 203
shrinkage=0.005


Tree=61
num_leaves=8
num_cat=0
split_feature=44 369 0 4 404 403 339
split_gain=350.982 44.07 20.4034 17.7371 8.82546 2.46071 0.912719
threshold=120.89990234375001 86.399902343750014 0.15980744361877444 1121.3999023437502 103.19995117187501 0.00025399774312973028 137.39990234375003
decision_type=10 10 10 8 10 10 10
left_child=2 -2 5 4 -3 -1 -6
right_child=1 3 -4 -5 6 -7 -8
leaf_value=0.0066695497014637563 0.0064702510335100565 -0.0035486530044808546 -0.0019550826957025801 -0.00041158359362399 -0.0073300917120189173 0.0021794658846073858 -0.0098980646997142326
leaf_weight=65.455798655748367 4.8348246663808814 7.1619345247745505 7.8919938951730719 6.3656566888093939 9.0684234946966154 4.4050184339284888 90.044453769922256
leaf_count=347 25 21 27 21 21 20 184
internal_value=0 -1.63011 1.10795 -1.75829 -1.85586 1.28158 -1.93565
internal_weight=0 117.475 77.7528 112.64 106.275 69.8608 99.1129
internal_count=666 272 394 247 226 367 205
shrinkage=0.005


Tree=62
num_leaves=7
num_cat=0
split_feature=44 369 99 89 4 401
split_gain=347.738 43.6234 20.3546 23.918 17.6386 5.66992
threshold=120.89990234375001 86.399902343750014 134.80004882812503 190.29980468750003 117.89990234375001 0.00089835000107996177
decision_type=10 10 10 8 10 10
left_child=2 -2 -1 -4 -3 -6
right_child=1 4 3 -5 5 -7
leaf_value=0.006667613303130494 0.0064578204596195069 -0.0021097330923430715 -0.0068738582580889565 0.0068512288878106453 -0.0050944577786010822 -0.0097432985156704708
leaf_weight=64.782881826162338 4.8199475705623618 9.772786617279051 6.6117282807826969 6.1423525512218484 8.711103141307829 94.151731833815575
leaf_count=344 25 30 20 30 23 194
internal_value=0 -1.62226 1.10549 -0.0292521 -1.74961 -1.87284
internal_weight=0 117.456 77.537 12.7541 112.636 102.863
internal_count=666 272 394 50 247 217
shrinkage=0.005


Tree=63
num_leaves=8
num_cat=0
split_feature=44 369 99 89 0 404 174
split_gain=344.524 43.1812 20.2644 23.6854 17.517 7.34 0.151397
threshold=120.89990234375001 86.399902343750014 134.80004882812503 190.29980468750003 0.022235035896301273 103.19995117187501 146.69995117187503
decision_type=10 10 10 8 10 10 10
left_child=2 -2 -1 -4 -3 -6 -7
right_child=1 4 3 -5 5 6 -8
leaf_value=0.0066563260072066404 0.006445479624556048 -0.00094817971799480115 -0.0068253193714725548 0.0068364262793194413 -0.003852379591827279 -0.0076743626738721253 -0.0097626352416097222
leaf_weight=64.568806856870651 4.8050674498081198 7.2777821272611609 6.6254198849201176 6.1249178051948556 6.9468730688095084 8.825106352567671 89.580681592226028
leaf_count=344 25 24 20 30 20 20 183
internal_value=0 -1.61444 1.10307 -0.0289884 -1.74097 -1.84529 -1.91812
internal_weight=0 117.436 77.3191 12.7503 112.63 105.353 98.4058
internal_count=666 272 394 50 247 223 203
shrinkage=0.005


Tree=64
num_leaves=8
num_cat=0
split_feature=44 369 104 29 4 404 294
split_gain=341.37 42.7486 20.1829 23.6736 17.4222 8.69661 0.609444
threshold=120.89990234375001 86.399902343750014 132.39990234375003 190.09985351562503 1121.3999023437502 103.19995117187501 143.59985351562503
decision_type=10 10 10 8 8 10 10
left_child=2 -2 -1 -4 5 -3 -7
right_child=1 4 3 -5 -6 6 -8
leaf_value=0.0066453128553608954 0.0064332275896721225 -0.0034645876549303286 -0.0068250604450502839 0.0068359436500967877 -0.00036011507253900171 -0.0075455254162222927 -0.009763983549438103
leaf_weight=64.35573211312294 4.7901849597692481 7.179014489054679 6.6229128986597035 6.1224409639835367 6.370988354086875 10.537090495228766 88.527345538139343
leaf_count=344 25 21 20 30 21 24 181
internal_value=0 -1.60682 1.10067 -0.0290164 -1.73256 -1.82931 -1.90863
internal_weight=0 117.405 77.1011 12.7454 112.614 106.243 99.0644
internal_count=666 272 394 50 247 226 205
shrinkage=0.005


Tree=65
num_leaves=7
num_cat=0
split_feature=44 369 0 4 401 403
split_gain=338.251 42.3213 20.1153 17.3643 5.60262 2.45825
threshold=120.89990234375001 86.399902343750014 0.15980744361877444 117.89990234375001 0.00089835000107996177 0.00025399774312973028
decision_type=10 10 10 10 10 10
left_child=2 -2 5 -3 -5 -1
right_child=1 3 -4 4 -6 -7
leaf_value=0.0066270967587208776 0.0064210627499342587 -0.0020381892610052072 -0.0019480120256216789 -0.0049908998469211955 -0.009610015804337747 0.0021260860135300847
leaf_weight=64.622167468070984 4.7753009349107733 9.783997565507887 7.8858246207237235 8.7183278948068601 94.094051122665405 4.3750262409448615
leaf_count=347 25 30 27 23 194 20
internal_value=0 -1.59926 1.09829 -1.72421 -1.84658 1.27269
internal_weight=0 117.372 76.883 112.596 102.812 68.9972
internal_count=666 272 394 247 217 367
shrinkage=0.005


Tree=66
num_leaves=7
num_cat=0
split_feature=34 399 4 369 315 43
split_gain=328.659 50.0073 26.2233 10.2147 4.59058 1.20924
threshold=101.69995117187501 64.899902343750014 117.89990234375001 119.69995117187501 0.17085754871368411 1.4998018741607668e-05
decision_type=10 10 10 10 10 10
left_child=4 -2 -3 -4 -1 -5
right_child=1 2 3 5 -6 -7
leaf_value=0.0066191420785329663 0.006800820069591762 -0.00076586546322117725 -0.0040992358724125247 -0.0070963104882665485 0.001298303962367717 -0.0096621972539183629
leaf_weight=62.549370765686035 5.8000900447368613 11.482548862695692 11.266793936491011 10.350259125232695 5.2004408240318289 87.356335237622261
leaf_count=337 29 39 34 25 22 180
internal_value=0 -1.48276 -1.62214 -1.77417 1.24657 -1.88115
internal_weight=0 126.256 120.456 108.973 67.7498 97.7066
internal_count=666 307 278 239 359 205
shrinkage=0.005


Tree=67
num_leaves=7
num_cat=0
split_feature=44 369 99 89 4 399
split_gain=332.259 41.6392 19.9901 23.2076 17.1215 6.14807
threshold=120.89990234375001 86.399902343750014 134.80004882812503 190.29980468750003 1121.3999023437502 126.50000000000001
decision_type=10 10 10 8 8 10
left_child=2 -2 -1 -4 5 -3
right_child=1 4 3 -5 -6 -7
leaf_value=0.0066144189538439339 0.0064066509143206156 -0.0056759437696279561 -0.0067417006105954993 0.0068013382485957218 -0.00031235182171063686 -0.0095254397607209638
leaf_weight=63.742476642131805 4.7563098371028891 14.288892075419424 6.6433312296867344 6.0757072418928155 6.3749068528413764 91.88343146443367
leaf_count=344 25 37 20 30 21 189
internal_value=0 -1.58453 1.09377 -0.0308893 -1.7083 -1.8043
internal_weight=0 117.304 76.4615 12.719 112.547 106.172
internal_count=666 272 394 50 247 226
shrinkage=0.005


Tree=68
num_leaves=8
num_cat=0
split_feature=44 404 365 104 84 4 214
split_gain=329.246 40.3445 21.5609 19.9056 23.212 7.91722 0.5752
threshold=120.89990234375001 73.899902343750014 0.024147510528564457 132.39990234375003 182.59985351562503 117.89990234375001 147.29980468750003
decision_type=10 10 10 10 8 10 10
left_child=3 -2 -3 -1 -5 -4 -7
right_child=1 2 5 4 -6 6 -8
leaf_value=0.0066036811248496897 0.0069349655881347843 0.00028502261774671637 -0.0039216651213184687 -0.0067445151259356876 0.0068018572927721604 -0.0071979201753111432 -0.0096016492216566239
leaf_weight=63.528258264064789 4.3221374452114096 6.3410625755786887 8.1828637421131116 6.6391644477844212 6.0756794810295114 8.544226408004759 89.870350509881973
leaf_count=344 21 24 23 20 30 20 184
internal_value=0 -1.57719 -1.69329 1.09143 -0.0307049 -1.80022 -1.88164
internal_weight=0 117.261 112.939 76.2431 12.7148 106.597 98.4146
internal_count=666 272 251 394 50 227 204
shrinkage=0.005


Tree=69
num_leaves=8
num_cat=0
split_feature=44 404 365 99 39 4 214
split_gain=326.262 39.9525 21.3614 19.8301 22.8091 7.85225 0.570223
threshold=120.89990234375001 73.899902343750014 0.024147510528564457 134.80004882812503 168.29980468750003 117.89990234375001 147.29980468750003
decision_type=10 10 10 10 8 10 10
left_child=3 -2 -3 -1 -5 -4 -7
right_child=1 2 5 4 -6 6 -8
leaf_value=0.0065930540048944001 0.006918875699173474 0.00028361782273378394 -0.003900352653167502 -0.0066613255464477742 0.00677469178604761 -0.0071608556710318783 -0.0095576591112890262
leaf_weight=63.318214938044548 4.3105567097663871 6.3406096100807181 8.186429634690283 6.6649999767541859 6.0415067374706277 8.5455056726932508 89.832661151885986
leaf_count=344 21 24 23 20 30 20 184
internal_value=0 -1.56991 -1.68533 1.0891 -0.0309824 -1.7918 -1.87294
internal_weight=0 117.216 112.905 76.0247 12.7065 106.565 98.3782
internal_count=666 272 251 394 50 227 204
shrinkage=0.005


Tree=70
num_leaves=8
num_cat=0
split_feature=44 369 99 79 0 404 339
split_gain=323.316 40.6021 19.7432 22.6249 16.9048 7.09061 0.180383
threshold=120.89990234375001 86.399902343750014 134.80004882812503 193.79980468750003 0.022235035896301273 103.19995117187501 137.39990234375003
decision_type=10 10 10 8 10 10 10
left_child=2 -2 -1 -4 -3 -6 -7
right_child=1 4 3 -5 5 6 -8
leaf_value=0.0065823762005482447 0.0063829020505410394 -0.00081681024121912579 -0.0066215594884177428 0.0067643401977345542 -0.0036651548974625668 -0.0073848866868370224 -0.0094690268175335757
leaf_weight=63.1043611317873 4.7250451147556296 7.3036086708307257 6.6763490289449665 6.025318607687951 6.975116938352584 8.8225187510251981 89.340378373861313
leaf_count=344 25 24 20 30 20 20 183
internal_value=0 -1.56272 1.08679 -0.0307131 -1.6847 -1.78753 -1.8594
internal_weight=0 117.167 75.806 12.7017 112.442 105.138 98.1629
internal_count=666 272 394 50 247 223 203
shrinkage=0.005


Tree=71
num_leaves=8
num_cat=0
split_feature=44 369 0 4 404 153 339
split_gain=320.427 40.2079 19.6701 16.7564 8.40702 2.45853 0.93822
threshold=120.89990234375001 86.399902343750014 0.15980744361877444 1121.3999023437502 103.19995117187501 0.00047699734568595892 137.39990234375003
decision_type=10 10 10 8 10 10 10
left_child=2 -2 5 4 -3 -1 -6
right_child=1 3 -4 -5 6 -7 -8
leaf_value=0.0065667916719930539 0.0063710951712043764 -0.0032841843197527203 -0.0019305917447486744 -0.00024538613685447968 -0.0069175626802159872 0.0020448294766161942 -0.0094711303297444517
leaf_weight=63.383727505803108 4.7101697325706473 7.2071716487407675 7.8762291669845572 6.3784893006086341 9.0652695447206479 4.3272779285907736 89.745753586292267
leaf_count=347 25 21 27 21 21 20 184
internal_value=0 -1.55572 1.0845 -1.67699 -1.7721 1.25999 -1.85041
internal_weight=0 117.107 75.5872 112.397 106.018 67.711 98.811
internal_count=666 272 394 247 226 367 205
shrinkage=0.005


Tree=72
num_leaves=8
num_cat=0
split_feature=44 369 104 29 0 401 239
split_gain=317.566 39.8184 19.6317 22.6608 16.689 7.08997 0.569869
threshold=120.89990234375001 86.399902343750014 132.39990234375003 190.09985351562503 0.022235035896301273 0.00089835000107996177 142.99975585937503
decision_type=10 10 10 8 10 10 10
left_child=2 -2 -1 -4 -3 -6 -7
right_child=1 4 3 -5 5 6 -8
leaf_value=0.0065623585139677242 0.0063593707330468693 -0.00079053588675860955 -0.006643594697174811 0.0067614973588903731 -0.0038846709827192721 -0.0070457673477229534 -0.0094341930397858938
leaf_weight=62.687955513596535 4.6952967643737784 7.3085945397615424 6.6630444377660725 6.0209222584962854 7.7680827379226676 8.5406987518072111 88.732516318559647
leaf_count=344 25 24 20 30 21 20 182
internal_value=0 -1.54879 1.08217 -0.0324207 -1.66934 -1.77163 -1.84798
internal_weight=0 117.045 75.3719 12.684 112.35 105.041 97.2732
internal_count=666 272 394 50 247 223 202
shrinkage=0.005


Tree=73
num_leaves=7
num_cat=0
split_feature=44 369 99 89 4 404
split_gain=314.74 39.4338 19.5501 22.2757 16.5882 5.15499
threshold=120.89990234375001 86.399902343750014 134.80004882812503 190.29980468750003 117.89990234375001 110.29980468750001
decision_type=10 10 10 8 10 10
left_child=2 -2 -1 -4 -3 -6
right_child=1 4 3 -5 5 -7
leaf_value=0.0065519174139297004 0.0063477271429400973 -0.0018796896042201376 -0.0065634029496614201 0.0067346615784402474 -0.0048785793029483297 -0.0092784991678375381
leaf_weight=62.476752251386642 4.6804268509149543 9.803125247359274 6.687082186341283 5.9894770085811624 8.9464865326881391 93.550860956311226
leaf_count=344 25 30 20 30 24 193
internal_value=0 -1.54192 1.0799 -0.0323891 -1.66176 -1.78182
internal_weight=0 116.981 75.1533 12.6766 112.3 102.497
internal_count=666 272 394 50 247 217
shrinkage=0.005


Tree=74
num_leaves=8
num_cat=0
split_feature=44 369 104 39 0 401 239
split_gain=311.943 39.0537 19.4713 22.3196 16.5044 7.04156 0.569457
threshold=120.89990234375001 86.399902343750014 132.39990234375003 138.59985351562503 0.022235035896301273 0.00089835000107996177 142.99975585937503
decision_type=10 10 10 8 10 10 10
left_child=2 -2 -1 -4 -3 -6 -7
right_child=1 4 3 -5 5 6 -8
leaf_value=0.0065417667692695474 0.0063361643787743496 -0.00076009896281414076 -0.0065771472313186563 0.0067359651999592167 -0.0038249545611060086 -0.0069732264294529982 -0.0093553033373555156
leaf_weight=62.263122454285622 4.665560618042945 7.3151418268680564 6.6776010096073124 5.9937058836221704 7.7689114511013022 8.5395970791578275 88.624694913625717
leaf_count=344 25 24 20 30 21 20 182
internal_value=0 -1.5351 1.07765 -0.0322961 -1.65425 -1.75612 -1.83228
internal_weight=0 116.914 74.9344 12.6713 112.248 104.933 97.1643
internal_count=666 272 394 50 247 223 202
shrinkage=0.005


Tree=75
num_leaves=7
num_cat=0
split_feature=44 369 99 89 4 399
split_gain=309.185 38.6795 19.395 21.9076 16.4361 5.96702
threshold=120.89990234375001 86.399902343750014 134.80004882812503 190.29980468750003 1121.3999023437502 126.50000000000001
decision_type=10 10 10 8 8 10
left_child=2 -2 -1 -4 5 -3
right_child=1 4 3 -5 -6 -7
leaf_value=0.006531553136002676 0.0063246804369549324 -0.0054151526937017873 -0.0064896005667856469 0.0067090525583229643 -0.00017518142166268421 -0.0092047953559664698
leaf_weight=62.053381472826004 4.6506989747285834 14.315316781401632 6.7057554572820637 5.9565090835094461 6.3824796080589286 91.493547260761261
leaf_count=344 25 37 20 30 21 189
internal_value=0 -1.52839 1.07541 -0.0324609 -1.64686 -1.74125
internal_weight=0 116.842 74.7156 12.6623 112.191 105.809
internal_count=666 272 394 50 247 226
shrinkage=0.005


Tree=76
num_leaves=8
num_cat=0
split_feature=44 404 365 0 4 403 214
split_gain=306.454 38.2097 20.1403 19.339 7.64473 2.46697 0.582146
threshold=120.89990234375001 73.899902343750014 0.024147510528564457 0.15980744361877444 117.89990234375001 0.00025399774312973028 147.29980468750003
decision_type=10 10 10 10 10 10 10
left_child=3 -2 -3 5 -4 -1 -6
right_child=1 2 4 -5 6 -7 -8
leaf_value=0.0065185981961096264 0.006908976964873889 0.00031202331609973588 -0.0037036422080481721 -0.0019250334387147839 -0.0069000838388965273 0.001971731876523677 -0.0092837850747740248
leaf_weight=62.349581554532051 4.2661962360143653 6.2942808270454398 8.2007677406072599 7.8623023182153693 8.5417978465557081 4.284741446375846 89.465043127536774
leaf_count=347 21 24 23 27 20 20 184
internal_value=0 -1.52173 -1.6345 1.07319 -1.73789 1.24975 -1.81827
internal_weight=0 116.768 112.502 74.4966 106.208 66.6343 98.0068
internal_count=666 272 251 394 227 367 204
shrinkage=0.005


Tree=77
num_leaves=8
num_cat=0
split_feature=44 369 104 29 0 401 239
split_gain=303.745 38.029 19.2827 21.983 16.2381 6.954 0.571986
threshold=120.89990234375001 86.399902343750014 132.39990234375003 190.09985351562503 0.022235035896301273 0.00089835000107996177 142.99975585937503
decision_type=10 10 10 8 10 10 10
left_child=2 -2 -1 -4 -3 -6 -7
right_child=1 4 3 -5 5 6 -8
leaf_value=0.0065122687783715581 0.0063076313789571428 -0.00071536181592830753 -0.0065171769032715404 0.00671209941588398 -0.003742198910007414 -0.0068659375121286398 -0.0092410656718234212
leaf_weight=61.636772856116295 4.627566084265708 7.3228234201669684 6.6913027465343449 5.9538799971342096 7.764356166124343 8.5368009656667692 88.440852224826813
leaf_count=344 25 24 20 30 21 20 182
internal_value=0 -1.5151 1.07092 -0.0339318 -1.63244 -1.7337 -1.80949
internal_weight=0 116.692 74.282 12.6452 112.065 104.742 96.9777
internal_count=666 272 394 50 247 223 202
shrinkage=0.005


Tree=78
num_leaves=8
num_cat=0
split_feature=39 329 404 3 307 207 234
split_gain=298.167 50.9843 22.2869 15.3102 3.25028 2.22644 2.19646
threshold=88.699951171875014 114.59985351562501 1500.5998535156252 0.0042129978537559518 7.967350168903871 30.344999313354496 144.69995117187503
decision_type=10 10 8 8 10 8 10
left_child=5 4 3 6 -2 -1 -3
right_child=1 2 -4 -5 -6 -7 -8
leaf_value=0.0065144031567809166 0.00072629618011127764 -0.0063777974616938057 0.0022019029015566132 -0.00031269974866092025 0.0071278199345198778 0.0021528337971160379 -0.0091112867083941139
leaf_weight=59.791259407997131 4.6012685596942884 12.742819920182226 5.0247717499732962 6.0230934619903556 4.7671612501144409 4.3328235894441596 93.389711260795593
leaf_count=334 20 33 20 20 23 20 196
internal_value=0 -1.39736 -1.57789 -1.67099 0.82877 1.24862 -1.75944
internal_weight=0 126.549 117.18 112.156 9.36843 64.1241 106.133
internal_count=666 312 269 249 43 354 229
shrinkage=0.005


Tree=79
num_leaves=7
num_cat=0
split_feature=44 369 99 89 4 401
split_gain=298.524 37.4985 19.1545 21.4513 16.1604 5.21653
threshold=120.89990234375001 86.399902343750014 134.80004882812503 190.29980468750003 117.89990234375001 0.00089835000107996177
decision_type=10 10 10 8 10 10
left_child=2 -2 -1 -4 -3 -6
right_child=1 4 3 -5 5 -7
leaf_value=0.0064934007577582241 0.0062970811095112026 -0.0017511593005689466 -0.0064128916396961168 0.0066723842576430882 -0.0045886400773116785 -0.0090546317455801831
leaf_weight=61.232168331742287 4.6125959903001776 9.8115865588188154 6.719801023602483 5.9031784087419519 8.7131756693124753 93.397874549031258
leaf_count=344 25 30 20 30 23 194
internal_value=0 -1.50221 1.06668 -0.0349376 -1.6187 -1.73765
internal_weight=0 116.535 73.8551 12.623 111.923 102.111
internal_count=666 272 394 50 247 217
shrinkage=0.005


Tree=80
num_leaves=8
num_cat=0
split_feature=44 404 3 99 34 274 361
split_gain=295.916 37.2148 19.6385 19.0716 21.2911 9.08338 1.24317
threshold=120.89990234375001 73.899902343750014 0.047918999567627914 134.80004882812503 179.89990234375003 124.50000000000001 0.00095040001906454574
decision_type=10 10 8 10 8 10 10
left_child=3 -2 5 -1 -5 -3 -7
right_child=1 2 -4 4 -6 6 -8
leaf_value=0.0064835182383182225 0.0068916224387038996 -0.0027260093613606729 0.00055801271666892384 -0.0063764458694171916 0.0066652191907790393 -0.0062328741748602229 -0.009146817269433262
leaf_weight=61.019406512379646 4.2402741760015479 7.0916575342416754 5.9970198869705191 6.7307363450527165 5.8860927522182473 7.7084373831748954 91.411502659320831
leaf_count=344 21 21 21 20 30 20 189
internal_value=0 -1.49582 -1.60711 1.06451 -0.0346534 -1.70697 -1.78707
internal_weight=0 116.449 112.209 73.6362 12.6168 106.212 99.1199
internal_count=666 272 251 394 50 230 209
shrinkage=0.005


Tree=81
num_leaves=8
num_cat=0
split_feature=44 404 365 0 11 403 114
split_gain=293.326 36.8689 19.538 19.0053 5.1299 2.46291 0.364082
threshold=120.89990234375001 73.899902343750014 0.024147510528564457 0.15980744361877444 0.00097034999635070573 0.00025399774312973028 149.50000000000003
decision_type=10 10 10 10 10 10 10
left_child=3 -2 -3 5 -4 -1 -6
right_child=1 2 4 -5 6 -7 -8
leaf_value=0.006472371186532001 0.0068759790798671571 0.00036138397181292121 -0.0040917378087057445 -0.001916323375582908 -0.0069121699507706247 0.0019118462925460723 -0.0090200907059003518
leaf_weight=61.321318581700325 4.2287004590034476 6.2833950966596595 7.4827193468809119 7.8474831581115714 9.4834063500165922 4.2485565245151511 88.885903656482697
leaf_count=347 21 24 20 27 22 20 185
internal_value=0 -1.48943 -1.60013 1.06236 -1.70224 1.23995 -1.76642
internal_weight=0 116.364 112.135 73.4174 105.852 65.5699 98.3693
internal_count=666 272 251 394 227 367 207
shrinkage=0.005


Tree=82
num_leaves=7
num_cat=0
split_feature=44 369 104 39 4 401
split_gain=290.763 36.672 18.9697 21.364 15.9618 5.07503
threshold=120.89990234375001 86.399902343750014 132.39990234375003 138.59985351562503 117.89990234375001 0.00089835000107996177
decision_type=10 10 10 8 10 10
left_child=2 -2 -1 -4 -3 -6
right_child=1 4 3 -5 5 -7
leaf_value=0.0064651181062830854 0.0062789896643894311 -0.0016898295128392532 -0.0064103018806057534 0.0066616965385353499 -0.0045323148920779948 -0.0089461564046222058
leaf_weight=60.60569816827774 4.5858508795499793 9.8156804442405683 6.7100295722484562 5.8877687156200418 8.7053259462118131 93.168612286448479
leaf_count=344 25 30 20 30 23 194
internal_value=0 -1.48311 1.06015 -0.036368 -1.59826 -1.71674
internal_weight=0 116.275 73.2035 12.5978 111.69 101.874
internal_count=666 272 394 50 247 217
shrinkage=0.005


Tree=83
num_leaves=8
num_cat=0
split_feature=44 404 3 99 89 274 361
split_gain=288.245 36.3374 19.3762 18.8932 20.9497 8.97525 1.18326
threshold=120.89990234375001 73.899902343750014 0.047918999567627914 134.80004882812503 190.29980468750003 124.50000000000001 0.00095040001906454574
decision_type=10 10 8 10 8 10 10
left_child=3 -2 5 -1 -5 -3 -7
right_child=1 2 -4 4 -6 6 -8
