tree
version=v3
num_class=1
num_tree_per_iteration=1
label_index=0
max_feature_idx=566
objective=binary sigmoid:1
feature_names=Column_0 Column_1 Column_2 Column_3 Column_4 Column_5 Column_6 Column_7 Column_8 Column_9 Column_10 Column_11 Column_12 Column_13 Column_14 Column_15 Column_16 Column_17 Column_18 Column_19 Column_20 Column_21 Column_22 Column_23 Column_24 Column_25 Column_26 Column_27 Column_28 Column_29 Column_30 Column_31 Column_32 Column_33 Column_34 Column_35 Column_36 Column_37 Column_38 Column_39 Column_40 Column_41 Column_42 Column_43 Column_44 Column_45 Column_46 Column_47 Column_48 Column_49 Column_50 Column_51 Column_52 Column_53 Column_54 Column_55 Column_56 Column_57 Column_58 Column_59 Column_60 Column_61 Column_62 Column_63 Column_64 Column_65 Column_66 Column_67 Column_68 Column_69 Column_70 Column_71 Column_72 Column_73 Column_74 Column_75 Column_76 Column_77 Column_78 Column_79 Column_80 Column_81 Column_82 Column_83 Column_84 Column_85 Column_86 Column_87 Column_88 Column_89 Column_90 Column_91 Column_92 Column_93 Column_94 Column_95 Column_96 Column_97 Column_98 Column_99 Column_100 Column_101 Column_102 Column_103 Column_104 Column_105 Column_106 Column_107 Column_108 Column_109 Column_110 Column_111 Column_112 Column_113 Column_114 Column_115 Column_116 Column_117 Column_118 Column_119 Column_120 Column_121 Column_122 Column_123 Column_124 Column_125 Column_126 Column_127 Column_128 Column_129 Column_130 Column_131 Column_132 Column_133 Column_134 Column_135 Column_136 Column_137 Column_138 Column_139 Column_140 Column_141 Column_142 Column_143 Column_144 Column_145 Column_146 Column_147 Column_148 Column_149 Column_150 Column_151 Column_152 Column_153 Column_154 Column_155 Column_156 Column_157 Column_158 Column_159 Column_160 Column_161 Column_162 Column_163 Column_164 Column_165 Column_166 Column_167 Column_168 Column_169 Column_170 Column_171 Column_172 Column_173 Column_174 Column_175 Column_176 Column_177 Column_178 Column_179 Column_180 Column_181 Column_182 Column_183 Column_184 Column_185 Column_186 Column_187 Column_188 Column_189 Column_190 Column_191 Column_192 Column_193 Column_194 Column_195 Column_196 Column_197 Column_198 Column_199 Column_200 Column_201 Column_202 Column_203 Column_204 Column_205 Column_206 Column_207 Column_208 Column_209 Column_210 Column_211 Column_212 Column_213 Column_214 Column_215 Column_216 Column_217 Column_218 Column_219 Column_220 Column_221 Column_222 Column_223 Column_224 Column_225 Column_226 Column_227 Column_228 Column_229 Column_230 Column_231 Column_232 Column_233 Column_234 Column_235 Column_236 Column_237 Column_238 Column_239 Column_240 Column_241 Column_242 Column_243 Column_244 Column_245 Column_246 Column_247 Column_248 Column_249 Column_250 Column_251 Column_252 Column_253 Column_254 Column_255 Column_256 Column_257 Column_258 Column_259 Column_260 Column_261 Column_262 Column_263 Column_264 Column_265 Column_266 Column_267 Column_268 Column_269 Column_270 Column_271 Column_272 Column_273 Column_274 Column_275 Column_276 Column_277 Column_278 Column_279 Column_280 Column_281 Column_282 Column_283 Column_284 Column_285 Column_286 Column_287 Column_288 Column_289 Column_290 Column_291 Column_292 Column_293 Column_294 Column_295 Column_296 Column_297 Column_298 Column_299 Column_300 Column_301 Column_302 Column_303 Column_304 Column_305 Column_306 Column_307 Column_308 Column_309 Column_310 Column_311 Column_312 Column_313 Column_314 Column_315 Column_316 Column_317 Column_318 Column_319 Column_320 Column_321 Column_322 Column_323 Column_324 Column_325 Column_326 Column_327 Column_328 Column_329 Column_330 Column_331 Column_332 Column_333 Column_334 Column_335 Column_336 Column_337 Column_338 Column_339 Column_340 Column_341 Column_342 Column_343 Column_344 Column_345 Column_346 Column_347 Column_348 Column_349 Column_350 Column_351 Column_352 Column_353 Column_354 Column_355 Column_356 Column_357 Column_358 Column_359 Column_360 Column_361 Column_362 Column_363 Column_364 Column_365 Column_366 Column_367 Column_368 Column_369 Column_370 Column_371 Column_372 Column_373 Column_374 Column_375 Column_376 Column_377 Column_378 Column_379 Column_380 Column_381 Column_382 Column_383 Column_384 Column_385 Column_386 Column_387 Column_388 Column_389 Column_390 Column_391 Column_392 Column_393 Column_394 Column_395 Column_396 Column_397 Column_398 Column_399 Column_400 Column_401 Column_402 Column_403 Column_404 Column_405 Column_406 Column_407 Column_408 Column_409 Column_410 Column_411 Column_412 Column_413 Column_414 Column_415 Column_416 Column_417 Column_418 Column_419 Column_420 Column_421 Column_422 Column_423 Column_424 Column_425 Column_426 Column_427 Column_428 Column_429 Column_430 Column_431 Column_432 Column_433 Column_434 Column_435 Column_436 Column_437 Column_438 Column_439 Column_440 Column_441 Column_442 Column_443 Column_444 Column_445 Column_446 Column_447 Column_448 Column_449 Column_450 Column_451 Column_452 Column_453 Column_454 Column_455 Column_456 Column_457 Column_458 Column_459 Column_460 Column_461 Column_462 Column_463 Column_464 Column_465 Column_466 Column_467 Column_468 Column_469 Column_470 Column_471 Column_472 Column_473 Column_474 Column_475 Column_476 Column_477 Column_478 Column_479 Column_480 Column_481 Column_482 Column_483 Column_484 Column_485 Column_486 Column_487 Column_488 Column_489 Column_490 Column_491 Column_492 Column_493 Column_494 Column_495 Column_496 Column_497 Column_498 Column_499 Column_500 Column_501 Column_502 Column_503 Column_504 Column_505 Column_506 Column_507 Column_508 Column_509 Column_510 Column_511 Column_512 Column_513 Column_514 Column_515 Column_516 Column_517 Column_518 Column_519 Column_520 Column_521 Column_522 Column_523 Column_524 Column_525 Column_526 Column_527 Column_528 Column_529 Column_530 Column_531 Column_532 Column_533 Column_534 Column_535 Column_536 Column_537 Column_538 Column_539 Column_540 Column_541 Column_542 Column_543 Column_544 Column_545 Column_546 Column_547 Column_548 Column_549 Column_550 Column_551 Column_552 Column_553 Column_554 Column_555 Column_556 Column_557 Column_558 Column_559 Column_560 Column_561 Column_562 Column_563 Column_564 Column_565 Column_566
feature_infos=[0.013354125432670116:30.918819427490234] [-0.19893503189086914:2.1130650043487549] [0.00062330003129318357:0.0021778999362140894] [-0.94999998807907104:33.439998626708984] [1.1995434761047363e-05:0.1020359992980957] [15.39990234375:5549.2001953125] [0:1] [-0.89550786336423149:28.269388198852539] [-0.15320491790771484:1.9288699626922607] [0.00062242597730894039:0.0022018000017851591] [-1.4800000190734863:33.424999237060547] [-3.9811061481210235e-05:0.13035398721694946] [6.4770879519818294:5078.39990234375] [0:1] [0.013648378662765026:27.230234146118164] [-0.16811193206842476:1.7840299606323242] [0.0006179999909363687:0.0021832999773323536] [-0.99500000476837158:33.340000152587891] [-2.4513679086893144e-05:0.13053399324417114] [16:3801.599853515625] [0:1] [0.014159243553876877:27.574939727783203] [-0.11294918370377738:1.5896350145339966] [0.0006179999909363687:0.002180800074711442] [-1.361807381010947:33.239997863769531] [-5.1011710826345705e-05:0.13053399324417114] [16:6955.60009765625] [0:1] [0.014910726808011532:39.613616943359375] [-0.085715055465698242:1.5694050788879395] [0.00061980000464245677:0.002172527023845764] [-1.9249999523162842:33.204998016357422] [-9.3149242029726378e-05:0.13042999804019928] [14.60009765625:8566] [0:1] [-3.1419292918783297:36.896831512451172] [-0.11011004447937012:1.5767149925231934] [0.00062180001987144351:0.0022108000703155994] [-1.8549998998641968:33.305000305175781] [-8.2995443979497522e-05:0.13053399324417114] [-148.87830794844047:12953.400390625] [0:1] [0.01345429103821516:26.359102249145508] [-0.10764503479003906:1.6022999286651611] [0.00062870001420378685:0.0021933000534772873] [-1.6299999952316284:33.305000305175781] [-7.6387090107213749e-05:0.12710599601268768] [15:7843.7998046875] [0:1] [0.013281884603202343:27.308843612670898] [-0.094554901123046875:1.518744945526123] [0.00062870001420378685:0.0021590001415461302] [-1.5749999284744263:33.229999542236328] [-6.8170236492482626e-06:0.10295599699020386] [15:4863.39990234375] [0:1] [0.013585126958787441:41.278266906738281] [-0.10305500030517578:1.5739949941635132] [0.00062599999364465475:0.0021881000138819218] [-0.88999998569488525:33.229999542236328] [1.1995434761047363e-05:0.13053399324417114] [14.60009765625:5659.39990234375] [0:1] [0.014476766809821129:35.209900574246717] [-0.13303912590771733:2.0240196139698665] [0.00061649997951462865:0.002199399983510375] [-1.5991129803010153:33.555000305175781] [-0.00015227701278943502:0.13053399324417114] [15.7998046875:7069] [0:1] [0.014333184808492661:35.386806045866521] [-0.15312004089355469:1.9685615415917352] [0.00061710106107686676:0.0021748999133706093] [-1.6862968630394264:33.474998474121094] [-0.0017812450408573558:0.12699399888515472] [16:6476.39990234375] [0:1] [0.013992585241794586:42.778064727783203] [-0.10505426511987648:2.0118300914764404] [0.00060956830182809312:0.002181082800463168] [-1.266710649834909:33.299999237060547] [-3.4665826832610626e-05:0.13053399324417114] [-146.72087663255627:7131.39990234375] [0:1] [0.013223352842032909:36.563218445210303] [-0.10373497009277344:2.1854848861694336] [0.0006094289670263034:0.002185499994084239] [-1.6049055956865255:33.325000762939453] [-3.736987669540561e-05:0.13053399324417114] [6.1241321481868916:4587.9231829710889] [0:1] [0.014036460779607296:26.427436828613281] [-0.11298971374931988:1.74357008934021] [0.00060763458002314097:0.0021869000047445297] [-1.6449999809265137:33.344997406005859] [-5.1057948158637903e-05:0.13053399324417114] [14.39990234375:4369.7998046875] [0:1] [0.013528746552765369:33.599807739257812] [-0.092259883880615234:1.523419976234436] [0.00063090003095567226:0.0021940131417079595] [-1.6449999809265137:33.344997406005859] [-0.0001391291650159168:0.13529780047627316] [14.7998046875:5211.7998046875] [0:1] [0.01353444904088974:20.102195739746094] [-0.25036001205444336:1.6595050096511841] [0.0006207000114955008:0.0022235000506043434] [-1.684999942779541:33.294998168945312] [-0.00018938101755084361:0.13053399324417114] [15.19970703125:8392.599609375] [0:1] [0.01384365651756525:77.676170349121094] [-0.13501501083374023:1.8203250169754028] [0.00062090001301839948:0.0022040000185370445] [-1.4800000190734863:33.235000610351562] [-0.00010008798375508062:0.13053399324417114] [12.7998046875:3693.39990234375] [0:1] [0.013313852250576019:38.718585968017578] [-0.37862491607666016:1.9544550180435181] [0.00062549998983740807:0.0021921999286860228] [-1.3600000143051147:33.290000915527344] [-7.6727698506855725e-06:0.13053399324417114] [13:10558.80078125] [0:1] [0.014628810808062553:46.508316040039062] [-0.22587990760803223:2.0339300632476807] [0.00061540002934634686:0.002203300129622221] [-2.0520807236406684:33.625] [-0.00019519072439481345:0.13053399324417114] [15:6558] [0:1] [-0.23302547325818304:35.813850402832031] [-0.13246488571166992:1.9645700454711914] [0.00062190002063289285:0.0021873000077903271] [-1.8399999141693115:33.575000762939453] [-0.002827341500465444:0.13053399324417114] [-22.322341142966103:7470.7711783954137] [0:1] [-0.4271312255716857:35.684944152832031] [-0.13487910043254808:1.9632314072684709] [0.00061182739612786565:0.0021892001386731863] [-1.5699999332427979:33.43499755859375] [-0.0026771573642686707:0.13053399324417114] [14.60009765625:6671] [0:1] [0.013795073144137859:33.453563085341003] [-0.12940502166748047:1.9655957148703735] [0.00060423436407881922:0.0021774000488221645] [-1.6635642062122715:33.450000762939453] [-0.013414569249511414:0.1305339932441712] [14.7998046875:7299] [0:1] [0.013953659683465958:29.146968841552734] [-0.17530488967895508:1.8075749874114984] [0.00062609999440610409:0.0021866001188755035] [-1.5899999141693115:33.360000610351562] [-0.0013635236400813436:0.13504396071956576] [15:8610.400390625] [0:1] [0.014181340113282204:34.616146087646484] [-0.29205180949189702:1.9427249431610107] [0.00060444599002758151:0.0021848001051694155] [-1.6449999809265137:33.30999755859375] [-0.00024505577357805534:0.17279417751204906] [14.19970703125:8984.400390625] [0:1] [0.01381155289709568:42.767086029052734] [-0.18142509460449219:2.0023949146270752] [0.00060318872547071459:0.0021850001066923141] [-1.8499999046325684:33.25] [-0.00067571431350325569:0.13053399324417114] [14.19970703125:6651.7998046875] [0:1] [0.013803555630147457:35.47314453125] [-0.39630508422851562:2.0767700672149658] [0.00062310002977028489:0.0022028000093996525] [-1.7099999189376831:33.354999542236328] [-1.6550342812344564e-05:0.13053399324417114] [12.7998046875:11266.599609375] [0:1] [-0.056449854684582801:35.47314453125] [-0.20853996276855469:2.2109849452972412] [0.00062240002444013953:0.0022026000078767538] [-1.7300000190734863:33.479999542236328] [-9.8083343977630019e-05:0.13053399324417114] [5.4803652661489091:3750.39990234375] [0:1] [-0.18075055699978554:28.407920707921615] [-0.18482494354248047:2.1396698951721191] [0.00062052544335084434:0.0021899999119341373] [-2.1127580819141762:33.774997711181641] [-0.00015055475350300216:0.12503799796104431] [-593.09526479981548:2794.1454358229544] [0:1] [-0.51421165631881272:35.813850402832031] [-0.11563491821289062:2.219059944152832] [0.00061833544992838309:0.0021870001219213009] [-1.7836926461342921:33.68499755859375] [-0.0014705422894865244:0.12791800498962402] [-26.452384985022356:4286.2069389589069] [0:1] [-1.5384649930893:35.684944152832031] [-0.14147496223449707:1.8730340611017251] [0.00059670611187147672:0.0021915000397711992] [-1.5:33.569999694824219] [-0.0029025223452685493:0.13053399324417114] [-29.325766282154071:4595.39990234375] [0:1] [-2.6910481359134621:32.437904357910156] [-0.11419010162353516:1.8155416434513054] [0.00059604871920708425:0.0021915000397711992] [-1.6549999713897705:33.520000457763672] [-0.002602554808100547:0.13053399324417114] [2.2459247915199105:6106.2001953125] [0:1] [-0.33616323115948715:23.760196685791016] [-0.25544201168392539:1.8148000240325928] [0.00062112734163377494:0.0021901000291109085] [-1.8899999856948853:33.389999389648438] [-0.022397037791783217:0.13053399324417114] [-152.68961096342059:5040.60009765625] [0:1] [-0.33896860157180964:24.645692636173131] [-0.34723111873797557:1.8687750101089478] [0.00057452024118888616:0.0022014188028460524] [-1.8899999856948853:33.344997406005859] [-0.0088365188845987395:0.13053399324417114] [-6.5310089861062401:8549.3176945030464] [0:1] [0.013091660104691982:20.373096466064453] [-0.13714003562927246:1.755752035814661] [0.00058016804478789946:0.002201623099431638] [-1.8499999046325684:33.340000152587891] [-0.00031791068651240088:0.13053399324417114] [12.60009765625:6832.6485522843832] [0:1] [0.01295023038983345:26.534168243408203] [-0.085545063018798828:1.8291736564158252] [0.00046361315996273325:0.0021840999834239483] [-1.8399999141693115:33.579998016357422] [-0.00013217239554219403:0.13053399324417114] [12.19970703125:13144.035754430184] [0:1] [-0.051754474908537268:25.539459228515625] [-0.29711008071899414:2.1530405866719011] [0.00061980000464245677:0.002203900134190917] [-1.7199999094009399:33.719997406005859] [-4.0536707527443798e-05:0.065767355576177605] [-116.67574746328796:5900.60009765625] [0:1] [-0.077526909780799291:25.791122436523438] [-0.18728995323181152:1.6601849794387817] [0.00061085670068047469:0.0021873000077903271] [-1.8449999094009399:33.669998168945312] [-0.0001487114672249378:0.13053399324417114] [-749.83595305460756:8356] [0:1] [-0.11369186738526363:32.215835571289062] [-0.15481996536254883:1.9531536644876648] [0.00062455488338154601:0.0022009999956935644] [-1.8449999094009399:33.649997711181641] [-0.0044446370122202426:0.13053399324417114] [15.39990234375:3851] [0:1] [-0.10821655713068087:28.679636001586914] [-0.11538004875183105:1.7339070208511362] [0.00059715091384980048:0.0021454999223351479] [-1.4681605888368996:33.599998474121094] [-0.001086585079508853:0.13053399324417114] [-16.962548769218699:7585.1747005003008] [0:1] [-0.15497525529085235:27.353592894939784] [-0.13076289428469579:1.5274150371551514] [0.00060363492068698523:0.0021657999604940414] [-1.4413400779657106:33.604999542236328] [-0.00088106717265034164:0.13053399324417114] [-263.69075092041885:4014.0211417275705] [0:1] [-0.30507685848791721:28.862592697143555] [-0.20386505126953125:1.6673250198364258] [0.00061579025651952628:0.0021882001310586929] [-1.7149999141693115:33.579998016357422] [-0.0015250764661695355:0.13053399324417114] [-6.1749656971767566:2193.3791462939193] [0:1] [-0.19776922892592169:32.711883544921875] [-0.25233504454219285:1.752155065536499] [0.00058924906588164619:0.0021879000123590231] [-1.8049999475479126:33.524997711181641] [-0.00044428099117145201:0.12258999794721603] [-573.52598810361758:5625.7702967025098] [0:1] [-0.020688237550571281:26.400182723999023] [-0.15099501609802246:1.5475462363736958] [0.0006186343587210023:0.0022176743800433841] [-1.6349999904632568:33.489997863769531] [-0.00012453755516247136:0.11581799387931824] [-543.8308851571735:3232.800048828125] [0:1] [0.012858009897172451:45.110702514648438] [-0.10645508766174316:1.629742382515138] [0.0005055829289237144:0.0022184001281857491] [-1.2999999523162842:33.825000762939453] [-8.5700592432248125e-05:0.055569998919963837] [-158.02038846026761:9525.2543037043943] [0:1] [-0.0019534519658941226:32.395057678222656] [-0.16699390121132413:1.8833532209377737] [0.00062677932585251559:0.0021925000473856926] [-1.2771647897921505:33.915000915527344] [-0.00023166227074748031:0.13053399324417114] [13.19970703125:8124.050862726529] [0:1] [-0.049622258038699352:38.820404052734375] [-0.088180065155029297:1.8243653193644278] [0.00062524610773144202:0.0021730000153183937] [-1.3999999761581421:33.659999847412109] [-0.00014448987170749431:0.12960800528526306] [-247.40878685240853:3106.6855782758612] [0:1] [-1.6276648424145463:26.243246078491211] [-0.10424494743347168:1.8735267619123825] [0.00061584492655307726:0.0022082000505179167] [-1.2400000095367432:33.594997406005859] [-9.997554108940774e-05:0.13053399324417114] [-156.1911596778676:2626.199951171875] [0:1] [-3.4400833944556752:25.615972518920898] [-0.11971937168149119:1.5816722265271796] [0.0006215000175870955:0.0021454000379890203] [-1.4875886119942723:33.649997711181641] [-0.0010121831003158095:0.13053399324417114] [-1123.1576053499202:2928.800048828125] [0:1] [0.013475459069013596:31.592817306518555] [-0.13493033311885677:1.2144449949264526] [0.0006196000031195581:0.0022013999987393618] [-1.3887407897627084:33.619998931884766] [-0.00014450426649793627:0.13053399324417114] [-573.46516424469564:3592.199951171875] [0:1] [0.0047748417494907335:31.592819213867188] [-0.12889680930577474:1.2917110758427239] [0.00061675378711562956:0.0021432000212371349] [-1.5150991644576082:33.590000152587891] [-0.0004936896210741028:0.10986000299453735] [-191.35176755977386:2695.800048828125] [0:1] [-1.2329674628467859:17.758777618408203] [-0.12174953239128908:1.5506016126501081] [0.00059843206036901196:0.0021875000093132257] [-1.9199999570846558:33.659999847412109] [-3.4249227110121931e-05:0.08449399471282959] [-532.14149656974826:3453.599853515625] [0:1] [-0.88041841867190018:20.240694046020508] [-0.088520050048828125:1.6940150260925293] [0.00061340001411736012:0.0021997999865561724] [-1.8449999094009399:33.805000305175781] [-5.9660065351458194e-05:0.12948000431060791] [-482.96715863924192:2863.39990234375] [0:1] [-0.17053082745231615:36.541946411132812] [-0.097784996032714844:1.5748226962653598] [0.00062629999592900276:0.0022444224521344829] [-1.8699805004409504:33.875] [-0.0064255974213454255:0.13053399324417114] [-451.20934572936886:4195.7998046875] [0:1] [0.013819865882396698:49.751182556152344] [-0.16705989837646484:1.6506650447845459] [0.00062403943108223009:0.0021846999879926443] [-1.6438625286344366:33.834999084472656] [-0.00029447940967861492:0.13053399324417114] [-339.13223708113594:7114.39990234375] [0:1] [-0.024211153347582885:24.621395111083984] [-0.080785036087036133:0.90657496452331543] [0.00061739998636767268:0.0021929999347776175] [-1.7049999237060547:33.689998626708984] [-0.00018992611427802095:0.13053399324417114] [14.7998046875:6286] [0:1] [-0.70669001577679502:33.781400237770868] [-0.14929509162902832:1.7264631876143852] [0.00060540001140907407:0.0021943000610917807] [-0.85499995946884155:33.654998779296875] [-6.7897184218962652e-05:0.13049599528312683] [-85.278458787928884:2643.800048828125] [0:1] [-2.3036594516542817:42.059223132665053] [-0.14275002479553223:1.7260599136352539] [0.00060837780017775295:0.0022122999653220177] [-1.7249999046325684:33.610000610351562] [-0.011265602887109856:0.13053399324417114] [15.19970703125:3004.39990234375] [0:1] [-0.85960111928655303:21.501636505126953] [-0.22562503814697266:1.115561029152192] [0.00061900904568903037:0.0022094000596553087] [-1.1378313293718569:33.619998931884766] [-0.0048326812588203932:0.13053399324417114] [15.7998046875:3494.599853515625] [0:1] [0.013884743675589561:27.693958282470703] [-0.13020161081992163:1.4029868201958657] [0.00061367789152494217:0.0021955999545753002] [-1.5706583777481062:33.669998168945312] [-5.2964110296005581e-05:0.13053399324417114] [-506.45644941307648:6873.2001953125] [0:1] [0.014141893945634365:30.74817847270921] [-0.16493487358093262:1.6657950878143311] [0.00060661658543666934:0.0021917000412940979] [-1.7564390191291672:33.764999389648438] [-0.0020944754812099644:0.094219997525215149] [-107.55606641632022:5063] [0:1] [0.014400878921151161:20.843076705932617] [-0.12897992134094238:1.6209149360656738] [0.00062539998907595873:0.0021856001112610102] [-1.7450000047683716:33.814998626708984] [-2.3734014371404247e-05:0.048663996160030365] [16:10053.599609375] [0:1] [0.014318382367491722:23.181322170392857] [-0.10484004020690918:1.4916300773620605] [0.00062519998755306005:0.0021816000808030367] [-1.5199999809265137:33.794998168945312] [-0.00014753069925770243:0.050515998154878616] [16.19970703125:10218.400390625] [0:1] [0.014371935278177261:30.31005310839307] [-0.13271999359130859:1.5350649356842041] [0.00061291752822483848:0.0022020000033080578] [-1.3501411878228713:33.790000915527344] [-0.00023526727523742849:0.10709799826145172] [15:5688.4730604218548] [0:1] [0.013470721431076527:34.581855773925781] [-0.074495077133178711:1.4093389029631409] [0.00061950000235810876:0.0021766999270766973] [-1.8399999141693115:33.68499755859375] [-4.7929781870707319e-05:0.12344600260257721] [15.19970703125:7815.39990234375] [0:1] [0.013880743645131588:59.465827941894531] [-0.10870279041383527:1.5010650157928467] [0.00061341845325262956:0.0021929999347776175] [-1.5349999666213989:33.665000915527344] [-5.7083069699532464e-05:0.13053399324417114] [14.60009765625:3709.599853515625] [0:1] [0.013763123191893101:59.465827941894531] [-0.12022495269775391:1.2898399829864502] [0.00062028720217032775:0.0021919999271631241] [-1.3999999761581421:33.694999694824219] [-0.0001513768372068586:0.12992799282073975] [10.280274963487646:3403.800048828125] [0:1] [0.013778049498796463:30.412063598632812] [-0.093194961547851562:1.453629696187466] [0.00062020000768825412:0.0021917999256402254] [-2.0635280712972213:33.669998168945312] [-9.5811545680502813e-05:0.13053399324417114] [-1.2122680757180646:7333.2001953125] [0:1] [0.01376396045088768:25.793244843378325] [-0.10679507255554199:1.653423813750881] [0.00061709998408332467:0.0021915999241173267] [-1.8299999237060547:33.790000915527344] [-1.7583151807821574e-05:0.12799400091171265] [15.19970703125:5251.7998046875] [0:1] [0.013985877856612206:38.926300048828125] [-0.17785501480102539:1.7260599136352539] [0.00061210000421851873:0.0022036240130662581] [-0.76384256700931696:33.80999755859375] [-0.00019516758326139849:0.021735996007919312] [15:4794.9500303448403] [0:1] [0.01426920760422945:68.46129452992858] [-0.12116003036499023:1.6224449872970581] [0.00063020002562552691:0.002175099914893508] [-1.5349999666213989:33.805000305175781] [-0.00014755205842970846:0.048041999340057373] [-5.510864732976172:11050.342023766872] [0:1] [0.014277281239628792:31.648090362548828] [-0.13390994071960444:1.484065055847168] [0.00063140003476291895:0.0021454999223351479] [-1.6749999523162842:33.709999084472656] [-0.00039463174779419923:0.13053399324417114] [-210.36618053441825:4079.39990234375] [0:1] [0.014206508174538612:32.503524780273438] [-0.1382451057434082:1.3733100891113281] [0.00063179997960105538:0.0021840999834239483] [-1.6749999523162842:33.594997406005859] [-0.00011283716062899291:0.12134599685668945] [15.60009765625:6360.39990234375] [0:1] [0.013886223547160625:26.352842330932617] [-0.1447899341583252:1.3268150091171265] [0.00062679999973624945:0.0022050000261515379] [-1.8399999141693115:33.729999542236328] [1.1995434761047363e-05:0.11787399649620056] [14.7998046875:8015.2001953125] [0:1] [0.013603584840893745:20.247575428288108] [-0.23633503913879395:1.8240649700164795] [0.00062880001496523619:0.0021504999604076147] [-1.6050000190734863:33.719997406005859] [-8.8546676782210188e-06:0.11101599782705307] [16:8015.2001953125] [0:1] [0.013562149368226528:25.353628158569336] [-0.10075998306274414:1.8148000240325928] [0.00062259176993980639:0.002144400030374527] [-1.1349999904632568:33.724998474121094] [-2.4239278419794025e-05:0.11141599714756012] [15.19970703125:3201.800048828125] [0:1] [0.013929190114140511:27.281858444213867] [-0.224945068359375:1.8687750101089478] [0.00061793725789478196:0.0021725001279264688] [-1.7049999237060547:33.739997863769531] [-2.9928304784360011e-05:0.11807399988174438] [14.60009765625:3164.599853515625] [0:1] [0.013727783225476742:29.146968841552734] [-0.10985493659973145:1.7740899986564727] [0.00062110001454129815:0.0021917000412940979] [-1.7799999713897705:33.864997863769531] [-2.2967223687300784e-05:0.1238040030002594] [15.39990234375:4250.7998046875] [0:1] [0.014223856851458549:43.300064086914062] [-0.16155237460252767:1.6940150260925293] [0.00062439998146146536:0.002175099914893508] [-1.3949999809265137:33.869998931884766] [-1.9680703061655797e-05:0.051359996199607849] [15:3194.199951171875] [0:1] [0.014245276339352131:80.241500854492188] [-0.17870497703552246:1.488655090332031] [0.00062549998983740807:0.0021933000534772873] [-1.7949999570846558:33.825000762939453] [-2.7818627830285778e-06:0.078167997300624847] [15.19970703125:11417.80078125] [0:1] [0.014096301980316639:26.064971923828125] [-0.17181992530822754:1.4566950798034668] [0.00061089999508112669:0.0021734000183641911] [-1.3999999761581421:33.55999755859375] [-7.2038193804224043e-06:0.090491995215415955] [16:3644.39990234375] [0:1] [0.013944194652140141:27.045915603637695] [-0.096935033798217773:1.1680350303649902] [0.00061029999051243067:0.0021959999576210976] [-1.2999999523162842:33.534999847412109] [1.1995434761047363e-05:0.09231199324131012] [16:12588] [0:1]
tree_sizes=3393 3516 3513 3498 3513 3500 3514 3517 3523 3510 3526 3521 3490 3520 3534 3514 3512 3490 3514 3508 3530 3528 3496 3529 3532 3510 3491 3511 3539 3541 3518 3515 3515 3521 3510 3518 3536 3523 3521 3525 3504 3524 3527 3524 3530 3527 3474 3517 3518 3528 3530 3531 3522 3527 3527 3536 3530 3534 3534 3532 3537 3515 3516 3535 3533 3539 3539 3528 3517 3523 3517 3520 3552 3513 3525 3540 3508 3532 3553 3548 3520 3513 3529 3535 3522 3536 3527 3519 3540 3545 3530 3540 3549 3535 3553 3555 3544 3550 3573 3534 3526 3555 3558 3535 3549 3538 3549 3560 3548 3553 3559 3539 3546 3528 3540 3549 3546 3576 3528 3548 3535 3551 3532 3550 3562 3547 3542 3548 3540 3556 3562 3536 3550 3541 3554 3555 3554 3542 3545

Tree=0
num_leaves=32
num_cat=0
split_feature=5 215 348 138 61 287 91 238 10 565 462 84 481 565 381 38 121 313 462 518 7 70 15 443 551 205 0 245 182 18 187
split_gain=9802.85 1079.13 1053.06 326.206 215.074 171.714 159.973 153.379 236.541 151.204 90.9671 85.7922 71.9471 69.3316 63.4437 63.988 57.9647 54.5397 68.4009 46.794 42.8319 69.6864 63.075 45.9162 43.8804 42.6427 39.7547 58.4771 39.5793 38.7634 36.7791
threshold=103.09985351562501 140.89990234375003 134.69995117187503 130.25643212425743 123.09985351562501 0.86717432737350475 0.56943726920970383 0.25044389069080358 17.107499122619632 110.50000000000001 0.92912456393241893 0.78804945945739757 162.99975585937503 129.09985351562503 25.322499275207523 29.849999427795414 0.0007945690995087545 179.50000000000003 0.90958154201507579 0.22434727102518084 1.0252577662467959 0.59118232131004345 0.16688890638714857 0.0016524500097148123 96.500000000000014 0.0014649499789811673 0.63004952669143688 0.35020790500868476 0.52299004793167125 6.6999346017837538e-05 196.49975585937503
decision_type=10 8 10 10 10 8 8 8 10 8 8 8 8 8 10 8 8 10 10 8 10 10 8 10 10 8 10 10 10 10 8
left_child=2 6 3 4 7 11 10 -1 19 -10 26 17 -4 -6 -11 -16 -7 18 -3 29 21 24 23 -23 -8 -5 -2 -28 -21 -9 -18
right_child=1 5 12 25 13 16 20 8 9 14 -12 -13 -14 -15 15 -17 30 -19 -20 28 -22 22 -24 -25 -26 -27 27 -29 -30 -31 -32
leaf_value=1.424765493423408 1.42043695051008 1.4201946809626378 1.4122374306592371 1.4153821342443214 1.4201979587078053 1.4123632520325726 1.416066020450006 1.4076629170120454 1.4211981160760454 1.4024307167644627 1.3995717684434898 1.3983170487380738 1.3955160776895734 1.3973511162604724 1.4203631711916467 1.4018757363413337 1.3972060801551247 1.3998371350354522 1.4016210915436755 1.4231883243670913 1.3992765648071002 1.4036740619493795 1.4248595478535337 1.4207833774091034 1.3982523260120319 1.396562442830199 1.42253039170401 1.4064912527593412 1.4117109536281292 1.4247482318296496 1.3939033176880886
leaf_weight=445.66316759586334 40.661801487207413 13.083294436335565 7.9477752745151511 4.1203888952732113 4.5702712088823292 4.7686651647090903 4.4341484904289272 9.421964690089224 32.598660573363304 28.254313826560974 8.0515606701374036 66.419585406780243 41.229016050696373 11.13606221973896 13.553933829069136 7.0687677264213589 108.2968777269125 12.234220802783964 7.8739237934350959 289.82603079080582 23.192646145820618 14.430537968873979 8.0008696764707583 5.1977903991937628 19.992778956890106 13.729167297482489 8.8060257434844988 15.507939472794531 7.6340156793594351 5.0201535224914542 579.12308621406555
leaf_count=2822 231 74 35 20 26 21 22 35 189 83 20 154 78 24 77 20 233 31 22 1766 57 45 51 30 46 28 53 55 33 32 957
internal_value=0 -4.21717 0.371968 0.626017 0.714679 -4.68106 -1.73797 0.783609 0.327325 -1.1888 -0.677815 -3.44274 -4.12981 -2.94848 -2.30276 -0.947603 -4.85883 -2.11045 -1.10983 0.724332 -2.76284 -2.24504 -1.14016 -2.11117 -3.48249 -3.60286 -0.279733 -1.29501 0.810335 -1.02627 -4.88312
internal_weight=0 940.076 921.774 872.597 854.747 791.8 148.276 839.041 393.378 81.4757 73.0273 99.611 49.1768 15.7063 48.877 20.6227 692.189 33.1914 20.9572 311.902 75.2488 52.0561 27.6292 19.6283 24.4269 17.8496 64.9758 24.314 297.46 14.4421 687.42
internal_count=7370 2102 5268 5155 5107 1492 610 5057 2235 369 359 281 113 50 180 97 1211 127 96 1866 251 194 126 75 68 48 339 108 1799 67 1190
shrinkage=1


Tree=1
num_leaves=32
num_cat=0
split_feature=5 215 343 138 238 10 287 371 61 560 481 63 485 170 331 292 497 121 35 385 455 19 187 52 241 402 68 184 365 554 527
split_gain=9535.43 1034.27 991.507 315.941 204.543 326.779 163.319 152.304 130.98 118.265 108.63 89.6491 81.3444 77.0103 70.4193 56.3156 58.4442 55.4197 54.5136 93.7828 53.6976 52.5507 50.5716 50.3517 49.2225 51.507 48.6617 41.7041 66.8812 41.0874 40.4228
threshold=103.09985351562501 140.89990234375003 0.55937123298645031 130.25643212425743 0.27772192656993872 18.929999351501468 0.86717432737350475 0.6338297724723817 132.09985351562503 0.4825201034545899 162.99975585937503 2.2476111650466923 0.00085195002611726533 0.0016303546953941781 0.0012707000132650139 86.699951171875014 0.41202895343303686 0.0007945690995087545 0.75432446599006664 0.93919584155082714 0.22547988593578341 152.69995117187503 81.699951171875014 26.962499618530277 24.849999427795414 29.379999160766605 126.50000000000001 0.0013832500553689899 0.095011824652787513 0.13983249664306643 0.0012905500479973855
decision_type=10 8 10 10 8 10 8 10 10 8 8 8 8 10 8 8 10 8 8 10 8 8 8 8 10 8 10 8 10 8 8
left_child=2 7 3 4 -1 8 12 11 15 -7 29 13 -3 14 21 16 -6 -8 19 -14 -11 -2 -16 -15 -22 -26 -25 -24 -29 -4 -9
right_child=1 6 10 -5 5 9 17 30 -10 20 -12 -13 18 23 22 -17 -18 -19 -20 -21 24 -23 27 26 25 -27 -28 28 -30 -31 -32
leaf_value=0.0058014450796962189 0.003013724696585441 0.0019931473261828878 -0.013341136061155355 -0.018334683364691028 0.00069899990984302444 0.0017147067821112183 -0.0064160092586357208 -0.0043219162658357027 -0.016970112696578742 0.0057837119913980144 -0.022492677350106072 -0.018748358798850919 -0.0033396457241895681 0.0061484307363914087 0.0057950823144785769 0.004407494240817501 -0.015569304747481943 -0.023935593847517273 -0.020486917604013669 -0.021758936644779875 -0.018959919840685121 -0.013724385562327723 -0.021712017414571114 -0.015414221228195276 -0.0019157137297311745 -0.018067415332946087 0.0058752782033190737 -0.014412732879690254 0.0059290365125391903 0.0059058990098939277 -0.019034175818973612
leaf_weight=466.68969422578812 19.849245846271518 5.2367669194936743 6.2620938867330533 16.759432375431061 34.029866874217987 18.728874921798706 4.7875118851661673 5.7376501262187949 7.9507116228342047 3.4630895107984534 43.09673747420311 11.52213868498802 14.971294790506365 23.708567395806313 3.60936415195465 265.14778643846512 6.5723306834697715 697.67350997030735 67.216897919774055 13.232589945197104 26.187386199831963 6.1383266299962989 11.04138635098934 6.6154431700706464 12.522754207253456 8.4424104988574982 4.4052304327487946 16.947320386767391 5.1967811733484259 4.8724376261234283 34.290841817855835
leaf_count=2957 117 30 21 43 189 107 21 27 22 22 83 29 73 151 23 1622 20 1190 151 27 65 20 23 20 64 22 28 54 33 31 85
internal_value=0 -4.1426 0.370545 0.630467 0.715578 0.172974 -4.59185 -1.72011 0.608015 -1.79074 -3.77689 -1.10337 -3.38982 -0.787605 -1.45004 0.713065 -0.379486 -4.76367 -3.60088 -2.40694 -2.58617 -0.176427 -2.34141 0.401279 -2.86743 -1.69827 -1.35364 -2.73117 -1.91424 -0.956795 -3.39256
internal_weight=0 952.181 920.726 866.494 849.735 383.045 803.119 149.062 313.701 69.3445 54.2313 109.034 100.658 97.5117 62.7824 305.75 40.6022 702.461 95.4208 28.2039 50.6156 25.9876 36.7949 34.7292 47.1526 20.9652 11.0207 33.1855 22.1441 11.1345 40.0285
internal_count=7370 2102 5268 5133 5090 2133 1492 610 1853 280 135 498 281 469 270 1831 209 1211 251 100 173 137 133 199 151 86 48 110 87 52 112
shrinkage=0.005


Tree=2
num_leaves=32
num_cat=0
split_feature=0 348 215 133 238 10 565 287 91 56 485 256 387 481 282 297 402 84 313 121 15 474 7 70 15 51 145 240 357 518 476
split_gain=9162.22 1156.71 1025.49 340.952 188.085 239.953 152.031 149.784 149.581 103.075 79.7858 60.6826 65.5356 60.6275 58.6615 57.9234 55.2311 55.1972 61.4381 53.0891 50.6394 47.375 47.2512 65.7219 54.6772 46.935 40.6922 38.789 37.5936 34.6018 33.7136
threshold=0.4213464111089707 133.69995117187503 140.89990234375003 0.75141736865043651 0.25044389069080358 19.372499465942386 113.29980468750001 0.86717432737350475 0.56500202417373668 0.69944575428962719 0.00085195002611726533 5.5861217087818417e-05 0.0012691000010818245 162.99975585937503 0.0015729499864391985 30.037499427795414 24.917499542236332 0.78804945945739757 179.50000000000003 0.0007945690995087545 0.20847533611213204 179.29980468750003 0.98280140757560741 0.59118232131004345 0.16688890638714857 0.0014519999967888 109.29980468750001 0.001893425199640566 0.57492282986640941 0.1588476970791817 0.524885654449463
decision_type=10 10 8 10 8 10 8 8 8 10 8 10 10 8 10 8 10 8 10 8 10 10 10 10 8 8 10 8 10 8 8
left_child=1 3 8 4 -1 9 -7 10 11 20 -4 12 -2 27 -14 16 -8 18 21 -9 28 -12 23 26 25 -25 -10 -3 29 -6 -13
right_child=2 13 7 -5 5 6 15 19 22 -11 17 30 14 -15 -16 -17 -18 -19 -20 -21 -22 -23 -24 24 -26 -27 -28 -29 -30 -31 -32
leaf_value=0.0059123228844574285 0.00078754253188701763 -0.015294629480433983 0.0019855872937640444 -0.018765303681736966 -0.0083243995560324663 0.003488548374047256 -0.014943042177709746 -0.0063590418184949482 -0.0023438088546819781 -0.015062743154994179 0.00034303417871397318 0.0052133767383318623 -0.018749539141268909 -0.022303966277172949 -0.0037728135866731799 -0.018598709089473687 -0.0012057609316573844 -0.020409444516373401 -0.021270086234070593 -0.023483452763435379 -0.011006302464173326 -0.015991057681358726 -0.018988752184582937 -0.017550916894195901 0.0060158225558244417 -0.0018432500164482478 -0.019035966542353847 0.0057446610617363659 -0.0096697288837915563 0.0041695845216157415 -0.005728098723002467
leaf_weight=442.47842402756214 15.501254215836523 6.6490473151206944 5.2304379642009726 17.281911715865135 5.5819133073091498 23.373641386628151 13.577893167734148 4.8062015175819388 4.6430926024913814 7.6854844987392417 10.797435835003858 22.276272624731064 14.825897574424745 47.678124129772186 12.257140070199965 19.893302381038666 16.4985730946064 65.795366555452347 11.206495553255079 703.4054774492979 5.9128758460283271 7.3647856265306464 25.316747769713402 9.4881839007139224 7.8330511003732708 10.053919747471808 22.003309234976768 3.1536974012851724 5.1091933250427237 305.81767706573009 10.244894847273825
leaf_count=2822 86 20 30 42 23 140 41 21 23 23 59 139 37 89 59 49 86 143 23 1182 22 21 61 25 50 51 53 20 20 1864 46
internal_value=0 0.352228 -4.05946 0.64178 0.731919 0.237045 -1.39818 -4.51069 -1.69508 0.601271 -3.35654 -0.677884 -1.4654 -3.99086 -2.40536 -2.38455 -1.49145 -3.566 -2.40004 -4.67387 0.688343 -1.23957 -2.65422 -2.11276 -1.00775 -1.9093 -3.23674 -1.67459 0.743273 0.788162 0.344089
internal_weight=0 920.692 963.05 863.211 845.929 403.451 73.3434 808.606 154.444 330.107 100.395 75.1055 42.5843 57.4809 27.083 49.9698 30.0765 95.1641 29.3687 708.212 322.422 18.1622 79.3383 54.0216 27.3752 19.5421 26.6464 9.80274 316.509 311.4 32.5212
internal_count=7370 5261 2109 5132 5090 2268 316 1479 630 1952 276 367 182 129 96 176 127 246 103 1203 1929 80 263 202 126 76 76 40 1907 1887 185
shrinkage=0.005


Tree=3
num_leaves=32
num_cat=0
split_feature=5 348 215 138 61 238 10 91 287 565 462 84 565 481 381 52 121 313 462 207 518 21 182 7 70 15 443 551 39 18 197
split_gain=9034.8 994.523 953.21 310.674 207.066 151.991 229.352 149.107 148.426 142.832 86.271 77.0193 65.0318 63.8249 59.0012 60.4968 50.8271 50.6529 64.5381 49.31 46.1706 39.7733 39.051 38.8644 64.521 60.48 43.4105 40.8123 38.136 37.6502 35.559
threshold=103.09985351562501 134.69995117187503 140.89990234375003 130.25643212425743 123.09985351562501 0.25044389069080358 17.107499122619632 0.56943726920970383 0.86717432737350475 110.50000000000001 0.92912456393241893 0.78804945945739757 129.09985351562503 162.99975585937503 25.322499275207523 29.657499313354496 0.0007945690995087545 179.50000000000003 0.90958154201507579 0.0013629980385303499 0.22434727102518084 0.57221460342407238 0.52299004793167125 1.0252577662467959 0.59118232131004345 0.16688890638714857 0.0016524500097148123 96.500000000000014 6.0997903347015388e-05 1.8621420873602571e-05 0.12270510196685792
decision_type=10 10 8 10 10 8 10 8 8 8 8 8 8 8 10 8 8 10 10 8 8 10 10 10 10 8 10 10 10 8 10
left_child=1 3 7 4 5 -1 20 10 11 30 21 17 -6 -3 -11 -16 -10 18 -4 -5 28 29 -22 24 27 26 -26 -9 -7 -2 -8
right_child=2 13 8 19 12 6 9 23 16 14 -12 -13 -14 -15 15 -17 -18 -19 -20 -21 22 -23 -24 -25 25 -27 -28 -29 -30 -31 -32
leaf_value=0.0059042582983550905 -0.0051823997177352548 -0.0064194057602751696 0.0013881709205014589 -0.0025120169921864304 0.0013941214347665313 -0.011039203809566887 0.0046346065448345857 -0.0026249332114772822 -0.006302880433624424 -0.015747826974289062 -0.01854442854809785 -0.019506819567317174 -0.020591120996778046 -0.022057003436763201 0.0026389192673735755 -0.014518573938904225 -0.023036399657554354 -0.018167332016481665 -0.016471951726954998 -0.021906261928805168 0.0043232712641465814 -0.0078052383965678306 -0.0070508887391358523 -0.018675744788297612 -0.014591804059939135 0.0060132711065617114 0.0019665779796907991 -0.019674823860677391 0.005903948324794941 0.0041978302302911434 -0.0097125719978064066
leaf_weight=440.87604752182961 16.166427060961727 8.0453243106603605 13.141604125499727 4.5404476523399353 4.5923259556293514 9.4879165291786176 27.356277257204056 4.4936785250902203 4.8247352242469779 29.028011724352837 8.2677852213382703 68.837514206767082 11.480889588594435 42.943327486515045 11.981748163700102 8.8765227198600787 717.62678341567516 12.618891790509222 8.1103827357292158 13.87462203204632 287.7135758548975 17.553367748856544 7.6715183854103079 23.952981621026993 14.790789142251016 7.9661882072687176 5.2144977301359168 20.64278344810009 5.0040504634380332 31.570713311433789 5.0970328003168097
leaf_count=2822 74 35 74 22 26 35 169 22 21 83 20 154 24 78 70 27 1190 31 22 26 1766 73 33 57 45 51 30 46 32 192 20
internal_value=0 0.367707 -4.0018 0.62027 0.7087 0.777589 0.323532 -1.68508 -4.42432 -1.15887 -0.660923 -3.28874 -2.84327 -3.9238 -2.22259 -0.918155 -4.58534 -2.0348 -1.07144 -3.44117 0.718399 -0.270363 0.804558 -2.65879 -2.16768 -1.10589 -2.04016 -3.33729 -1.01705 0.197949 0.467011
internal_weight=0 918.57 975.779 867.581 849.166 833.093 392.217 150.619 825.16 82.3396 73.5583 102.708 16.0732 50.9887 49.8863 20.8583 722.452 33.8709 21.252 18.4151 309.877 65.2905 295.385 77.0609 53.1079 27.9715 20.0053 25.1365 14.492 47.7371 32.4533
internal_count=7370 5268 2102 5155 5107 5057 2235 610 1492 369 359 281 50 113 180 97 1211 127 96 48 1866 339 1799 251 194 126 75 68 67 266 189
shrinkage=0.005


Tree=4
num_leaves=32
num_cat=0
split_feature=5 348 215 138 238 10 91 287 565 61 462 485 481 84 32 455 121 292 416 207 217 61 85 381 304 324 21 260 11 421 481
split_gain=8800.76 976.19 916.152 305.694 204.224 308.42 145.429 141.727 125.299 111.154 84.2293 75.6073 61.3867 53.7244 54.0905 51.6249 48.75 48.0452 54.4833 47.592 42.0369 45.1284 55.4264 40.1585 56.1711 39.8974 39.1806 37.2623 36.3132 34.8151 33.6586
threshold=103.09985351562501 134.69995117187503 140.89990234375003 130.25643212425743 0.27772192656993872 17.107499122619632 0.56943726920970383 0.86717432737350475 110.09985351562501 132.09985351562503 0.92912456393241893 0.00085195002611726533 162.99975585937503 0.78804945945739757 0.00021604606784198191 0.22547988593578341 0.0007945690995087545 86.699951171875014 5.9474997520446786 0.0013629980385303499 0.37153831124305731 180.50000000000003 0.16180503368377688 25.322499275207523 29.417499542236332 0.0017565499874763193 0.57221460342407238 0.10914754867553712 2.6997178792953495e-05 0.1671174764633179 110.89990234375001
decision_type=10 10 8 10 8 10 8 8 8 10 8 8 8 8 10 8 8 8 8 8 10 10 10 10 8 10 10 10 8 8 10
left_child=1 3 6 4 -1 9 10 11 27 17 26 -4 -3 14 -13 -10 -9 18 -6 -5 -8 22 25 -17 -25 -22 28 -7 30 -24 -2
right_child=2 12 7 19 5 8 20 16 15 -11 -12 13 -14 -15 -16 23 -18 -19 -20 -21 21 -23 29 24 -26 -27 -28 -29 -30 -31 -32
leaf_value=0.0057768000846552996 -0.0083922890843386184 -0.0063625748089294748 0.002022642208301082 -0.0024956994431093314 -0.012742505633860115 0.0050015661553817889 0.0013739057665684128 -0.0062475067804068267 0.0058155691184732794 -0.016068376237115677 -0.018249302156340984 -0.014726108791115577 -0.02166467943309144 -0.019736396064463698 0.0022587069046992011 -0.017056910787515089 -0.022614411773548851 0.0043684016148008552 0.0016365571868498506 -0.021516660709599799 -0.017396398766143743 -0.021499063955328079 -0.0093611235501779421 0.00013860230971796824 -0.016320039898249265 -0.0044034812817522334 -0.0077296631835436407 -0.0086259927776631672 0.0046735831059074827 0.0059488544885881846 0.005954488149839076
leaf_weight=461.93264366686344 14.023034602403646 8.0765210390090925 5.2611941248178473 4.5472662746906281 8.6416383534669858 18.555804282426838 4.5309186726808539 4.8431142568588248 3.6391052007675162 7.3273508101701728 8.3592515736818296 25.505266979336742 43.500960052013397 67.365829452872276 5.5749243646860114 30.910181283950806 727.33799280226231 261.51906451582909 27.476711958646774 14.054761558771135 33.084422022104263 16.301983833312988 10.481143161654471 10.44620369374752 9.9883542358875275 7.6139284670352927 17.636158421635628 6.8606434166431418 28.011468201875683 5.6555717438459423 5.6724957525730124
leaf_count=2958 57 35 30 22 30 116 25 21 23 20 20 76 78 143 32 80 1190 1611 157 26 84 31 40 57 27 35 73 28 173 36 36
internal_value=0 0.366318 -3.93537 0.618377 0.706723 0.168168 -1.66832 -4.34556 -1.57338 0.628291 -0.656333 -3.2407 -3.85952 -3.43855 -2.32625 -2.42301 -4.50164 0.723882 -0.352446 -3.38952 -2.62477 -2.8085 -2.37547 -2.68302 -1.56659 -3.0005 -0.268785 0.252814 0.197059 -0.78047 -0.836825
internal_weight=0 917.477 987.259 865.9 847.298 385.365 151.37 835.888 80.4003 304.965 73.7024 103.707 51.5775 98.446 31.0802 54.9838 732.181 297.637 36.1184 18.602 77.668 73.137 56.8351 51.3447 20.4346 40.6984 65.3432 25.4164 47.707 16.1367 19.6955
internal_count=7370 5268 2102 5155 5107 2149 610 1492 331 1818 359 281 113 251 108 187 1211 1798 187 48 251 226 195 164 84 119 339 144 266 76 93
shrinkage=0.005


Tree=5
num_leaves=32
num_cat=0
split_feature=0 348 215 138 238 10 560 91 285 105 56 441 121 256 387 282 411 165 15 211 455 271 7 70 15 51 304 388 145 357 232
split_gain=8469.61 1094.07 909.906 329.133 180.418 239.084 162.614 138.624 130.853 105.083 81.8716 72.5967 60.8549 58.8467 63.3995 56.111 53.8543 51.2601 50.1577 47.4342 46.9153 43.7946 43.3494 61.2106 52.1574 44.17 39.3692 50.2175 38.0605 37.3042 34.3905
threshold=0.4213464111089707 133.69995117187503 140.89990234375003 130.25643212425743 0.25044389069080358 19.372499465942386 0.51925048232078563 0.56500202417373668 177.89990234375003 0.72389051318168651 0.69944575428962719 0.96002259850502025 0.00079760001972317706 5.5861217087818417e-05 0.0012691000010818245 0.0015729499864391985 171.50000000000003 9.4998627901077284e-05 0.20847533611213204 0.071874976158142104 0.22547988593578341 111.69995117187501 0.98280140757560741 0.59118232131004345 0.16688890638714857 0.0014519999967888 24.447499275207523 29.472498893737797 109.29980468750001 0.57492282986640941 0.10744750499725343
decision_type=10 10 8 10 8 10 8 8 8 10 10 10 8 10 10 10 8 8 10 10 8 10 10 10 8 8 10 8 10 10 8
left_child=1 3 7 4 -1 10 -7 13 9 11 18 17 -10 14 -2 -16 19 -4 29 -3 -8 -5 23 28 25 -25 -22 -28 -9 30 -6
right_child=2 16 8 21 5 6 20 22 12 -11 -12 -13 -14 -15 15 -17 -18 -19 -20 -21 26 -23 -24 24 -26 -27 27 -29 -30 -31 -32
leaf_value=0.0058885066917253757 0.00081136190272588843 0.0058338686048098167 -0.0099986790204986756 -0.020329766895425368 0 0.0035999318291301662 0.0057644083598901424 -0.0022011348649165589 -0.0065045272293039512 -0.019205232493464383 -0.013552789780030963 -0.019328147736781154 -0.022395804713820976 0.0017190714798095792 -0.018241296884154254 -0.0036819876994729477 -0.021394475683092964 0.0060977401906602956 -0.010861232982424871 -0.015788015193191524 -0.017992953752432459 -0.0024135882881470548 -0.018160627567058742 -0.016812865384589322 0.0060016349027616957 -0.0017249310775395289 -0.0018359423240979029 -0.017171321789073574 -0.018224403418342149 -0.0095482508745299999 0.004674593258786581
leaf_weight=437.8637560904026 15.549763426184652 3.5317049324512473 11.317398861050608 16.219376385211948 46.749297216534615 24.480566442012787 3.3066767156124106 4.7056824415922192 6.3562839776277533 108.30532719194889 7.2076697647571555 10.409781426191328 695.48547586798668 32.510323971509933 15.108969792723657 12.349754318594931 47.6079041659832 8.708268418908121 5.9576525539159766 8.3531837761402112 23.734127297997475 4.5810999274253836 26.104134991765022 9.7656272649765032 7.7811747193336513 10.17199821770191 12.620863676071167 9.6150978207588196 22.672544062137604 5.1438509225845328 260.63790340721607
leaf_count=2823 86 22 41 32 256 148 21 23 27 229 22 22 1106 185 37 59 84 54 22 23 56 22 61 25 50 51 64 24 53 20 1622
internal_value=0 0.348292 -3.86128 0.636114 0.734034 0.246954 -1.37785 -1.6459 -4.27396 -3.37722 0.615829 -1.71681 -4.4508 -0.664933 -1.43443 -2.34955 -3.79818 -0.584832 0.69205 -1.84733 -2.42614 -3.2912 -2.55453 -2.03853 -0.974316 -1.83807 -2.69011 -1.70692 -3.10503 0.74761 0.793053
internal_weight=0 917.611 997.303 858.118 837.317 399.454 73.7573 156.72 840.583 138.741 325.696 30.4354 701.842 75.5188 43.0085 27.4587 59.4928 20.0257 318.489 11.8849 49.2768 20.8005 81.2012 55.097 27.7188 19.9376 45.9701 22.236 27.3782 312.531 307.387
internal_count=7370 5261 2109 5132 5078 2255 313 630 1479 346 1942 117 1133 367 182 96 129 95 1920 45 165 54 263 202 126 76 144 88 76 1898 1878
shrinkage=0.005


Tree=6
num_leaves=32
num_cat=0
split_feature=5 348 215 138 238 10 91 287 565 61 462 485 481 84 313 462 455 292 416 121 207 217 7 70 64 443 21 381 304 18 187
split_gain=8361.01 941.401 848.907 296.092 202.758 301.174 138.59 130.832 120.213 108.272 81.4114 72.2287 57.3267 50.4258 51.8904 52.8298 49.5277 47.6596 53.4285 45.1264 45.0562 40.6009 48.4717 59.0666 50.6922 53.2822 38.4475 37.9235 53.715 36.6864 32.0765
threshold=103.09985351562501 134.69995117187503 140.89990234375003 130.25643212425743 0.27772192656993872 17.107499122619632 0.56943726920970383 0.86717432737350475 110.09985351562501 132.09985351562503 0.92912456393241893 0.00085195002611726533 162.99975585937503 0.78804945945739757 179.50000000000003 0.90958154201507579 0.22547988593578341 86.699951171875014 5.9474997520446786 0.0007945690995087545 0.0013629980385303499 0.37153831124305731 1.0252577662467959 0.59118232131004345 0.16014754772186282 0.0016524500097148123 0.57221460342407238 25.322499275207523 29.417499542236332 1.8621420873602571e-05 196.49975585937503
decision_type=10 10 8 10 8 10 8 8 8 10 8 8 8 8 10 10 8 8 8 8 8 10 10 10 8 10 10 10 8 8 8
left_child=1 3 6 4 -1 9 10 11 -7 17 26 -4 -3 14 15 -13 -10 18 -6 -9 -5 -8 23 -23 25 -25 29 -18 -29 -2 -21
right_child=2 12 7 20 5 8 21 19 16 -11 -12 13 -14 -15 -16 -17 27 -19 -20 30 -22 22 -24 24 -26 -27 -28 28 -30 -31 -32
leaf_value=0.0057604911403167872 -0.0050571152713055553 -0.0062245642606871534 0.0020519938781770634 -0.0024100301050030883 -0.012574894644234337 0.0012507421809346997 0.0014136905974633191 -0.0061254698125018997 0.0057987435841862457 -0.015682882643470949 -0.017818950886755617 0.00065957085785186209 -0.020936290153100955 -0.019107473796731295 -0.019647581067409717 -0.015810976830845491 -0.016583596490001552 0.0043492311276254461 0.0016240827684667735 -0.019321974413864462 -0.020820652719187246 -0.016567758687670818 -0.020032007522953661 -0.014969001298791161 0.0059792377689172997 0.0025450675125839963 -0.0076177428627458143 0.00014933332380953461 -0.015861510136602995 0.0041806916687637157 -0.022288477119030477
leaf_weight=458.67473582923412 16.317323803901676 8.1528415381908399 5.2856302857398978 4.5831373780965805 8.7111720740795118 25.366385132074356 4.5561756938695899 4.8839849084615699 3.613903582096099 7.4439851492643347 8.4955959916114789 11.373136118054395 44.569794818758965 68.892036855220795 11.865050062537192 8.3306724280118924 31.491898745298386 260.18392091989517 27.423822283744812 117.28429737687111 14.386766240000727 25.197025954723358 21.872432693839073 14.491741746664049 6.7153436243534115 6.0236074477434149 17.759419396519661 10.460030987858772 10.176007851958275 31.433179214596745 628.85946942865849
leaf_count=2958 74 35 30 22 30 144 25 21 23 20 20 62 78 143 24 22 80 1611 157 233 26 64 43 41 43 35 73 57 27 192 957
internal_value=0 0.36355 -3.80952 0.614608 0.70278 0.166519 -1.63531 -4.19708 -1.54463 0.624404 -0.646642 -3.14496 -3.73795 -3.335 -2.26384 -1.24559 -2.36676 0.719898 -0.351479 -4.34482 -3.29034 -2.55936 -2.73768 -2.20266 -1.16371 -1.9507 -0.263755 -2.617 -1.53464 0.198506 -4.36484
internal_weight=0 915.238 1009.64 862.516 843.546 384.871 152.862 856.774 81.1082 303.763 74.0055 105.747 52.7226 100.461 31.5689 19.7038 55.7418 296.319 36.135 751.028 18.9699 78.8563 74.3002 52.4277 27.2307 20.5153 65.5099 52.1279 20.636 47.7505 746.144
internal_count=7370 5268 2102 5155 5107 2149 610 1492 331 1818 359 281 113 251 108 84 187 1798 187 1211 48 251 226 183 119 76 339 164 84 266 1190
shrinkage=0.005


Tree=7
num_leaves=32
num_cat=0
split_feature=5 348 215 138 238 10 371 287 61 502 147 287 485 481 381 67 84 32 381 416 292 409 207 121 54 421 260 443 71 490 89
split_gain=8154.74 924.812 818.026 291.533 201.984 297.517 134.717 125.37 106.643 103.718 81.3601 75.6238 70.2993 55.2728 53.9045 48.7862 48.5643 50.7069 47.4424 52.5554 47.3625 52.5001 43.5743 43.4052 38.8437 45.2902 35.6361 33.0422 32.6022 32.4556 31.2772
threshold=103.09985351562501 134.69995117187503 140.89990234375003 130.25643212425743 0.27772192656993872 17.107499122619632 0.6338297724723817 0.86717432737350475 132.09985351562503 112.09985351562501 0.50555074214935314 0.44350035488605505 0.00085195002611726533 162.99975585937503 30.054999351501468 0.00010899826884269716 0.78804945945739757 0.00021604606784198191 25.322499275207523 29.929999351501468 86.699951171875014 6.112499713897706 0.0013629980385303499 0.0007945690995087545 132.58478474687516 0.15496253967285159 0.10914754867553712 0.0011921499972231688 0.1149275302886963 0.47828769683837896 102.29980468750001
decision_type=10 10 8 10 8 10 10 8 10 8 10 10 8 8 8 10 8 10 10 8 8 8 8 8 10 8 10 8 8 10 8
left_child=1 3 6 4 -1 8 10 12 20 26 14 28 -4 -3 30 24 17 -14 -11 -20 21 -6 -5 -9 25 29 -7 -8 -12 -13 -2
right_child=2 13 7 22 5 9 27 23 -10 18 11 15 16 -15 -16 -17 -18 -19 19 -21 -22 -23 -24 -25 -26 -27 -28 -29 -30 -31 -32
leaf_value=0.0057523090586030293 -0.0029455334474696847 -0.0061704594123243783 0.0020442626896907353 -0.0023945512380111164 -0.012418864279373767 0.0049007066630070394 -0.0042399135898102801 -0.0060725479546439726 -0.015462912047078151 -0.0151784854682463 -0.0031375912574298261 -0.0027068807898634208 -0.014117431705938764 -0.020586651531429717 -0.013402426660130709 0.0042011149587365317 -0.018806094181646624 0.0022714145853642309 -0.00030679980007293327 -0.016037939507387348 0.0043391690588302266 0.0016177527218972565 -0.02047224060885167 -0.021450228392675658 0.0058382798024143511 0.0057265911286639385 -0.0085469794620551317 -0.017526456792877027 -0.018910026239499524 -0.018958627113506647 0.005290665864300468
leaf_weight=457.03460937738419 22.357887357473373 8.1831306964158994 5.2791080772876731 4.5896837413311005 8.7768310606479627 17.229400113224987 5.7462655603885642 4.9018705487251273 7.5119589865207663 33.52539949119091 4.2333773076534271 4.42833741009236 26.189263701438907 45.098776578903198 7.2565665543079367 10.851216003298758 69.644184589385986 5.5856038480997077 15.585473373532293 8.2382092177867907 259.48506031930447 27.397248715162277 14.558017313480379 755.3331715464592 3.8028443902730933 3.128465190529826 6.8928706496953955 36.291116267442703 19.586870998144153 12.188301607966421 23.711177840828896
leaf_count=2958 110 35 30 22 30 108 26 21 20 91 20 21 76 78 22 65 143 32 83 21 1611 157 26 1190 24 20 28 86 43 26 147
internal_value=0 0.362194 -3.74995 0.612749 0.700833 0.1658 -1.61947 -4.12703 0.622498 -1.52998 -1.04028 -1.85858 -3.10124 -3.68015 -0.141259 -0.897439 -3.2869 -2.23786 -2.26253 -1.16192 0.717903 -0.34929 -3.24348 -4.27061 -1.71092 -2.28051 0.199177 -3.14919 -3.23398 -2.94356 0.252195
internal_weight=0 914.107 1020.52 860.825 841.677 384.642 153.582 866.933 303.171 81.4714 111.545 58.2194 106.698 53.2819 53.3256 34.3992 101.419 31.7749 57.3491 23.8237 295.659 36.1741 19.1477 760.235 23.5479 19.7451 24.1223 42.0374 23.8202 16.6166 46.0691
internal_count=7370 5268 2102 5155 5107 2149 610 1492 1818 331 498 219 281 113 279 156 251 108 195 104 1798 187 48 1211 91 67 136 112 63 47 257
shrinkage=0.005


Tree=8
num_leaves=32
num_cat=0
split_feature=5 348 215 138 238 10 91 285 565 61 105 462 441 455 292 416 121 165 411 207 511 217 61 85 331 21 260 381 325 11 421
split_gain=7956.58 908.747 788.896 287.102 201.217 293.95 132.368 120.865 115.579 105.057 102.218 78.1187 70.9226 48.0012 47.0672 51.5936 47.0157 46.2892 43.2872 42.1678 42.1325 39.1193 41.0111 50.6657 39.0955 37.6297 36.4131 35.5708 51.953 35.2609 33.0491
threshold=103.09985351562501 134.69995117187503 140.89990234375003 130.25643212425743 0.27772192656993872 17.107499122619632 0.56943726920970383 177.89990234375003 110.09985351562501 132.09985351562503 0.72389051318168651 0.92912456393241893 0.96002259850502025 0.22547988593578341 86.699951171875014 5.9474997520446786 0.00079760001972317706 9.4998627901077284e-05 171.50000000000003 0.0013629980385303499 0.48138116300106054 0.37153831124305731 180.50000000000003 0.16180503368377688 0.0017604000167921188 0.57221460342407238 0.10914754867553712 25.322499275207523 27.792499542236332 2.6997178792953495e-05 0.1671174764633179
decision_type=10 10 8 10 8 10 8 8 8 10 10 8 10 8 8 8 8 8 8 8 10 10 10 10 10 10 10 10 10 8 8
left_child=1 3 6 4 -1 9 11 10 26 14 12 25 17 -10 15 -6 -9 -4 20 -5 -3 -8 23 24 -23 29 -7 -15 -29 -2 -25
right_child=2 18 7 19 5 8 21 16 13 -11 -12 -13 -14 27 -16 -17 -18 -19 -20 -21 -22 22 -24 30 -26 -27 -28 28 -30 -31 -32
leaf_value=0.0057441677971205116 -0.0040568140818038638 0.0058264076319250865 -0.0089576473987590683 -0.0023791978131699611 -0.012266255109776244 0.0049772496762614813 0.001436657314784114 -0.0079901967348799448 0.0057997983950638385 -0.015249203942169966 -0.018307155560819278 -0.017327240890109809 -0.018485901335830574 -0.016128095057392686 0.0043291287713247955 0.0016114157215981093 -0.021252285996965353 0.006113824848349653 -0.020392982274537164 -0.020136559141477932 -0.015465848269151868 -0.016565996819392297 -0.020319815979749193 -0.0089250545347044248 -0.0039530505454518656 -0.0075013826944419163 -0.0084602289729595083 0.0059386369388184836 -0.012149680788205075 0.0046551706842161552 0.0059439775728982285
leaf_weight=455.39807868003845 19.896491244435314 3.2524868249893171 12.051394596695902 4.5961887240409851 8.841842442750929 18.411940917372707 4.5710427761077872 7.1265813559293738 3.6147439777851096 7.5789783746004096 111.88779340684414 8.6561148613691312 10.731410503387449 32.06938111782074 258.78819686174393 27.370668217539787 726.35785640776157 8.7564610391855258 43.069116875529289 14.726271957159044 7.5099191516637802 34.158535987138748 16.964983716607094 10.741770729422567 7.9171842932701102 17.888836711645126 6.9286412745714179 5.2154036462307003 15.586629197001455 27.861915990710255 5.6379885822534588
leaf_count=2958 93 20 44 22 30 116 25 28 23 20 229 20 22 80 1611 157 1115 54 73 26 20 83 31 40 36 73 28 33 51 173 36
internal_value=0 0.360844 -3.69242 0.610896 0.69889 0.165072 -1.60391 -4.05955 -1.51572 0.620599 -3.21089 -0.637096 -1.60306 -2.31261 0.715915 -0.347122 -4.2251 -0.508622 -3.62429 -3.19806 -1.77836 -2.49823 -2.67103 -2.26164 -2.84567 -0.259586 0.248794 -2.5557 -1.50851 0.198858 -0.743098
internal_weight=0 912.958 1031.21 859.127 839.805 384.406 154.295 876.911 81.8267 302.58 143.427 74.3034 31.5393 56.4862 295.001 36.2125 733.484 20.8079 53.8315 19.3225 10.7624 79.9915 75.4205 58.4555 42.0757 65.6472 25.3406 52.8714 20.802 47.7584 16.3798
internal_count=7370 5268 2102 5155 5107 2149 610 1492 331 1818 349 359 120 187 1798 187 1143 98 113 48 40 251 226 195 119 339 144 164 84 266 76
shrinkage=0.005


Tree=9
num_leaves=32
num_cat=0
split_feature=5 348 215 138 238 10 91 357 565 61 462 7 348 481 455 292 416 207 436 217 7 70 15 443 21 121 260 18 381 325 481
split_gain=7766.23 893.152 761.364 282.793 200.447 290.424 129.282 116.001 113.253 103.512 76.3767 66.181 77.2415 51.8852 47.0294 46.7737 50.701 40.8317 39.7592 38.2123 44.8813 55.8453 54.3038 39.4895 37.0799 36.8611 36.0037 35.8678 34.479 51.0273 31.0474
threshold=103.09985351562501 134.69995117187503 140.89990234375003 130.25643212425743 0.27772192656993872 17.107499122619632 0.56943726920970383 0.85234604561502503 110.09985351562501 132.09985351562503 0.92912456393241893 1.4245668053627016 113.72483296169214 162.99975585937503 0.22547988593578341 86.699951171875014 5.9474997520446786 0.0013629980385303499 0.00084749999223276984 0.37153831124305731 1.0252577662467959 0.59118232131004345 0.16688890638714857 0.0016524500097148123 0.57221460342407238 0.0007945690995087545 0.10914754867553712 1.8621420873602571e-05 25.322499275207523 27.792499542236332 110.89990234375001
decision_type=10 10 8 10 8 10 8 8 8 10 8 8 10 8 8 8 8 8 8 10 10 10 8 10 10 8 10 8 10 10 10
left_child=1 3 6 4 -1 9 10 11 26 15 24 12 -4 -3 -10 16 -6 -5 -14 -8 21 -21 23 -23 27 -9 -7 30 -16 -30 -2
right_child=2 13 7 17 5 8 19 25 14 -11 -12 -13 18 -15 28 -17 -18 -19 -20 20 -22 22 -24 -25 -26 -27 -28 -29 29 -31 -32
leaf_value=0.0057360665296748818 -0.0092902103434807023 -0.0060354861747068545 0.0060537979361886332 -0.0023639687296749755 -0.012115813560688953 0.0049676745373858511 0.0014306923273551967 -0.0076871118571130229 0.0057913045293477858 -0.015041487621020262 -0.017071548413231389 -0.019978135441570597 0.00095996808785803222 -0.019934372529294638 -0.015901275603637917 0.0043191099572353221 0.0016049506508363121 -0.019812920100600047 -0.014669365783598086 -0.015952084448832372 -0.019199284053113799 -0.013891773473799805 0.0059850551238616444 0.0019271822225202606 -0.0074306894654904108 -0.020771074574792155 -0.0083749924056008961 0.0041623809813882209 0.0059303403195822765 -0.012003476717901638 0.0059017980417829874
leaf_weight=453.76514458656311 11.849134474992757 8.259141877293585 5.3077892214059821 4.6026525646448135 8.9067088812589628 18.355333864688877 4.5671603977680197 5.8035812526941291 3.6019772887229911 7.6450551301240912 8.741617798805235 45.283778965473175 4.1861280947923651 46.113899782299995 32.363447189331055 258.09329180419445 27.343585386872292 14.891567319631578 59.710503071546555 25.824388071894646 22.52192048728466 15.217914149165155 7.2963390201330212 5.1304062008857718 17.968529313802719 766.41698969900608 6.9640725553035727 31.287044286727902 5.1966335326433208 15.697313353419302 4.5908814072608939
leaf_count=2958 45 35 32 22 30 116 25 23 23 20 20 78 23 78 80 1611 157 26 157 64 43 43 47 29 73 1179 28 192 33 51 29
internal_value=0 0.359511 -3.63684 0.609057 0.696962 0.16436 -1.58867 -3.99452 -1.50162 0.618708 -0.632773 -3.04477 -2.41824 -3.57015 -2.28587 0.713932 -0.344973 -3.15402 -2.72439 -2.46821 -2.6377 -2.12572 -1.12027 -1.96593 -0.258089 -4.13494 0.247709 0.197968 -2.52444 -1.49426 -0.991319
internal_weight=0 911.8 1041.7 857.427 837.933 384.167 154.995 886.709 82.1788 301.989 74.4372 114.488 69.2044 54.373 56.8594 294.344 36.2503 19.4942 63.8966 80.5581 75.991 53.469 27.6447 20.3483 65.6956 772.221 25.3194 47.7271 53.2574 20.8939 16.44
internal_count=7370 5268 2102 5155 5107 2149 610 1492 331 1818 359 290 212 113 187 1798 187 48 180 251 226 183 119 72 339 1202 144 266 164 84 74
shrinkage=0.005


Tree=10
num_leaves=32
num_cat=0
split_feature=5 348 215 138 238 10 565 371 285 105 56 63 380 441 331 256 481 232 549 455 165 19 121 207 428 138 232 381 325 117 533
split_gain=7583.16 878.063 735.331 278.602 199.69 249.74 157.534 126.163 113.013 96.9959 79.5971 77.0135 68.9473 68.003 66.247 55.197 50.138 46.4789 61.6475 45.6303 45.249 44.2108 43.5999 39.5613 39.379 38.6736 37.876 36.7785 53.4344 35.9406 35.8915
threshold=103.09985351562501 134.69995117187503 140.89990234375003 130.25643212425743 0.25044389069080358 17.107499122619632 110.50000000000001 0.6338297724723817 177.89990234375003 0.72389051318168651 0.72605749964714061 2.2476111650466923 0.0016143500688485803 0.96002259850502025 0.0012707000132650139 5.5861217087818417e-05 162.99975585937503 0.10744750499725343 5.8125000000000009 0.22547988593578341 9.4998627901077284e-05 165.69995117187503 0.00079760001972317706 0.0013629980385303499 0.076094667776783143 116.89990234375001 0.083362577661605028 25.322499275207523 27.792499542236332 71.069949541829104 0.22355747222900393
decision_type=10 10 8 10 8 10 8 10 8 10 10 8 10 10 10 10 8 8 8 8 8 10 8 8 8 10 10 10 10 10 10
left_child=1 3 7 4 -1 10 -7 11 9 13 17 12 14 20 21 -16 -3 18 26 -8 -4 -2 -10 -5 -14 -17 -6 -21 -29 -20 -19
right_child=2 16 8 23 5 6 19 -9 22 -11 -12 -13 24 -15 15 25 -18 30 29 27 -22 -23 -24 -25 -26 -27 -28 28 -30 -31 -32
leaf_value=0.0058499603698866634 0.0024339709935856883 -0.0059839589960585986 -0.0087282183159879088 -0.0023488627878543297 0.00086652524529127659 0.0023907137147366744 0.0057828543476277569 -0.015169889231273727 -0.0078411534526354413 -0.017757044283068825 -0.013202957329145929 -0.016877171588116843 0.0061497957176870786 -0.017929715929813232 -0.015762408571591342 0.0059905316510293133 -0.019620825326049147 0.0045485923649042064 -0.009883308322706074 -0.01566939150090868 0.0061211828610250102 -0.012358395558850654 -0.020569234369133767 -0.019500685280893122 -0.0048429988203120842 -0.010972341905439996 -0.017574530888994033 0.0059417493758742151 -0.011860615805372836 0.0046062007180071567 -0.0080799687429141172
leaf_weight=430.19895942509174 22.185548663139347 8.2885345518589002 12.208930835127832 4.6090756952762604 4.1324628144502622 33.075704738497734 3.5892363637685767 43.04554671049118 7.1912399083375922 114.17944373190403 7.3040768504142752 12.368291363120077 22.024149045348167 10.952968403697012 23.273535877466202 6.3191342502832395 46.615287765860558 257.01481401920319 5.0486322641372672 33.614904835820198 8.7816720008850115 6.5385639965534201 743.01573310792446 15.053941100835802 12.851887404918669 7.0774842947721481 7.7386790066957474 5.6372696459293392 15.806678980588911 27.212831184267998 5.6846317350864402
leaf_count=2824 128 35 44 22 23 195 23 112 28 229 21 29 140 22 60 40 78 1617 20 83 54 20 1115 26 57 24 20 36 51 170 24
internal_value=0 0.358187 -3.58309 0.60723 0.695044 0.190874 -1.26004 -1.57369 -3.93177 -3.11817 0.615476 -1.01297 -0.718565 -1.5602 -1.32567 -2.21787 -3.51789 0.693964 -0.251389 -2.24543 -0.488866 -0.176209 -4.08985 -3.11131 0.411184 -0.57181 -2.20573 -2.47265 -1.42214 0.458445 0.853922
internal_weight=0 910.626 1052.01 855.722 836.059 405.86 91.7238 155.684 896.33 146.123 314.136 112.639 100.27 31.9436 65.3943 36.6702 54.9038 306.832 44.1326 58.6481 20.9906 28.7241 750.207 19.663 34.876 13.3966 11.8711 55.0589 21.4439 32.2615 262.699
internal_count=7370 5268 2102 5155 5107 2283 388 610 1492 349 1895 498 469 120 272 124 113 1874 233 193 98 148 1143 48 197 64 43 170 87 190 1641
shrinkage=0.005


Tree=11
num_leaves=32
num_cat=0
split_feature=5 343 215 238 3 61 91 458 285 105 411 378 441 381 68 533 488 165 445 121 490 217 7 70 15 443 232 556 359 554 71
split_gain=7407.03 835.63 710.763 271.775 393.048 135.514 124.081 111.166 108.659 93.8809 78.7468 74.547 66.2821 62.6402 50.189 49.4108 46.1469 44.6702 43.0449 42.0408 38.1591 36.8286 42.474 53.9103 52.9414 38.0946 36.3522 48.8923 34.1958 29.9498 28.0669
threshold=103.09985351562501 0.55937123298645031 140.89990234375003 0.27772192656993872 19.082499504089359 132.09985351562503 0.56943726920970383 30.739999771118168 177.89990234375003 0.72389051318168651 155.49975585937503 0.56265097856521618 0.96002259850502025 25.322499275207523 116.29980468750001 0.22355747222900393 95.899902343750014 9.4998627901077284e-05 4.8140123106495087e-05 0.00079760001972317706 0.53322461247444164 0.37153831124305731 1.0252577662467959 0.59118232131004345 0.16688890638714857 0.0016524500097148123 0.10744750499725343 5.8299999237060556 0.0017835000762715938 0.15415489673614505 0.10885360257902053
decision_type=10 10 8 8 10 10 8 8 8 10 8 8 10 10 10 10 10 8 10 8 10 10 10 10 8 10 8 10 8 8 10
left_child=1 3 6 -1 5 14 11 13 9 12 29 20 17 28 15 26 -15 30 -13 -10 -2 -8 23 -23 25 -25 27 -5 -6 -3 -4
right_child=2 10 8 4 7 -7 21 -9 19 -11 -12 18 -14 16 -16 -17 -18 -19 -20 -21 -22 22 -24 24 -26 -27 -28 -29 -30 -31 -32
leaf_value=0.005720358809236251 0.0025865940407552557 -0.011110140541287514 0.0012566623358782735 -0.0090523902645628165 0.0012124345911136353 -0.014963966064118315 0.0014436512823503165 -0.017650316667144953 -0.0077663257358115672 -0.017499037519897984 -0.018889982884738248 -0.014817851986876374 -0.017665912993463352 0.0033156850785637381 -0.011292815390198314 -0.010526621878340034 -0.010370405845406225 0.0061126937293400621 -0.0016089245663122003 -0.020243249487589782 -0.0095407694758947968 -0.015588740973259935 -0.01867771184244741 -0.013550151277580635 0.0059844639288083338 0.0019421219270032695 0.0045211446025855279 0.0030642873898672558 -0.013772970991750975 0.0059405275298464576 -0.014279026820439496
leaf_weight=450.57479679584503 40.187889441847801 5.8444429188966733 4.3555998504161852 12.048001840710638 4.4263934195041683 10.559998318552969 4.5752433389425269 28.214676335453987 7.2241407036781302 115.28080064058304 49.554374888539314 16.509883061051372 11.060671567916868 21.819937691092495 5.7889810204505912 6.0808014273643485 8.5910846143960935 8.7499777376651746 10.318754300475119 751.18508945405483 7.7412677407264701 26.206409707665443 22.945159673690796 15.449780464172365 7.2931373566389111 5.1417898237705222 253.00578926503658 26.98429137468338 21.433094456791878 4.5137365609407425 7.9138164669275284
leaf_count=2958 233 20 23 47 25 27 25 58 28 229 87 45 22 129 20 23 31 54 52 1115 29 64 43 43 47 29 1593 162 60 28 21
internal_value=0 0.356873 -3.5311 0.611745 0.00978706 0.525075 -1.55894 -1.90465 -3.87124 -3.07645 -3.25207 -0.622413 -1.54575 -1.08432 0.648299 0.705752 -0.10026 -0.485667 -1.95868 -4.02528 0.11931 -2.41314 -2.5775 -2.08071 -1.09533 -1.92177 0.765311 -0.127462 -2.22998 -0.707047 -1.72833
internal_weight=0 909.44 1062.14 849.528 398.953 314.468 156.369 84.4852 905.77 147.361 59.9126 74.7578 32.0801 56.2705 303.908 298.119 30.411 21.0194 26.8286 758.409 47.9292 81.6115 77.0363 54.0911 27.8847 20.5916 292.038 39.0323 25.8595 10.3582 12.2694
internal_count=7370 5268 2102 5133 2175 1872 610 303 1492 349 135 359 120 245 1845 1825 160 98 97 1143 262 251 226 183 119 72 1802 209 85 48 44
shrinkage=0.005


Tree=12
num_leaves=32
num_cat=0
split_feature=5 348 147 238 3 462 61 458 21 82 488 351 381 29 245 8 376 14 68 292 409 462 18 474 511 131 357 359 0 98 396
split_gain=7237.54 849.312 687.641 275.59 375.666 175.599 142.262 112.065 108.105 84.4244 75.2049 60.2987 59.1454 57.0731 56.7088 50.8023 46.4956 43.4843 52.1935 42.2293 54.0123 44.453 42.0251 38.6259 37.2441 36.6712 36.497 35.6482 31.4485 30.8022 28.7986
threshold=103.09985351562501 134.69995117187503 0.73759004473686229 0.27772192656993872 19.082499504089359 0.84443503618240368 132.09985351562503 30.739999771118168 0.55073609948158275 185.09985351562503 138.09985351562503 0.16489719947746415 25.322499275207523 0.031117558479309086 0.28361044076640779 0.2123374938964844 109.29980468750001 0.79887181520462047 161.29980468750003 85.699951171875014 6.112499713897706 0.39348861575126654 1.8621420873602571e-05 155.09985351562503 0.62397545576095592 121.29980468750001 0.55867096781730663 0.0017835000762715938 0.47316958010196691 0.73171618580818187 4.1926029491609998e-05
decision_type=10 10 8 8 10 8 10 8 8 8 8 8 10 10 8 10 10 10 10 8 8 8 8 8 10 10 10 8 10 10 10
left_child=1 3 5 -1 6 8 15 12 22 10 17 13 27 -10 -15 19 -14 -4 -19 20 -5 -22 28 -3 30 26 -21 -6 -2 -12 -16
right_child=2 23 9 4 7 -7 -8 -9 11 -11 29 -13 16 14 24 -17 -18 18 -20 25 21 -23 -24 -25 -26 -27 -28 -29 -30 -31 -32
leaf_value=0.0057125112963914695 0.00591078471268793 -0.0055840254294910697 0.0028818721568491129 -0.012459152643671471 0.001377562868763885 -0.016566124337131213 -0.014598558647489764 -0.017530304748038586 0.0030094950584311866 -0.019937212391773828 -0.0097808034950888391 0.0060187102944747007 0.0026944574742135716 0.0058838398532288071 -0.018583054571544754 -0.011595853928877894 -0.012341659198371182 -0.016606034555699461 0 0.0046829833208702244 0.0051731339635716815 -0.0098258874623962742 0.0032084656369291325 -0.018653427127012141 -0.0047738663148690092 -0.008702261227666595 -0.0080728486043897593 -0.013795229325200642 -0.0091431549575313291 -0.018297795573243451 -0.010548134891441074
leaf_weight=449.1029247790575 4.3259838223457363 6.7929465919733039 6.3749627023935345 8.7262774556875211 4.5796918570995357 49.209487810730934 11.713864758610724 28.323767721652985 6.7953475117683402 731.06508587300777 12.577116474509237 5.8076676279306403 23.855050832033161 4.0094022452831286 28.011528342962265 5.7037036567926398 6.5606011748313895 16.047061890363697 6.545017182826995 254.00170215964317 21.970903635025028 6.3516149818897238 34.882903978228569 49.142105251550674 10.969970762729643 5.393409699201583 5.6654496341943732 20.368004977703094 15.934729322791098 118.84015938639641 20.67815925180912
leaf_count=2959 27 28 35 28 26 106 30 57 39 1082 39 36 139 25 55 20 21 35 31 1612 139 25 207 85 46 20 23 56 59 210 70
internal_value=0 0.355565 -3.4808 0.603605 0.00263225 -1.69848 0.49742 -1.88294 -1.09155 -3.8416 -3.17494 -1.86314 -1.04714 -2.12017 -2.41541 0.628434 -0.0998978 -1.69523 -2.34951 0.685077 -0.31026 0.351298 -0.0188712 -3.41861 -2.66185 0.825332 0.87978 -2.18996 -1.17097 -3.49882 -3.0403
internal_weight=0 908.252 1072.07 852.317 403.214 180.625 319.527 83.6871 131.416 891.449 160.384 76.2721 55.3633 70.4644 63.6691 307.813 30.4157 28.967 22.5921 302.109 37.0488 28.3225 55.1436 55.9351 59.6597 265.061 259.667 24.9477 20.2607 131.417 48.6897
internal_count=7370 5268 2102 5155 2196 670 1897 299 564 1432 350 271 242 235 196 1867 160 101 66 1847 192 164 293 113 171 1655 1635 82 86 249 125
shrinkage=0.005


Tree=13
num_leaves=32
num_cat=0
split_feature=0 348 285 138 91 238 87 497 61 121 70 376 297 388 15 17 193 269 56 481 161 271 528 562 240 110 518 497 396 557 455
split_gain=6989.42 954.388 683.434 293.378 200.739 175.582 218.426 123.012 89.0547 71.0792 65.5234 57.081 51.0002 55.4132 48.7422 46.8939 52.3832 52.9845 46.6781 41.4646 39.646 36.845 35.3465 40.7672 34.9711 34.8895 33.0204 34.1609 31.8986 55.1722 31.46
threshold=0.4213464111089707 133.69995117187503 153.59985351562503 130.25643212425743 0.58246690034866344 0.25044389069080358 20.102499961853031 0.51708249055381406 132.09985351562503 0.0007945690995087545 1.5619589090347292 80.500000000000014 24.942499160766605 29.602499008178714 0.20847533611213204 28.664999961853031 3.0409789819552584e-05 13.242499828338625 0.39003325998783117 162.99975585937503 0.40079858899116522 111.69995117187501 6.2874999046325692 0.00076940000872127723 0.001893425199640566 194.29980468750003 0.1588476970791817 0.55900883674621593 2.5749317926765345e-05 4.6794993527110381e-05 0.78472402691841137
decision_type=10 10 8 10 8 8 10 8 10 8 10 10 10 8 10 10 8 8 10 8 10 10 10 10 8 8 8 10 10 10 8
left_child=1 3 4 5 15 -1 8 -8 14 -4 11 -6 -9 -14 26 16 18 20 -2 24 -18 -5 -13 -24 -3 30 -7 -28 -25 -30 -11
right_child=2 19 9 21 10 6 7 12 -10 25 -12 22 13 -15 -16 -17 17 -19 -20 -21 -22 -23 23 28 -26 -27 27 -29 29 -31 -32
leaf_value=0.0058271356081968607 0.0034969780508728237 -0.013735252684891517 -0.0039560353636294704 -0.01816060585895719 4.8403460551849848e-05 -0.0083657116460666234 0.0032101344742468479 -0.016017088447898349 -0.013154304286802171 -0.011246251714659322 -0.019517001503723593 -0.018026095718031425 0.00037973704821773715 -0.015095489051446021 -0.010698457292488398 -0.01508734411488488 -0.012850291956258846 0.0061532700346200895 -0.010214313972251846 -0.018645023972131525 0.0018236480517368585 -0.00204681349343522 0.0058843054184228496 -0.015438683101087701 0.0058254816349113782 -0.019752524440845902 0.0041397109781692778 -0.0061369833162197018 0.0061322040259515634 -0.010789515064679425 -0.01797561226365069
leaf_weight=425.39151267707348 8.100801080465315 7.1136883199214909 7.8853014856576911 17.512593150138859 10.073395743966101 5.5674878805875769 21.432243824005127 25.663455635309219 8.3553940057754499 22.011161044239998 30.8599623888731 21.844038709998131 14.364296749234198 9.5133302211761492 6.0077775865793219 7.6273604631423941 8.5473106503486651 25.844240888953209 24.888847127556801 53.995070204138756 9.7058751881122571 4.7357770800590506 3.4502557665109626 30.114950969815254 3.2535739392042169 710.10939133167267 297.65934570133686 8.2215015292167646 5.4572402685880652 35.848673269152641 117.73519524931908
leaf_count=2823 48 20 35 32 51 23 130 59 23 64 49 42 78 23 22 20 27 165 88 89 55 22 21 72 20 1021 1861 36 32 112 207
internal_value=0 0.338295 -3.4247 0.621532 -1.85967 0.718803 0.239224 -1.34954 0.586234 -3.83007 -2.60595 -2.2282 -2.21718 -1.14462 0.671853 -0.643526 -0.404745 0.303379 -1.36039 -3.37307 -0.993091 -2.95961 -2.46439 -2.12754 -1.49036 -3.85792 0.72705 0.771718 -2.29138 -1.70351 -3.38528
internal_weight=0 908.787 1080.1 844.425 222.363 822.176 396.785 70.9733 325.812 857.741 137.649 106.789 49.5411 23.8776 317.456 84.7144 77.0871 44.0974 32.9896 64.3623 18.2532 22.2484 96.7152 74.8711 10.3673 849.856 311.448 305.881 71.4209 41.3059 139.746
internal_count=7370 5261 2109 5132 782 5078 2255 290 1965 1327 379 330 160 101 1942 403 383 247 136 129 82 54 279 237 40 1292 1920 1897 216 144 271
shrinkage=0.005


Tree=14
num_leaves=32
num_cat=0
split_feature=5 348 215 243 66 458 14 91 357 378 381 436 182 481 488 7 348 210 445 91 11 287 166 217 7 29 38 189 121 515 144
split_gain=6916.47 822.075 646.915 266.032 350.176 134.095 123.257 115.895 99.7136 71.9087 66.0363 59.9161 49.9125 45.0766 43.9681 42.5583 67.1918 41.2002 40.5603 38.7905 35.8298 41.718 58.9558 35.1164 39.1895 41.0173 33.6358 32.7449 31.5603 31.2441 30.2055
threshold=103.09985351562501 134.69995117187503 140.89990234375003 74.788828851232566 19.01249980926514 30.739999771118168 0.6472410559654237 0.56943726920970383 0.85234604561502503 0.56265097856521618 25.322499275207523 0.00084749999223276984 0.52299004793167125 162.99975585937503 95.899902343750014 1.4245668053627016 113.72483296169214 0.39460135996341711 4.8140123106495087e-05 0.43676464259624487 2.2996217012405399e-05 0.32867895066738134 84.117230177634312 0.37153831124305731 1.0252577662467959 0.19533753395080569 18.854999542236332 0.80160176753997814 0.0007945690995087545 3.2998621463775642e-05 0.00055299699306488048
decision_type=10 10 8 8 10 8 10 8 8 8 10 8 10 8 10 8 10 8 10 10 8 8 10 10 10 8 10 8 8 10 10
left_child=1 3 7 -1 6 10 12 9 11 -2 17 -4 20 -3 -12 16 -13 29 -11 -14 21 22 -5 -9 25 27 30 -25 -10 -6 -22
right_child=2 13 8 4 5 -7 -8 23 28 18 14 15 19 -15 -16 -17 -18 -19 -20 -21 26 -23 -24 24 -26 -27 -28 -29 -30 -31 -32
leaf_value=0.0057328956166890887 0.00061272514020399387 -0.0056989238632537166 0.0020813633679264611 0.0015033764640352632 0.0059316845086300075 -0.019320342034554044 -0.015410490533162168 0.0015018319598305626 -0.0072533818334316784 -0.014349155818318698 0.0034659411061679236 0.0060439552473431427 -0.012881456796200117 -0.018498604134998098 -0.0095676583989666858 -0.018646944069992923 -0.013678791186769955 -0.015712430398706449 -0.0015798116607724998 0.0058627958046057254 0.0044394669203306446 0.0046120540588556712 -0.017006247714225726 -0.013596526360657293 -0.017909747059692283 -0.00025093737460090489 -0.0081744509477362868 -0.00055000824577744109 -0.019229828671950458 -0.010946759872334259 -0.0065327405069902506
leaf_weight=434.68682189285755 48.018763944506645 8.4528779685497266 5.2522296309471121 9.1541943848133176 5.0476318746805173 23.101015374064445 9.3866433650255185 4.6123928129672995 5.9622958302497855 16.841495618224148 23.1010612398386 4.5378670692443839 8.5307954698801023 48.482419446110725 9.0109997987747175 47.415847793221474 62.291652217507362 16.699280217289928 10.346752405166624 3.9686569571495047 266.41011442244053 14.082051977515222 7.9248872846364966 40.103942275047302 23.591896310448647 9.2194173336029035 5.5603377074003211 5.7581368535757056 807.48457406461239 5.8895528465509415 6.3362260758876792
leaf_count=2888 262 35 29 53 32 37 23 25 23 45 138 27 27 78 33 77 157 39 52 25 1684 88 21 108 43 47 20 28 1179 20 27
internal_value=0 0.352968 -3.38478 0.599999 0.0256647 -1.81264 0.486209 -1.51355 -3.70235 -0.607882 -1.01447 -2.83918 0.591171 -3.32493 -0.028944 -2.99147 -2.46343 -2.14873 -1.90897 -1.36201 0.671029 -0.340573 -1.39949 -2.32777 -2.48567 -2.01067 0.785373 -2.39824 -3.82878 -0.604005 0.835814
internal_weight=0 905.826 1091.44 848.89 414.203 82.8495 331.354 158.493 932.944 75.207 59.7485 119.498 321.967 56.9353 32.1121 114.245 66.8295 27.6365 27.1882 12.4995 309.468 31.1611 17.0791 83.2858 78.6734 55.0815 278.307 45.8621 813.447 10.9372 272.746
internal_count=7370 5268 2102 5155 2267 299 1968 610 1492 359 262 290 1945 113 171 261 184 91 97 52 1893 162 74 251 226 183 1731 136 1202 52 1711
shrinkage=0.005


Tree=15
num_leaves=32
num_cat=0
split_feature=5 348 285 238 3 91 61 521 378 7 121 52 488 8 490 378 495 57 548 292 406 492 219 357 492 131 357 474 252 392 47
split_gain=6764.63 809.044 621.791 271.886 360.937 198.01 137.283 92.89 71.8885 60.9528 58.1326 49.9141 54.0548 49.1144 46.2435 45.4118 43.9773 45.7507 42.0196 41.7948 54.3975 45.5992 39.3253 37.285 45.4481 35.8115 35.9666 35.6264 33.5136 30.4847 28.7266
threshold=103.09985351562501 134.69995117187503 153.59985351562503 0.27772192656993872 19.082499504089359 0.58246690034866344 132.09985351562503 30.957498550415043 0.56265097856521618 1.4051241278648379 0.0007945690995087545 24.457499504089359 95.899902343750014 0.2123374938964844 0.53322461247444164 0.27752427756786352 131.09985351562503 0.15844750404357913 0.001515450014267117 85.699951171875014 0.32202062010765081 0.0015291000017896297 0.0012286500423215332 0.85234604561502503 0.00086595001630485069 121.29980468750001 0.55867096781730663 155.09985351562503 0.90879431366920482 0.48225015401840216 128.69995117187503
decision_type=10 10 8 8 10 8 10 8 8 10 8 10 10 10 10 8 10 8 10 8 10 8 10 8 10 10 10 8 10 10 8
left_child=1 3 5 -1 6 8 13 11 14 16 -4 15 -13 19 -2 -6 17 18 -7 20 -5 -22 -18 24 -12 26 -21 -3 30 -20 -10
right_child=2 27 10 4 7 9 -8 -9 28 -11 23 12 -14 -15 -16 -17 22 -19 29 25 21 -23 -24 -25 -26 -27 -28 -29 -30 -31 -32
leaf_value=0.0056889464820908241 0.002786798198692696 -0.0053964232402847357 -0.0054202919907616947 0.0027511401466399589 0.0021793700489375423 -0.015066272457626227 -0.014157860066791188 -0.016749551852021961 -0.013052947265653073 -0.017653909586592742 -0.00088037178440994956 0.0032584240789188704 -0.011149841878111712 -0.011244749552672153 -0.009747225707884194 -0.01379021755585281 -0.0023397154839979854 0.00048761078191363267 -0.010305697622779919 0.00465750653062232 -0.015713627335147785 0.0057347530865719133 -0.015507366850418791 -0.01902915077652256 -0.016295879554037999 -0.0085023996124704085 -0.0079658539560115028 -0.017869944685694188 0.0058336463043320687 0.0060915180940150923 0.0009544460790465606
leaf_weight=444.28474907577038 42.528557270765305 6.8811044543981543 8.6453750878572446 24.453934252262115 5.4434111416339874 18.135252371430401 11.935026958584784 27.405766412615776 23.28687763214112 45.111290007829666 5.379727527499198 21.355513900518421 9.355653762817381 5.8051283359527579 8.9050482362508756 21.355124473571781 6.8663024753332129 14.311372831463812 6.089980795979498 252.0417465120554 9.3216267377138102 3.2642993330955514 43.050542190670967 798.30371196568012 67.619589060544968 5.4549696892499915 5.7021982669830313 50.540125370025635 3.2522853761911383 5.2316155284643173 4.1274969875812522
leaf_count=2959 248 28 36 145 31 43 30 54 68 81 24 126 31 20 32 57 30 73 20 1612 26 21 96 1144 134 20 23 85 20 31 22
internal_value=0 0.351689 -3.339 0.598214 0.00246176 -1.83618 0.492392 -1.82862 -0.600074 -2.5652 -3.71591 -1.09845 -0.216395 0.622999 0.117507 -2.09809 -2.09705 -1.35096 -2.06488 0.679527 -0.310371 -2.00631 -2.74523 -3.74168 -3.03607 0.819975 0.874483 -3.28026 -1.81337 -0.519238 -2.17786
internal_weight=0 904.6 1100.85 847.179 402.894 220.897 317.979 84.9155 82.1003 138.796 879.948 57.5097 30.7112 306.044 51.4336 26.7985 93.6851 43.7682 29.4568 300.239 37.0399 12.5859 49.9168 871.303 72.9993 263.199 257.744 57.4212 30.6667 11.3216 27.4144
internal_count=7370 5268 2102 5155 2196 764 1897 299 390 374 1338 245 157 1867 280 88 293 167 94 1847 192 47 126 1302 158 1655 1635 113 110 51 90
shrinkage=0.005


Tree=16
num_leaves=32
num_cat=0
split_feature=5 348 147 238 66 441 14 458 28 96 381 460 316 61 215 292 502 376 481 246 541 235 323 511 359 407 166 126 38 200 58
split_gain=6618.11 796.352 608.8 270.634 356.122 161.471 122.08 117.524 103.865 77.9034 62.9708 56.9298 53.1324 53.129 52.5552 49.5196 52.8129 44.506 42.8632 42.678 48.8789 43.6851 40.4577 40.8199 40.239 35.9957 35.014 34.2636 35.5423 27.2496 27.0039
threshold=103.09985351562501 134.69995117187503 0.73759004473686229 0.27772192656993872 19.01249980926514 0.90989157557487499 0.6472410559654237 30.739999771118168 0.47191576659679418 178.50000000000003 25.322499275207523 138.89990234375003 0.14646255970001223 132.09985351562503 104.89990234375001 86.699951171875014 97.099853515625014 109.29980468750001 162.99975585937503 0.027332936733407361 0.00074955000309273611 0.00048400089144706731 0.1064392161653659 0.62397545576095592 0.0017835000762715938 0.18203508853912356 84.117230177634312 0.55504819750785839 18.632499694824222 8.2301670488411981e-05 0.00085000001126900326
decision_type=10 10 8 8 10 8 10 8 10 8 10 8 10 10 10 8 10 10 8 8 10 10 8 8 8 8 8 10 10 8 10
left_child=1 3 5 -1 6 8 13 10 -2 11 24 12 29 15 -7 16 26 -12 -3 -10 -21 22 23 -22 -6 -24 -5 28 -17 -4 -13
right_child=2 18 9 4 7 14 -8 -9 19 -11 17 30 -14 -15 -16 27 -18 -19 -20 20 21 -23 25 -25 -26 -27 -28 -29 -30 -31 -32
leaf_value=0.0056811129483955005 0.0024332854193675952 -0.0055657677884058954 -0.016478315691148427 0.0050473990613995713 0.0017054328905942214 0.0010482663262964946 -0.015374578057233603 -0.018788285622848285 0.0033918999554035977 -0.018709368607772683 0.0026828162501426676 -0.004942240316226084 0.0016823504760266131 -0.01044396425276768 -0.017120649426085464 0.0045790284479501966 -0.014546331403052948 -0.011916264915376243 -0.01798846276651592 0.0059989045115572048 -0.015079817236231353 0.0028436484833880356 -0.0085232010201631413 0.0010593510334882983 -0.013871705140336494 0.0059625101156626286 -0.0052678089279294569 -0.008135442562777517 -0.0080991464604394398 -0.004435399600101037 -0.01702973076586705
leaf_weight=442.67691856622696 33.140765160322189 8.5313446223735792 15.167283833026888 19.503258287906647 4.905598625540736 4.1816217452287665 9.3817255049943906 23.533592090010643 7.7232333719730377 799.4029877781868 23.798819452524189 5.2654418498277655 8.9391576051712018 7.2287607192993155 47.843824282288551 253.19184646010399 6.8642585575580588 6.6951156556606284 49.369251221418381 5.1977920532226554 43.042171597480774 6.3218611031770697 27.566572546958927 4.132200062274932 22.260473400354385 4.9696499705314592 14.242042213678358 5.5959074795246115 5.5837920308113089 7.4017117917537716 89.783183872699738
leaf_count=2959 192 35 30 123 28 22 22 37 45 1150 139 20 45 22 89 1620 20 21 78 32 104 35 99 21 58 31 65 21 20 29 158
internal_value=0 0.350419 -3.29459 0.59644 0.00245283 -1.63074 0.47573 -1.86841 -1.03944 -3.62512 -1.09212 -2.88523 -1.69938 0.583385 -3.12629 0.647706 -0.376431 -0.0946609 -3.23679 -1.55358 -1.74582 -1.92727 -2.12899 -2.72686 -2.20072 -1.2529 0.129893 0.806156 0.859933 -2.51904 -3.27518
internal_weight=0 903.363 1110.08 845.462 402.785 184.12 321.592 81.1936 132.094 925.96 57.66 126.557 31.5082 312.21 52.0254 304.981 40.6096 30.4939 57.9006 98.9535 91.2302 86.0325 79.7106 47.1744 27.1661 32.5362 33.7453 264.372 258.776 22.569 95.0486
internal_count=7370 5268 2102 5155 2196 670 1913 283 559 1432 246 282 104 1891 111 1869 208 160 113 367 322 290 255 125 86 130 188 1661 1640 59 178
shrinkage=0.005


Tree=17
num_leaves=32
num_cat=0
split_feature=12 348 147 238 3 297 56 462 542 131 406 96 38 394 358 348 7 28 319 211 137 519 543 411 497 558 152 362 96 460 316
split_gain=6100.1 1221.11 382.484 343.233 370.183 129.77 116.669 95.6995 87.9486 81.6904 76.4115 71.9644 71.4939 67.0674 77.9226 56.5624 51.3379 51.0065 47.8462 47.588 46.7326 44.6698 74.9811 34.652 34.5506 32.0504 30.3262 28.9592 26.4003 25.1295 38.6485
threshold=117.50000000000001 124.09985351562501 0.75315201282501232 0.27619370896280876 19.082499504089359 29.467499732971195 0.53635764122009288 0.84443503618240368 25.432499885559086 127.29980468750001 0.88007435202598583 178.50000000000003 17.44999980926514 0.0016771500231698158 0.14735496044158938 108.09985351562501 1.451755225658417 0.455877035856247 6.1341218276452341e-05 0.062482476234436042 0.00039299577474594122 0.084200024604797377 1.3999640941619868e-05 85.227048826474714 0.5190839171409608 109.29980468750001 114.39990234375001 137.09985351562503 161.29980468750003 138.89990234375003 0.14705753326416018
decision_type=10 10 8 8 10 8 10 8 10 10 8 8 10 8 10 8 8 10 10 8 8 10 10 10 10 8 10 8 10 8 10
left_child=1 3 7 -1 6 8 9 13 19 21 12 15 -3 14 17 -4 28 -2 -8 -6 -19 24 23 -23 -5 -24 -14 -9 -15 30 -17
right_child=2 10 11 4 5 -7 18 27 -10 -11 -12 -13 26 16 -16 29 -18 20 -20 -21 -22 22 25 -25 -26 -27 -28 -29 -30 -31 -32
leaf_value=0.0056765239508937797 0.0023921500596731891 0.0036995120964572561 0.0058768652058296513 0.0042960701168940421 0.0058966180774272419 -0.015537190739559616 -0.013563728202112931 -0.0053007900471576186 0.0028717438143712826 -0.01247766036395109 -0.018121006347877108 -0.01849371773257583 -0.0024073211178520376 0.006174643284824111 0.0039313550991146454 -0.013954112228577569 -0.011634419485286989 -0.014929438788219618 0.0026816663212773906 -0.012447666179808645 -3.3657605385989588e-05 -0.015677031127630164 0.0048820908571909002 0.0010014924862373899 -0.0081507132812497426 -0.0049642984712920842 -0.017961120894220427 -0.016762023460163006 -0.0052392091784040796 -0.016087737325962626 0
leaf_weight=443.35704924166203 5.7515358328819266 8.4951578080654162 3.3061528503894806 247.12119497358799 4.007893443107605 43.808113217353821 16.403367206454281 6.8962965458631516 25.228253290057182 8.6272498667240125 77.361368954181671 773.32539522647858 4.505951493978503 18.204463303089145 9.412664130330084 18.021669656038288 7.9202617257833472 44.270240321755409 6.0841106921434394 25.026437580585483 6.2202491760253897 10.27848671376705 33.111345157027245 4.2511982172727576 5.6396893858909598 10.926397517323492 12.565241307020186 39.664529591798782 6.9243910610675803 87.959785804152489 6.5803566724061957
leaf_count=2973 33 49 20 1568 25 93 43 27 149 24 118 1099 20 114 55 42 24 106 34 71 31 29 209 24 23 50 22 73 27 164 31
internal_value=0 0.134081 -3.3411 0.513995 -0.110645 -1.82439 0.37927 -1.83226 -0.783002 0.534803 -3.12544 -3.58725 -1.60449 -1.26924 -1.85478 -2.84055 -0.0969461 -2.30212 -1.82035 -1.97275 -2.62481 0.619741 -0.163804 -2.13877 0.802484 0.481 -2.78871 -3.01933 0.59396 -2.96117 -2.03234
internal_weight=0 986.799 1034.46 883.871 440.514 98.0707 342.443 145.265 54.2626 319.956 102.928 889.193 25.5664 98.7038 65.6547 115.868 33.0491 56.242 22.4875 29.0343 50.4905 311.328 58.5674 14.5297 252.761 44.0377 17.0712 46.5608 25.1289 112.562 24.602
internal_count=7370 5524 1846 5315 2342 338 2004 490 245 1927 209 1356 91 390 225 257 165 170 77 96 137 1903 312 53 1591 259 42 100 141 237 73
shrinkage=0.005


Tree=18
num_leaves=32
num_cat=0
split_feature=5 348 215 238 66 14 458 371 313 147 287 147 185 61 292 497 488 474 494 67 481 121 54 421 366 166 126 38 82 30 565
split_gain=6342.25 771.806 575 267.996 347.014 118.385 112.03 108.14 89.9776 68.5437 65.0643 59.9054 55.8855 51.8318 49.0718 51.2834 46.9778 46.4964 44.0878 43.3045 40.7554 37.8497 34.9079 38.9237 34.7635 33.8004 33.6137 34.8401 31.7033 40.7843 50.0386
threshold=103.09985351562501 134.69995117187503 140.89990234375003 0.27772192656993872 19.01249980926514 0.6472410559654237 30.739999771118168 0.6338297724723817 171.89990234375003 0.50555074214935314 0.44350035488605505 0.69319364428520214 25.292499542236332 132.09985351562503 86.699951171875014 0.41202895343303686 95.899902343750014 171.39990234375003 0.00033099949359893804 0.00010899826884269716 162.99975585937503 0.00079760001972317706 132.58478474687516 0.15496253967285159 0.001778950041625649 84.117230177634312 0.55504819750785839 18.632499694824222 201.09985351562503 0.0016354499966837468 164.50000000000003
decision_type=10 10 8 8 10 10 8 10 8 10 10 10 8 10 8 10 10 10 10 10 8 8 10 8 8 8 10 10 8 8 8
left_child=1 3 7 -1 5 13 12 9 11 18 -11 17 24 14 15 25 -14 -4 -2 22 -3 -10 23 -12 -6 -5 27 -16 29 -13 -31
right_child=2 20 8 4 6 -7 -8 -9 21 10 19 28 16 -15 26 -17 -18 -19 -20 -21 -22 -23 -24 -25 -26 -27 -28 -29 -30 30 -32
leaf_value=0.0056655861125993546 0.0015505958487081165 -0.005441476109379657 0.0036656738566642972 0.0050227092305069236 0.0012570166335539327 -0.014968005758909218 -0.018294273880960169 -0.013836510574097632 -0.0067774167084312777 -0.014436617042206099 -0.013058160008608521 -0.014869605636365005 0.0026688378650876394 -0.010217206500917094 0.0045619848568433895 -0.014259621285163272 -0.010356501302127849 -0.012999814727771324 -0.010113573904819973 0.0042688780112201423 -0.01750206635794397 -0.018239129681484504 0.0059125988446209208 0.0057422551701719346 -0.013901260016508326 -0.0050995895703731019 -0.0079777734368956729 -0.0079302547647954157 -0.017603110928398356 0.0037136588613258738 -0.013500511557454247
leaf_weight=439.47903545200825 44.192330896854401 8.6051475554704648 8.2099497914314288 19.250045120716095 4.4535689353942898 9.5384252965450269 23.94644683599472 45.525854229927063 7.7075381577014914 25.571586415171623 17.858565315604213 44.072914958000183 23.604956313967705 7.3123784214258185 251.90098063647747 6.950226590037345 9.7844154685735685 8.3655256330966932 9.9282174557447416 11.005833998322485 50.236962333321571 822.23381285369396 3.9073166847228995 3.1442155390977886 20.166394948959351 14.444126233458517 5.6480935811996451 5.6384286880493155 59.405766487121582 7.6877566426992443 9.1296136975288373
leaf_count=2959 245 35 46 122 25 22 37 112 29 63 47 92 137 22 1620 20 33 21 34 65 78 1152 24 20 51 66 21 20 93 39 20
internal_value=0 0.348075 -3.21009 0.593048 0.0028189 0.472949 -1.83308 -1.45783 -3.50182 -0.939576 -1.66287 -2.74116 -1.07422 0.580183 0.644314 -0.374366 -0.220636 -0.930957 -0.112288 -0.782718 -3.15276 -3.6269 -1.5178 -2.03445 -2.21966 0.127786 0.80277 0.856532 -2.98809 -2.46362 -1.10843
internal_weight=0 900.96 1127.95 842.118 402.638 320.683 81.9558 161.134 966.813 115.608 61.4875 136.872 58.0093 311.144 303.832 40.6444 33.3894 16.5755 54.1205 35.9159 58.8421 829.941 24.9101 21.0028 24.62 33.6942 263.188 257.539 120.296 60.8903 16.8174
internal_count=7370 5268 2102 5155 2196 1913 283 610 1492 498 219 311 246 1891 1869 208 170 67 279 156 113 1181 91 67 76 188 1661 1640 244 151 59
shrinkage=0.005


Tree=19
num_leaves=32
num_cat=0
split_feature=5 348 215 243 66 458 21 91 110 462 381 61 322 168 147 488 497 278 481 210 187 229 7 70 15 78 21 18 539 424 481
split_gain=6210.08 760.131 558.648 260.021 328.458 118.502 115.774 104.303 87.6443 66.4658 60.9782 56 52.2235 76.0567 42.2539 41.5481 40.453 68.1925 39.6012 37.9458 37.1562 34.3101 33.7611 57.5129 49.1004 32.1202 29.9023 33.361 31.332 29.868 29.4269
threshold=103.09985351562501 134.69995117187503 140.89990234375003 74.788828851232566 19.01249980926514 30.739999771118168 0.57981941103935253 0.56500202417373668 191.80004882812503 0.92912456393241893 25.322499275207523 131.50000000000003 0.82896539568901073 0.6975291669368745 0.48986497521400457 95.899902343750014 0.39536249637603765 88.668587016002235 162.99975585937503 0.39460135996341711 115.29980468750001 61.277394072411219 1.0252577662467959 0.59118232131004345 0.16688890638714857 0.12958991527557376 0.57221460342407238 1.8621420873602571e-05 0.47786800563335424 7.299706339836122e-05 110.89990234375001
decision_type=10 10 8 8 10 8 10 8 8 8 10 10 8 10 8 10 10 10 8 8 10 8 10 10 8 10 10 8 10 8 10
left_child=1 3 7 -1 6 10 11 9 12 26 19 16 13 -4 -9 -12 20 -18 -3 29 21 -5 23 -16 25 -25 27 30 -28 -6 -2
right_child=2 18 8 4 5 -7 -8 14 -10 -11 15 -13 -14 -15 22 -17 17 -19 -20 -21 -22 -23 -24 24 -26 -27 28 -29 -30 -31 -32
leaf_value=0.0056945606051742974 -0.0087537107935536616 -0.0053976256993123316 0.00020793983971445024 -0.0078719464303968964 0.0059447793812799892 -0.018037627699529452 -0.013219733864344311 0.0058938454110182992 -0.018031865390358181 -0.015316846810553807 0.0034397647006704315 -0.011013490893283791 -0.015828990863114727 -0.013445658452618336 -0.014717676583928647 -0.0091338469507014405 -0.012040397872080744 0.0037452184775431151 -0.017267978958549989 -0.014894465289840238 -0.0092993633375846648 0.0043721116013670019 -0.016354552781239123 -0.00063390093297751953 0.0060389190060526968 -0.013230542111846995 -0.0002174808702125535 0.0041227991291308396 -0.01388620378432881 -0.010452129967268695 0.0059268968874812908
leaf_weight=426.859320551157 12.210838750004774 8.6316138952970487 13.554176539182661 5.7765662521123922 5.0625725835561717 24.165174961090088 11.436476841568945 3.4713138639926902 780.60926352441311 9.3650117367506009 22.965261369943619 6.9758817553520194 141.83374850451946 38.927663147449493 27.088669344782829 9.2287174612283689 11.1770176589489 17.514636337757111 50.662312135100365 17.261425033211712 5.2112486064434043 270.71237102150917 26.871671929955482 8.5433657765388507 7.9005114287138012 13.518602326512335 9.2634062767028826 30.813859060406681 8.0679563879966718 6.0400934666395205 4.6356786191463462
leaf_count=2888 45 35 67 25 32 37 30 21 1081 20 138 20 256 88 61 33 37 107 78 39 20 1729 50 40 50 35 47 190 22 20 29
internal_value=0 0.346832 -3.16944 0.591303 0.0253131 -1.72991 0.478494 -1.44497 -3.45524 -0.568519 -0.975706 0.591958 -2.84658 -1.97817 -2.18724 -0.0235982 0.655733 -0.470378 -3.11305 -2.0458 0.771494 0.822175 -2.33005 -1.88163 -0.911564 -1.68411 -0.204406 0.199849 -1.3334 -0.568079 -0.924998
internal_weight=0 899.681 1136.68 840.387 413.527 84.7232 328.804 161.751 974.925 74.3568 60.5581 317.368 194.316 52.4818 87.3941 32.194 310.392 28.6917 59.2939 28.3641 281.7 276.489 83.9228 57.0511 29.9625 22.062 64.9917 47.6604 17.3314 11.1027 16.8465
internal_count=7370 5268 2102 5155 2267 299 1968 610 1492 353 262 1938 411 155 257 171 1918 144 113 91 1774 1754 236 186 125 75 333 264 69 52 74
shrinkage=0.005


Tree=20
num_leaves=32
num_cat=0
split_feature=5 348 215 238 66 14 458 371 285 105 147 287 381 441 182 381 67 165 488 287 166 25 91 481 357 54 421 121 555 89 35
split_gain=6082.4 748.758 542.875 265.572 337.879 115.212 106.289 103.851 85.2209 78.5699 66.2677 62.7491 58.7691 57.413 49.5211 45.2518 42.4617 41.2868 40.1975 39.5622 47.6195 46.2983 39.3759 38.5003 36.7234 34.0381 37.6566 33.8241 33.1665 30.5991 48.9081
threshold=103.09985351562501 134.69995117187503 140.89990234375003 0.27772192656993872 19.01249980926514 0.6472410559654237 30.739999771118168 0.6338297724723817 177.89990234375003 0.72389051318168651 0.50555074214935314 0.44350035488605505 25.322499275207523 0.96002259850502025 0.52299004793167125 30.054999351501468 0.00010899826884269716 9.4998627901077284e-05 95.899902343750014 0.32867895066738134 84.117230177634312 2.167794714815231e-05 0.43676464259624487 162.99975585937503 0.56199100613594066 132.58478474687516 0.15496253967285159 0.00079760001972317706 0.0017581499996595087 102.29980468750001 0.37942424416542059
decision_type=10 10 8 8 10 10 8 10 8 10 10 10 10 10 10 8 10 8 10 8 10 10 10 8 10 10 8 8 8 8 10
left_child=1 3 7 -1 5 14 12 10 9 13 15 -12 28 17 19 29 25 -4 -14 20 -5 -22 -16 -3 -21 26 -13 -10 -6 30 -2
right_child=2 23 8 4 6 -7 -8 -9 27 -11 11 16 18 -15 22 -17 -18 -19 -20 24 21 -23 -24 -25 -26 -27 -28 -29 -30 -31 -32
leaf_value=0.0056502669380910312 0.0042827980038090407 -0.0053543150217694006 -0.0077177810281388254 0.0026694048709125146 0.0014205455110668278 -0.014625724269666298 -0.017789065356342275 -0.013530445276974317 -0.0068811094327596656 -0.015495483658668957 -0.014118723783426315 -0.012779195941989636 0.0032451182097094885 -0.015666683221906751 -0.013067338795586414 -0.011674488992910036 0.0042735174963292721 0.0061960990284508997 -0.0092914679421774327 0.0042626360142903512 -0.016758504499096931 0.0020566246056081977 0.0058641166082997308 -0.01704092600816929 -0.0089427047354528749 0.0059079251775389129 0.0057311110730206595 -0.017800981381028917 -0.013008326044714247 0.0052993432659903987 -0.010398793685906522
